{"layers": [784, 8, 8, 8, 10], "input": [0.0, 0.0, 0.0, 0.0, 0.0, 0.0, 0.0, 0.0, 0.0, 0.0, 0.0, 0.0, 0.0, 0.0, 0.0, 0.0, 0.0, 0.0, 0.0, 0.0, 0.0, 0.0, 0.0, 0.0, 0.0, 0.0, 0.0, 0.0, 0.0, 0.0, 0.0, 0.0, 0.0, 0.0, 0.0, 0.0, 0.0, 0.0, 0.0, 0.0, 0.0, 0.0, 0.0, 0.0, 0.0, 0.0, 0.0, 0.0, 0.0, 0.0, 0.0, 0.0, 0.0, 0.0, 0.0, 0.0, 0.0, 0.0, 0.0, 0.0, 0.0, 0.0, 0.0, 0.0, 0.0, 0.0, 0.0, 0.0, 0.0, 0.0, 0.0, 0.0, 0.0, 0.0, 0.0, 0.0, 0.0, 0.0, 0.0, 0.0, 0.0, 0.0, 0.0, 0.0, 0.0, 0.0, 0.0, 0.0, 0.0, 0.0, 0.0, 0.0, 0.0, 0.0, 0.0, 0.0, 0.0, 0.0, 0.0, 0.0, 0.0, 0.0, 0.0, 0.0, 0.0, 0.0, 0.0, 0.0, 0.0, 0.0, 0.0, 0.0, 0.0, 0.0, 0.0, 0.0, 0.0, 0.0, 0.0, 0.0, 0.0, 0.0, 0.0, 0.0, 0.0, 0.0, 0.0, 0.0, 0.0, 0.0, 0.0, 0.0, 0.0, 0.0, 0.0, 0.0, 0.0, 0.0, 0.0, 0.0, 0.0, 0.0, 0.0, 0.0, 0.0, 0.0, 0.0, 0.0, 0.0, 0.0, 0.0, 0.0, 0.0, 0.0, 0.0, 0.0, 0.0, 0.0, 0.0, 0.0, 0.0, 0.0, 0.0, 0.0, 0.0, 0.0, 0.0, 0.0, 0.0, 0.0, 0.0, 0.0, 0.0, 0.0, 0.0, 0.0, 0.0, 0.0, 0.0, 0.0, 0.0, 0.0, 0.0, 0.0, 0.0, 0.0, 0.0, 0.0, 0.0, 0.0, 0.0, 0.0, 0.0, 0.0, 0.0, 0.0, 0.0, 0.0, 0.0, 0.0, 0.0, 0.0, 0.3294117748737335, 0.7254902124404907, 0.6235294342041016, 0.5921568870544434, 0.23529411852359772, 0.1411764770746231, 0.0, 0.0, 0.0, 0.0, 0.0, 0.0, 0.0, 0.0, 0.0, 0.0, 0.0, 0.0, 0.0, 0.0, 0.0, 0.0, 0.0, 0.0, 0.0, 0.0, 0.0, 0.0, 0.8705882430076599, 0.9960784316062927, 0.9960784316062927, 0.9960784316062927, 0.9960784316062927, 0.9450980424880981, 0.7764706015586853, 0.7764706015586853, 0.7764706015586853, 0.7764706015586853, 0.7764706015586853, 0.7764706015586853, 0.7764706015586853, 0.7764706015586853, 0.6666666865348816, 0.20392157137393951, 0.0, 0.0, 0.0, 0.0, 0.0, 0.0, 0.0, 0.0, 0.0, 0.0, 0.0, 0.0, 0.26274511218070984, 0.4470588266849518, 0.2823529541492462, 0.4470588266849518, 0.6392157077789307, 0.8901960849761963, 0.9960784316062927, 0.8823529481887817, 0.9960784316062927, 0.9960784316062927, 0.9960784316062927, 0.9803921580314636, 0.8980392217636108, 0.9960784316062927, 0.9960784316062927, 0.5490196347236633, 0.0, 0.0, 0.0, 0.0, 0.0, 0.0, 0.0, 0.0, 0.0, 0.0, 0.0, 0.0, 0.0, 0.0, 0.0, 0.0, 0.0, 0.06666667014360428, 0.25882354378700256, 0.054901961237192154, 0.26274511218070984, 0.26274511218070984, 0.26274511218070984, 0.23137255012989044, 0.08235294371843338, 0.9254902005195618, 0.9960784316062927, 0.4156862795352936, 0.0, 0.0, 0.0, 0.0, 0.0, 0.0, 0.0, 0.0, 0.0, 0.0, 0.0, 0.0, 0.0, 0.0, 0.0, 0.0, 0.0, 0.0, 0.0, 0.0, 0.0, 0.0, 0.0, 0.0, 0.32549020648002625, 0.9921568632125854, 0.8196078538894653, 0.07058823853731155, 0.0, 0.0, 0.0, 0.0, 0.0, 0.0, 0.0, 0.0, 0.0, 0.0, 0.0, 0.0, 0.0, 0.0, 0.0, 0.0, 0.0, 0.0, 0.0, 0.0, 0.0, 0.0, 0.0, 0.08627451211214066, 0.9137254953384399, 1.0, 0.32549020648002625, 0.0, 0.0, 0.0, 0.0, 0.0, 0.0, 0.0, 0.0, 0.0, 0.0, 0.0, 0.0, 0.0, 0.0, 0.0, 0.0, 0.0, 0.0, 0.0, 0.0, 0.0, 0.0, 0.0, 0.0, 0.5058823823928833, 0.9960784316062927, 0.9333333373069763, 0.1725490242242813, 0.0, 0.0, 0.0, 0.0, 0.0, 0.0, 0.0, 0.0, 0.0, 0.0, 0.0, 0.0, 0.0, 0.0, 0.0, 0.0, 0.0, 0.0, 0.0, 0.0, 0.0, 0.0, 0.0, 0.23137255012989044, 0.9764705896377563, 0.9960784316062927, 0.24313725531101227, 0.0, 0.0, 0.0, 0.0, 0.0, 0.0, 0.0, 0.0, 0.0, 0.0, 0.0, 0.0, 0.0, 0.0, 0.0, 0.0, 0.0, 0.0, 0.0, 0.0, 0.0, 0.0, 0.0, 0.0, 0.5215686559677124, 0.9960784316062927, 0.7333333492279053, 0.019607843831181526, 0.0, 0.0, 0.0, 0.0, 0.0, 0.0, 0.0, 0.0, 0.0, 0.0, 0.0, 0.0, 0.0, 0.0, 0.0, 0.0, 0.0, 0.0, 0.0, 0.0, 0.0, 0.0, 0.0, 0.03529411926865578, 0.8039215803146362, 0.9725490212440491, 0.22745098173618317, 0.0, 0.0, 0.0, 0.0, 0.0, 0.0, 0.0, 0.0, 0.0, 0.0, 0.0, 0.0, 0.0, 0.0, 0.0, 0.0, 0.0, 0.0, 0.0, 0.0, 0.0, 0.0, 0.0, 0.0, 0.4941176474094391, 0.9960784316062927, 0.7137255072593689, 0.0, 0.0, 0.0, 0.0, 0.0, 0.0, 0.0, 0.0, 0.0, 0.0, 0.0, 0.0, 0.0, 0.0, 0.0, 0.0, 0.0, 0.0, 0.0, 0.0, 0.0, 0.0, 0.0, 0.0, 0.29411765933036804, 0.9843137264251709, 0.9411764740943909, 0.2235294133424759, 0.0, 0.0, 0.0, 0.0, 0.0, 0.0, 0.0, 0.0, 0.0, 0.0, 0.0, 0.0, 0.0, 0.0, 0.0, 0.0, 0.0, 0.0, 0.0, 0.0, 0.0, 0.0, 0.0, 0.07450980693101883, 0.8666666746139526, 0.9960784316062927, 0.6509804129600525, 0.0, 0.0, 0.0, 0.0, 0.0, 0.0, 0.0, 0.0, 0.0, 0.0, 0.0, 0.0, 0.0, 0.0, 0.0, 0.0, 0.0, 0.0, 0.0, 0.0, 0.0, 0.0, 0.0, 0.0117647061124444, 0.7960784435272217, 0.9960784316062927, 0.8588235378265381, 0.13725490868091583, 0.0, 0.0, 0.0, 0.0, 0.0, 0.0, 0.0, 0.0, 0.0, 0.0, 0.0, 0.0, 0.0, 0.0, 0.0, 0.0, 0.0, 0.0, 0.0, 0.0, 0.0, 0.0, 0.0, 0.14901961386203766, 0.9960784316062927, 0.9960784316062927, 0.3019607961177826, 0.0, 0.0, 0.0, 0.0, 0.0, 0.0, 0.0, 0.0, 0.0, 0.0, 0.0, 0.0, 0.0, 0.0, 0.0, 0.0, 0.0, 0.0, 0.0, 0.0, 0.0, 0.0, 0.0, 0.12156862765550613, 0.8784313797950745, 0.9960784316062927, 0.45098039507865906, 0.003921568859368563, 0.0, 0.0, 0.0, 0.0, 0.0, 0.0, 0.0, 0.0, 0.0, 0.0, 0.0, 0.0, 0.0, 0.0, 0.0, 0.0, 0.0, 0.0, 0.0, 0.0, 0.0, 0.0, 0.0, 0.5215686559677124, 0.9960784316062927, 0.9960784316062927, 0.20392157137393951, 0.0, 0.0, 0.0, 0.0, 0.0, 0.0, 0.0, 0.0, 0.0, 0.0, 0.0, 0.0, 0.0, 0.0, 0.0, 0.0, 0.0, 0.0, 0.0, 0.0, 0.0, 0.0, 0.0, 0.239215686917305, 0.9490196108818054, 0.9960784316062927, 0.9960784316062927, 0.20392157137393951, 0.0, 0.0, 0.0, 0.0, 0.0, 0.0, 0.0, 0.0, 0.0, 0.0, 0.0, 0.0, 0.0, 0.0, 0.0, 0.0, 0.0, 0.0, 0.0, 0.0, 0.0, 0.0, 0.0, 0.4745098054409027, 0.9960784316062927, 0.9960784316062927, 0.8588235378265381, 0.1568627506494522, 0.0, 0.0, 0.0, 0.0, 0.0, 0.0, 0.0, 0.0, 0.0, 0.0, 0.0, 0.0, 0.0, 0.0, 0.0, 0.0, 0.0, 0.0, 0.0, 0.0, 0.0, 0.0, 0.0, 0.4745098054409027, 0.9960784316062927, 0.8117647171020508, 0.07058823853731155, 0.0, 0.0, 0.0, 0.0, 0.0, 0.0, 0.0, 0.0, 0.0, 0.0, 0.0, 0.0, 0.0, 0.0, 0.0, 0.0, 0.0, 0.0, 0.0, 0.0, 0.0, 0.0, 0.0, 0.0, 0.0, 0.0, 0.0, 0.0, 0.0, 0.0, 0.0, 0.0, 0.0, 0.0, 0.0, 0.0, 0.0, 0.0, 0.0, 0.0, 0.0, 0.0], "label": 7, "weights": {"1": [[0.023504041135311127, 0.004603557288646698, 0.022656768560409546, -0.03106527402997017, 0.02276298776268959, -0.030704494565725327, -0.0005408115684986115, -0.006653832271695137], [-0.028150713071227074, -0.017493508756160736, 0.030968617647886276, -0.009026974439620972, 0.02737712487578392, 0.014829933643341064, 0.01918836310505867, -0.013903507962822914], [0.011404808610677719, -0.03442353010177612, 0.03250868245959282, -0.0156567320227623, 0.01441904902458191, 0.012383874505758286, -0.005500117316842079, -0.0016465075314044952], [0.00953182578086853, -0.002920914441347122, -0.013843255117535591, -0.010182121768593788, -0.033864494413137436, -0.013994673267006874, -0.035069651901721954, 0.008072718977928162], [0.025525499135255814, -0.009913623332977295, -0.014944171532988548, 0.014243006706237793, 0.035245176404714584, -0.025092005729675293, 0.004967872053384781, -0.01106603629887104], [-0.017870524898171425, 0.026814240962266922, -0.023846393451094627, 0.0076380521059036255, -0.025731483474373817, -0.011919081211090088, 0.03540826961398125, -0.02565154992043972], [-0.02671929821372032, -0.016131125390529633, -0.02521781623363495, 0.03201546147465706, 0.011922910809516907, 0.025271743535995483, -0.004647715017199516, -0.01609422080218792], [0.008316125720739365, 0.02312857285141945, 0.029310990124940872, -0.030773377045989037, -0.02921626903116703, 0.009373489767313004, 0.0033156052231788635, -0.009160822257399559], [0.029784929007291794, -0.028511840850114822, 0.019766341894865036, 0.014407459646463394, -0.02506859041750431, -0.008527368307113647, 0.011707186698913574, 0.008035082370042801], [-0.018146434798836708, 0.011216364800930023, 0.015168234705924988, -0.011613165959715843, 0.030014779418706894, 0.018779989331960678, 0.024934131652116776, -0.03334689885377884], [-0.007220817729830742, 0.027999263256788254, 0.017861459404230118, 0.01658918336033821, 0.02654217556118965, 0.025915559381246567, -0.008491486310958862, 0.030452635139226913], [0.02262866124510765, 0.012373827397823334, -0.02149260975420475, 0.025834571570158005, 0.005609624087810516, -0.003523707389831543, 0.0046774037182331085, 0.011894721537828445], [0.03096647560596466, -0.022025516256690025, 0.021263983100652695, 0.02575577236711979, 0.023417718708515167, 0.03302494063973427, -0.02404322661459446, -0.0039037689566612244], [-0.032141201198101044, -0.02850242704153061, 0.02761152945458889, 0.028358219191432, -0.0013061875943094492, -0.03233387693762779, 0.00563662126660347, -0.033040035516023636], [0.025868713855743408, -0.0134309446439147, 0.016442378982901573, -0.008228919468820095, -0.011255710385739803, -0.033047452569007874, 0.028976676985621452, 0.008575264364480972], [0.020054051652550697, -0.014863656833767891, 0.0020616899710148573, 0.023864181712269783, 0.01887275092303753, -0.008648812770843506, 0.009470798075199127, -0.015263993293046951], [0.022140339016914368, -0.018148580566048622, -0.03264250233769417, -0.0009240135550498962, 0.017380699515342712, -0.021522097289562225, 0.027344029396772385, 0.014253176748752594], [-0.0015449486672878265, -0.023301154375076294, -0.012651657685637474, 0.02595069259405136, 0.02119358628988266, -0.016918890178203583, -0.03039853647351265, -0.034800466150045395], [0.005169462412595749, -0.002743031829595566, -0.034662019461393356, 0.019364088773727417, 0.015279073268175125, 0.023874327540397644, 0.02618343010544777, -0.03078322857618332], [0.0036656446754932404, 0.005570538341999054, -0.035599470138549805, -0.007084846496582031, -0.013268373906612396, 0.027998413890600204, -0.005374405533075333, -0.019956452772021294], [-0.001799255609512329, 0.02124340832233429, 0.0025481656193733215, 0.016989726573228836, 0.02415771409869194, -0.01595885120332241, -0.014628631994128227, 0.03335762396454811], [-0.024337515234947205, 0.020412560552358627, 0.00440259650349617, 0.01932874321937561, 0.026465002447366714, 0.03541574999690056, 0.007261216640472412, -0.025992542505264282], [-0.017087124288082123, 0.011538740247488022, 0.016161110252141953, -0.015459738671779633, 0.013863615691661835, -0.017967743799090385, -0.02501048520207405, 0.0339931882917881], [-0.03159991651773453, -0.024962294846773148, 0.02833036705851555, 0.014333631843328476, -0.01765628531575203, 0.010337557643651962, -0.012297175824642181, 0.0004175044596195221], [-0.028739312663674355, -0.02615000307559967, -0.0032013915479183197, 0.021240193396806717, -0.02459789253771305, 0.03163701668381691, -0.014555016532540321, -0.022460227832198143], [-0.02291586622595787, -0.0006303563714027405, -0.013971265405416489, -0.0020683296024799347, -0.01070590503513813, -0.004011847078800201, -0.019200820475816727, -0.03429080918431282], [0.00526069849729538, -0.01713748089969158, -0.018166130408644676, -0.02855847217142582, -0.0155931506305933, -0.033166155219078064, 0.012566983699798584, 0.030538294464349747], [0.005291718989610672, -0.005687836557626724, 0.009379412978887558, -0.009542040526866913, 0.02944782003760338, 0.026714812964200974, -0.018312497064471245, 0.021700236946344376], [0.017639577388763428, -0.023150406777858734, -0.006265563890337944, -0.029633034020662308, -0.03218867629766464, -0.0023776404559612274, 0.00634249672293663, 0.0025801286101341248], [-0.002366621047258377, -0.019192887470126152, 0.026562005281448364, 0.0004967041313648224, 0.005342364311218262, 0.03349117562174797, -0.02010965347290039, -0.005979333072900772], [-0.020094076171517372, 0.03388394042849541, 0.021131079643964767, -0.006217658519744873, -0.02807692252099514, -0.019066929817199707, 0.0003814101219177246, -0.01929304003715515], [-0.028455063700675964, 0.0347735621035099, 0.012590676546096802, 0.03532414510846138, -0.0022679604589939117, -0.022747496142983437, -0.0028756149113178253, -0.0005127713084220886], [0.03485225886106491, -0.010734077543020248, 0.013272973708808422, 0.009496905840933323, 0.016644205898046494, 0.012903551571071148, 0.00019956560572609305, 0.021228227764368057], [0.023694761097431183, 0.024577884003520012, -0.0026465384289622307, 0.028156844899058342, 0.013344759121537209, 0.010995056480169296, 0.026876799762248993, 0.012248668819665909], [0.018667643889784813, -0.025728028267621994, -0.0176897831261158, -0.018043866381049156, 0.011729683727025986, 0.04848629608750343, 0.03252106159925461, -0.006579346489161253], [0.005841174628585577, -0.029807817190885544, -0.0301117654889822, -0.012558790855109692, 0.03644990175962448, 0.05764687806367874, -0.03524861857295036, -0.0351891927421093], [0.007045933045446873, -0.0362091101706028, 0.031247837468981743, -0.029427161440253258, -0.016843169927597046, 0.06329308450222015, 0.024604778736829758, 0.0006957306759431958], [0.010709724389016628, 0.018008871003985405, 0.02665148489177227, 0.012275593355298042, -0.011386791244149208, 0.03374314308166504, 0.006336744409054518, -0.0036586648784577847], [-0.00203656405210495, -0.014193449169397354, 0.008780483156442642, -0.015362055040895939, -0.0023419379722326994, -0.012812651693820953, -0.0005967228207737207, -0.00468455208465457], [0.014901439659297466, -0.04394927993416786, 0.013100848533213139, -0.007345366291701794, -0.0012207857798784971, 0.033456724137067795, -0.017919935286045074, -0.011986012570559978], [-0.019337831065058708, 0.0016423386987298727, 0.016375573351979256, -0.007207062561064959, -0.017227226868271828, 0.03777878358960152, 0.00950604397803545, -0.0200454443693161], [0.021068386733531952, 0.01623070053756237, -0.013635192066431046, 0.027062105014920235, -0.013061261735856533, 0.016495173797011375, -0.015702150762081146, -0.0036038500256836414], [0.016639767214655876, 0.016692453995347023, 0.02427884191274643, -0.03765323758125305, 0.04811927676200867, -0.030609946697950363, -0.009489400312304497, -0.01354800071567297], [-0.006524871569126844, 0.026455603539943695, 0.04226846247911453, -0.007938439026474953, 0.004293615929782391, -0.003734514582902193, -0.01085991133004427, -0.04222751781344414], [-0.011217787861824036, 0.003690736135467887, 0.006723760161548853, -0.02777811512351036, 0.021578414365649223, 0.06370048224925995, -0.05294324830174446, 0.014852968975901604], [-0.014432637952268124, -0.0026958840899169445, -0.015924371778964996, -0.0346137136220932, -0.014080801978707314, 0.03767571598291397, 0.033253852277994156, -0.01417260617017746], [-0.016048556193709373, -0.006948867347091436, 0.03354281187057495, -0.02214379794895649, 0.003151209093630314, 0.010223369114100933, -0.02111876755952835, 0.0320466123521328], [0.013117678463459015, -0.015890439972281456, 0.0325777642428875, 0.018197285011410713, -0.0010206664446741343, -0.002070026006549597, 0.014995770528912544, -0.0342683270573616], [0.029967810958623886, 0.024140069261193275, -0.016008244827389717, -0.0006084765191189945, -0.015208126045763493, 0.005554564297199249, -0.002611473435536027, -1.5419931514770724e-05], [0.008540965616703033, -0.02829822525382042, 0.023798689246177673, -0.01493074931204319, -0.015848783776164055, -0.007214353419840336, 0.01243711356073618, -0.016920914873480797], [-0.001695353421382606, 0.0062766307964921, -0.033802490681409836, -0.022993728518486023, -0.03395333141088486, -0.016786864027380943, 0.00986846536397934, -0.0063248868100345135], [0.02381082996726036, -0.03141481801867485, -0.0059529924765229225, -0.02093341201543808, -0.03467397764325142, -0.018203360959887505, 0.031809136271476746, 0.010418337769806385], [-0.015167564153671265, 0.02134028449654579, -0.00827808864414692, 0.021038547158241272, -0.014878086745738983, 0.0012394972145557404, 0.013415772467851639, 0.030093681067228317], [0.031452033668756485, 0.031199339777231216, 0.024748671799898148, -0.018700771033763885, -0.01144089549779892, -0.0015795603394508362, 0.023624949157238007, -0.007984468713402748], [-0.03294523060321808, -0.008898334577679634, 0.023389413952827454, 0.0032306648790836334, -0.01142941601574421, -0.03029249608516693, -0.027079468593001366, 0.004973616451025009], [0.005152832716703415, 0.005816798657178879, 0.022445660084486008, 0.030373338609933853, -0.03317263722419739, -0.010146021842956543, -0.006049931049346924, -0.01488674245774746], [0.01518223062157631, -0.032446183264255524, -0.010061942040920258, -0.012770542874932289, -0.026999542489647865, 0.011297643184661865, 0.010437436401844025, 0.03096790984272957], [-0.024577772244811058, -0.0331491120159626, 0.0007299818098545074, -0.02208103984594345, 0.02266361564397812, 0.016633018851280212, -0.011044362559914589, 0.003808915615081787], [-0.01992804929614067, 0.03162560984492302, -0.018244504928588867, 0.01989877223968506, 0.030686521902680397, 0.032780904322862625, -0.02730417810380459, 0.031166760250926018], [0.003748810850083828, 0.03291936591267586, 0.03492122143507004, -0.031291164457798004, 0.035699132829904556, -0.016702095046639442, 0.017895562574267387, -0.019405225291848183], [0.03354060649871826, 0.01595742627978325, 0.025609008967876434, 0.01079948153346777, 0.014377638697624207, -0.024132752791047096, 0.028677407652139664, -0.004322430584579706], [-0.005630171857774258, -0.024191776290535927, 0.019170692190527916, 0.020787470042705536, 0.030733905732631683, 0.01979469694197178, 0.018585393205285072, 0.032099649310112], [0.017554908990859985, 0.0014357551699504256, -0.024381063878536224, -0.0002997848787344992, 0.03570127487182617, 0.04890459030866623, -0.010254943743348122, 0.019037261605262756], [-0.0023689153604209423, -0.07248831540346146, 0.001072283717803657, 0.002514735097065568, 0.02218916453421116, 0.08427965641021729, -0.02075982093811035, -0.02980956807732582], [0.02537028305232525, -0.04928606376051903, -0.0073472075164318085, 0.0008700729813426733, 0.00954761728644371, 0.07859297841787338, -0.00880887545645237, -0.013402457349002361], [0.017038188874721527, -0.05463319644331932, 0.015672918409109116, 0.037925176322460175, 0.06879053264856339, 0.03404717519879341, -0.03411991521716118, -0.05254533141851425], [-0.01707492396235466, -0.08163230121135712, 0.0026857410557568073, 0.07886524498462677, 0.07345771789550781, 0.08514536172151566, 0.023725470528006554, 0.011390019208192825], [-0.012911196798086166, -0.0708976611495018, 0.006876310799270868, 0.04629411920905113, 0.07288423925638199, 0.08705076575279236, 0.001207815483212471, 0.015579831786453724], [0.04056293144822121, -0.13706877827644348, 0.0157211534678936, 0.04726582020521164, 0.06633414328098297, 0.07644351571798325, 0.035227976739406586, -0.039610605686903], [0.004182830918580294, -0.1410568356513977, 0.06194205582141876, 0.027077386155724525, 0.075629323720932, 0.06349097937345505, 0.05747756361961365, -0.09096739441156387], [0.017069688066840172, -0.07411738485097885, 0.0889965295791626, 0.02909686788916588, 0.07641301304101944, -0.014676451683044434, 0.05672657489776611, -0.10535546392202377], [-0.020995933562517166, -0.0764060840010643, 0.14077861607074738, -0.009086132049560547, 0.09299541264772415, -0.03463774546980858, 0.05880577117204666, -0.1861019879579544], [-0.012574301101267338, -0.09996668994426727, 0.1313045173883438, 0.0017706113867461681, 0.034128669649362564, 0.03682590276002884, 0.12528231739997864, -0.12284228950738907], [-0.018040083348751068, -0.07827342301607132, 0.07211100310087204, -0.05725961923599243, 0.06558843702077866, 0.06197448819875717, 0.0819464847445488, -0.08438485115766525], [-0.015516356565058231, -0.051380205899477005, 0.0698784813284874, -0.05338453873991966, 0.030866537243127823, 0.07742243260145187, 0.09479106962680817, -0.04062088206410408], [-0.008085642009973526, -0.048058442771434784, 0.07592135667800903, 0.017777999863028526, -0.015908751636743546, 0.05963515490293503, 0.1334601193666458, -0.049816813319921494], [-0.01063109003007412, -0.030136840417981148, 0.03817806392908096, -0.011768615804612637, 0.007932150736451149, 0.0337228961288929, 0.09563091397285461, -0.07146532833576202], [0.01612059399485588, -0.04312172532081604, 0.03381519019603729, 0.012525544501841068, -0.01883551850914955, 0.032328538596630096, 0.07494963705539703, -0.028140852227807045], [0.02525080181658268, -0.020020730793476105, -0.012087608687579632, 0.007310270331799984, -0.018266815692186356, 0.008704607374966145, 0.05860135704278946, 0.0007284939056262374], [-0.01852017268538475, -0.004079137928783894, 0.008469371125102043, -0.0013469795230776072, 0.009058235213160515, 0.0058243065141141415, 0.038953106850385666, -0.023428915068507195], [-0.017121240496635437, 0.03197694569826126, -0.020498692989349365, 0.00197370327077806, 0.028517434373497963, 0.022352004423737526, -0.019282346591353416, 0.014138670638203621], [0.0030813126359134912, -0.0312834307551384, 0.010997671633958817, -0.012321802787482738, 0.022815577685832977, 0.006853651255369186, 0.009474057704210281, 0.0036779397632926702], [-0.012100420892238617, 0.02088649943470955, 0.029264722019433975, -0.032358355820178986, -0.03413660451769829, 0.0033978819847106934, -0.028294743970036507, 0.009602699428796768], [-0.020570406690239906, -0.0355096273124218, -0.025574451312422752, 0.03400665149092674, 0.006778880953788757, -0.0027499161660671234, -0.008875273168087006, 0.022966645658016205], [0.014212697744369507, -0.007462315261363983, 0.024173453450202942, -0.020815888419747353, -0.005823127925395966, 0.027434859424829483, -1.1108815670013428e-05, 0.017806973308324814], [0.0330033041536808, 0.003207918256521225, -0.009420132264494896, 0.009547732770442963, -0.01128920167684555, 0.023218605667352676, -0.025113170966506004, -0.03524060174822807], [-0.03186197951436043, -0.0162348635494709, 0.014820185489952564, -0.011812478303909302, 0.01124251913279295, 0.007343737408518791, -0.035724155604839325, 0.025252612307667732], [-0.03561583161354065, -0.0008448256412521005, -0.010505719110369682, -0.00038937025237828493, -0.02939174883067608, 0.028008470311760902, -0.011819889768958092, 0.012836885638535023], [0.033455442637205124, -0.023935141041874886, -0.027561265975236893, -0.003954761195927858, -0.009506282396614552, 0.02642795443534851, 0.0015126109356060624, 0.014543012715876102], [0.000938271579798311, 0.002442091703414917, -0.031602635979652405, -0.021808262914419174, -0.006224540527909994, 0.0004114951880183071, -0.014323743991553783, 0.011511764489114285], [0.0186553206294775, -0.04382546991109848, 0.0029065459966659546, 0.03738221153616905, 0.024439482018351555, 0.030664093792438507, 0.02414972521364689, -0.009560118429362774], [0.012754359282553196, -0.0865458995103836, -0.007631399668753147, 0.04973423480987549, -0.009890275076031685, 0.04297953099012375, -0.0176946260035038, 0.002166809979826212], [-0.00851581059396267, -0.06284890323877335, 0.01427837461233139, 0.058690547943115234, 0.08418519794940948, 0.09533223509788513, -0.04157624393701553, -0.041036538779735565], [-0.043540578335523605, -0.08886979520320892, 0.015155565924942493, 0.0862179547548294, 0.14950238168239594, 0.08448438346385956, -0.01951788179576397, -0.08712112903594971], [0.014211549423635006, -0.05009998753666878, -0.016222447156906128, 0.10976740717887878, 0.23970286548137665, 0.04910801351070404, -0.08496667444705963, -0.010735667310655117], [-0.024465158581733704, -0.03645682334899902, -0.030440177768468857, 0.1334599256515503, 0.1926070600748062, 0.09330105781555176, -0.046517513692379, 0.014587574638426304], [-0.0022461346816271544, -0.06096842512488365, -0.06911852955818176, 0.05338636040687561, 0.2401963770389557, 0.04994768649339676, -0.1274975687265396, 0.06214114651083946], [-0.030083894729614258, -0.095804862678051, 0.004823753610253334, 0.0742349624633789, 0.16319048404693604, 0.058987196534872055, -0.107951819896698, -0.041101254522800446], [-0.10498347133398056, -0.07474181801080704, 0.001273673609830439, 0.09009337425231934, 0.05959141626954079, 0.04452412575483322, -0.04193476587533951, 0.03457806631922722], [-0.1752534806728363, -0.06730883568525314, 0.03310093656182289, 0.06762207299470901, 0.02358643338084221, -0.008385986089706421, 0.034501027315855026, 0.04595591872930527], [-0.11674967408180237, -0.11396220326423645, 0.05535782128572464, -0.050180986523628235, -0.007047662045806646, 0.029652675613760948, 0.020260119810700417, -0.06185688078403473], [-0.05980554595589638, -0.07187940925359726, 0.038915593177080154, -0.08683954179286957, 0.02536010555922985, 0.04304272308945656, 0.020515989512205124, 0.001016775961034], [-0.06861145794391632, 0.00975651666522026, 0.055623237043619156, -0.14349500834941864, 0.0223500058054924, 0.05626462399959564, 0.09065407514572144, 0.016351908445358276], [-0.011411906220018864, 0.03571276366710663, 0.08274593204259872, -0.06769070774316788, -0.007991129532456398, 0.0586838498711586, 0.15065862238407135, -0.00820853840559721], [-0.029229260981082916, -0.026087995618581772, -0.02983182854950428, -0.02903265878558159, 0.024449294432997704, 0.03128710761666298, 0.019289836287498474, 0.02583637461066246], [-0.03878568112850189, 0.06565044820308685, 0.03227952867746353, -0.042965468019247055, -0.02349497564136982, -0.017522867769002914, 0.07213600724935532, -0.05770563334226608], [-0.05112382024526596, 0.06215935945510864, -0.0031924741342663765, 0.011394079774618149, -0.01382651086896658, -0.012377283535897732, 0.11169099807739258, -0.09983891248703003], [-0.027411488816142082, 0.014952701516449451, 0.027612389996647835, 0.01703973114490509, -0.0751357451081276, 0.030012335628271103, 0.10414553433656693, -0.02313641831278801], [0.018596690148115158, -0.001962146954610944, 0.0012744942214339972, -0.018586069345474243, -0.004629055038094521, 0.010798275470733643, 0.0019951248541474342, 0.021420828998088837], [0.010443280450999737, 0.02607646770775318, 0.018560003489255905, 0.016338886693120003, -0.02278856560587883, 0.023974919691681862, 0.004543053451925516, -0.003560165874660015], [0.017909929156303406, 0.012299715541303158, 0.018944503739476204, -0.011005725711584091, 0.0018882275326177478, 0.016259802505373955, -0.012319601140916348, -0.015765976160764694], [-0.031689196825027466, 0.0315873958170414, 0.03144766762852669, 0.024174053221940994, 0.025529727339744568, -0.00044540688395500183, -0.004678431898355484, 0.008070692420005798], [-0.03330538794398308, 0.031238313764333725, 0.031030815094709396, 0.007628265768289566, 0.030957456678152084, -0.03226647526025772, 0.00692497193813324, 0.007868584245443344], [-0.013423017226159573, -0.013748721219599247, -0.013048890046775341, -0.021571824327111244, -0.032388824969530106, 0.020562082529067993, -0.034192927181720734, -0.030551081523299217], [-0.028971631079912186, 0.03114185482263565, -0.006794805638492107, -0.018423033878207207, 0.03279494866728783, -0.02499147318303585, 0.01917608268558979, 0.024565111845731735], [-0.021053051576018333, -0.0055212415754795074, 0.0030820334795862436, 0.031774722039699554, 0.007116613909602165, 0.02097311057150364, 0.016012042760849, -0.008715100586414337], [-0.020354660227894783, -0.009433829225599766, 0.010107393376529217, 0.01688392460346222, -0.008475598879158497, 0.015885084867477417, 0.022847196087241173, 0.03971533849835396], [-0.08586674928665161, -0.03861254081130028, -0.017174215987324715, 0.04784668609499931, 0.03380802273750305, -0.0549311637878418, 0.03267879784107208, 0.018361076712608337], [-0.05772694945335388, -0.05472312122583389, -0.002579702762886882, -0.02281172387301922, 0.08587150275707245, -0.031828396022319794, -0.0037122752983123064, 0.06013474240899086], [-0.008280541747808456, 0.011918817646801472, -0.042537037283182144, 0.1330832690000534, 0.07637937366962433, 0.02942068502306938, 0.005690995138138533, 0.06861450523138046], [-0.0069937813095748425, -0.024364322423934937, 0.021327422931790352, 0.13609300553798676, 0.20201066136360168, -0.008614324033260345, -0.08133281767368317, 0.081071637570858], [-0.04373415932059288, 0.011933237314224243, -0.044128622859716415, 0.1633273959159851, 0.18043304979801178, 0.10178978741168976, -0.11565110087394714, 0.0268256776034832], [-0.09569516777992249, 0.05622432380914688, -0.003987590316683054, 0.17682646214962006, 0.22514022886753082, 0.1144338995218277, -0.04843124374747276, 0.0515190027654171], [0.02834709733724594, 0.07896480709314346, -0.011107792146503925, 0.16306278109550476, 0.22718051075935364, 0.11523840576410294, -0.140625461935997, 0.03347401320934296], [0.05944792553782463, 0.06988148391246796, 0.027560317888855934, 0.17062297463417053, 0.205693319439888, 0.04946643486618996, -0.0521555058658123, 0.07439588010311127], [0.08353301882743835, -0.015391508117318153, 0.009852497838437557, 0.12389180809259415, 0.1533491164445877, 0.035345353186130524, -0.0028356602415442467, 0.06328477710485458], [-0.047824740409851074, -0.02163578011095524, 0.0807802826166153, 0.10621903836727142, 0.11344274878501892, 0.012720270082354546, 0.06496506929397583, 0.011464620940387249], [0.09440958499908447, 0.041542038321495056, 0.04290970414876938, -0.10203865170478821, 0.142876997590065, 0.14409105479717255, -0.01857767254114151, 0.030992291867733], [0.028231529518961906, 0.08808724582195282, 0.009436857886612415, -0.11068303883075714, 0.08341232687234879, 0.05745093151926994, 0.023499660193920135, -0.03572922199964523], [0.0825980007648468, 0.07467459887266159, 0.05586392804980278, -0.13078652322292328, 0.04190273582935333, 0.056253351271152496, 0.10517486184835434, -0.00539776124060154], [0.060224149376153946, 0.04906151816248894, 9.529241651762277e-05, -0.11357831954956055, 0.08319774270057678, 0.041348040103912354, 0.04589282348752022, 0.06126686930656433], [-0.027386311441659927, -0.007562293671071529, 0.01693197526037693, -0.004329932853579521, -0.06050235778093338, -0.0749058723449707, 0.04897322505712509, 0.06034686788916588], [0.008685600012540817, -0.060262955725193024, -0.011029068380594254, -0.028701499104499817, -0.032310254871845245, -0.10956253856420517, 0.01224932074546814, -0.023759732022881508], [-0.012142087332904339, 0.04617762565612793, -0.018191199749708176, 0.01657950133085251, -0.1348513662815094, -0.10539247840642929, -0.002491809194907546, -0.044390175491571426], [-0.017068812623620033, 0.04258968308568001, -0.05587835982441902, -0.021079298108816147, -0.11187002807855606, -0.0771607756614685, -0.019162580370903015, -0.0861293226480484], [-0.05903075262904167, 0.12283729761838913, 0.00332778156735003, -0.029456237331032753, -0.22984623908996582, -0.05897880345582962, 0.05658354237675667, -0.07987626641988754], [-0.04849664494395256, 0.1708739548921585, -0.09396536648273468, -0.006376437842845917, -0.08548922091722488, -0.018283698707818985, -0.05162540078163147, 0.04407752677798271], [0.019196609035134315, 0.06010351702570915, -0.07883423566818237, -0.005347514990717173, -0.0024074704851955175, 0.01642647385597229, -0.0228444691747427, 0.01153315044939518], [0.03048093058168888, -0.02090434730052948, -0.04413965344429016, -0.008046451956033707, 0.033129431307315826, -0.022728465497493744, -0.03110232762992382, 0.029602235183119774], [0.03398877754807472, 0.02029230445623398, 0.01736598275601864, -0.0020214542746543884, -0.015346861444413662, 0.009713771753013134, -0.02414679154753685, -0.01308902446180582], [-0.011852459982037544, -0.03154581040143967, -0.01664317212998867, -0.007996376603841782, 0.035045165568590164, -0.019545994699001312, -0.011334216222167015, -0.005702299997210503], [-0.018401820212602615, 0.0262543223798275, -0.0006448514759540558, 0.021707825362682343, -0.01432017795741558, -0.024091079831123352, -0.01102294772863388, 0.0054408349096775055], [0.0006956338183954358, -0.03522726520895958, 0.03169888257980347, -0.016231389716267586, -0.032541126012802124, -0.022442376241087914, -0.02755938656628132, -0.01407581940293312], [-0.020272962749004364, 0.03418813273310661, -0.004342260770499706, -0.019645236432552338, 0.00951345358043909, 0.023186519742012024, -0.004554256331175566, 0.004483780823647976], [0.006013277918100357, 0.010982499457895756, -0.025743812322616577, 0.018318578600883484, 0.022914547473192215, -0.029231050983071327, 0.01929084025323391, 0.06862185150384903], [-0.12376617640256882, 0.058497846126556396, -0.018935689702630043, -0.009338684380054474, 0.10259353369474411, -0.11029430478811264, -0.04312432184815407, 0.06219544634222984], [-0.06046551093459129, 0.01335724163800478, -0.07341035455465317, 0.05727064236998558, 0.10317353904247284, -0.07114265114068985, -0.10526900738477707, 0.1294509470462799], [0.003592228749766946, 0.057547807693481445, -0.07776114344596863, 0.17041440308094025, 0.09205955266952515, 0.006371650379151106, -0.03580963611602783, 0.05969725176692009], [-0.0018723580287769437, 0.04458240047097206, -0.1022191271185875, 0.15855184197425842, 0.15786470472812653, 0.04209568724036217, -0.06286690384149551, 0.017778700217604637], [-0.07222579419612885, 0.10835428535938263, -0.09111907333135605, 0.17516624927520752, 0.175124853849411, 0.04431072250008583, -0.0911349207162857, -0.046255018562078476], [-0.03313605859875679, 0.0714593231678009, -0.08250131458044052, 0.15556524693965912, 0.08700592815876007, 0.13816966116428375, -0.016850141808390617, 0.03928026929497719], [0.11967173218727112, 0.10728561133146286, 0.003941162023693323, 0.06200394779443741, 0.15013593435287476, 0.05396630987524986, 0.061038848012685776, 0.15148480236530304], [0.094944529235363, 0.10691753029823303, 0.10991435497999191, 0.035844918340444565, 0.15664461255073547, 0.06895021349191666, 0.12565425038337708, 0.03190628066658974], [0.06519615650177002, -0.015587816946208477, 0.09116823971271515, -0.0392814576625824, 0.13805125653743744, 0.06744084507226944, 0.11557438969612122, 0.09462317079305649], [0.15833677351474762, -0.0121020982041955, 0.09521065652370453, -0.12492819130420685, 0.12989291548728943, 0.06468646973371506, 0.19602280855178833, -0.0018926631892099977], [0.07323655486106873, -0.013539010658860207, 0.14004497230052948, -0.1545984297990799, 0.08899424970149994, 0.0023328782990574837, 0.07678002864122391, 0.0548049733042717], [0.1687653660774231, -0.0027063365560024977, 0.1392630785703659, -0.03838985413312912, 0.13603729009628296, 0.021950311958789825, 0.12503376603126526, 0.12385690212249756], [0.2771993577480316, 0.021138213574886322, 0.1211862787604332, -0.06525899469852448, 0.0917336493730545, 0.04237079992890358, 0.13488765060901642, 0.03851928189396858], [0.170911505818367, -0.0035995529033243656, 0.08010006695985794, -0.061350252479314804, 0.047954365611076355, -0.014677025377750397, 0.12057548761367798, 0.008085708133876324], [0.11081782728433609, 0.002437958959490061, 0.0666944608092308, 0.07129998505115509, 0.0746636688709259, 0.009988099336624146, 0.127203106880188, 0.030013225972652435], [0.11333911865949631, 0.08578364551067352, -0.005054979585111141, 0.056790582835674286, 0.0520566888153553, 0.05878494307398796, 0.04953746125102043, 0.08501485735177994], [0.06671471893787384, -0.0073538427241146564, 0.02976776473224163, 0.04227873310446739, -0.022779185324907303, -0.010326660238206387, 0.07927649468183517, -0.0824272558093071], [0.043778419494628906, 0.08268483728170395, -0.062042854726314545, -0.02051853947341442, -0.028923021629452705, -0.08470125496387482, 0.02664656564593315, 0.0011486837174743414], [-0.027992863208055496, 0.20017102360725403, 0.00821580272167921, -0.017245545983314514, -0.1494528353214264, -0.05076056346297264, 0.08854292333126068, 0.033726535737514496], [0.030778415501117706, 0.20261001586914062, -0.03841603174805641, -0.03186076506972313, -0.09440211951732635, 0.02449769340455532, -0.004695171490311623, -0.005007028579711914], [0.039738185703754425, 0.06958769261837006, -0.08710429817438126, -0.020798413082957268, 0.0380777008831501, 0.05628468468785286, -0.05983375012874603, 0.03701281175017357], [0.007764094043523073, 0.025682492181658745, -0.023469433188438416, 0.03214727342128754, 0.030377693474292755, 0.015434300526976585, 0.012556277215480804, 0.008791962638497353], [-0.03138457611203194, -0.024409513920545578, 0.009877253323793411, 0.02762814238667488, 0.014899475499987602, -0.01240488886833191, 0.03380390629172325, -0.028248999267816544], [-0.007883740589022636, -0.016895771026611328, -0.023470453917980194, -0.010974489152431488, 0.001366112381219864, 0.018900662660598755, -0.013296345248818398, -0.019730551168322563], [-0.026643775403499603, -0.01404805388301611, 0.0031867141369730234, -0.005631290376186371, 0.02817404642701149, -0.011798005551099777, -0.013139275833964348, 0.010351298376917839], [0.030027292668819427, -0.011097787879407406, 0.013547747395932674, -0.028627928346395493, -0.013273230753839016, 0.0011469862656667829, 0.00036441461998037994, 0.02617207169532776], [-0.010366980917751789, -0.03193757310509682, -0.020785581320524216, -0.04661799222230911, 0.00975366123020649, 0.022892065346240997, -0.040153179317712784, 0.05197553709149361], [-0.038213200867176056, -0.012546977959573269, -0.006309212651103735, 0.025123579427599907, 0.08794130384922028, -0.03889026120305061, -0.050486281514167786, 0.0928497239947319], [-0.04125674068927765, 0.035839200019836426, -0.08101210743188858, 0.004817089065909386, 0.05254427716135979, -0.07099919021129608, 0.0032807686366140842, 0.09689988940954208], [-0.031137734651565552, 0.06463631987571716, -0.053248800337314606, 0.07049204409122467, 0.07831180840730667, -0.04965236410498619, -0.09867961704730988, 0.06745322793722153], [-0.02487262710928917, 0.01888764090836048, -0.08218810707330704, 0.16085278987884521, 0.08635120093822479, 0.03671735152602196, -0.06113310158252716, 0.004751760512590408], [-0.026984838768839836, 0.1238228976726532, -0.08499015122652054, 0.09064856171607971, 0.13693664968013763, 0.021887237206101418, -0.168929323554039, 0.027675198391079903], [0.043657250702381134, 0.13274896144866943, -0.08382149040699005, 0.25892210006713867, 0.20919853448867798, -0.01982032135128975, -0.18531519174575806, -0.005657339468598366], [0.12638886272907257, 0.059456389397382736, -0.0005267689703032374, 0.10681931674480438, 0.1771106868982315, -0.005052108783274889, -0.1363934874534607, 0.04442949220538139], [0.046695396304130554, 0.08880149573087692, 0.10134226828813553, 0.037028297781944275, 0.055235136300325394, -0.014976521953940392, -0.011246793903410435, 0.05976409837603569], [0.10500486195087433, 0.01910947822034359, 0.0687059834599495, -0.02467459626495838, 0.06261580437421799, -0.008560031652450562, 0.019137563183903694, 0.047504909336566925], [0.07742082327604294, 0.07068195939064026, 0.021912692114710808, -0.062257688492536545, 0.07014153897762299, 0.016249768435955048, 0.06929963082075119, 0.03730669990181923], [0.10235121101140976, 0.10945341736078262, 0.012132522650063038, -0.2604680359363556, 0.05832856893539429, 0.010083750821650028, 0.07167266309261322, -0.009579680860042572], [0.10966918617486954, 0.10291394591331482, 0.012150460854172707, -0.16197408735752106, 0.10046867281198502, 0.02220231667160988, 0.07930667698383331, -0.09097573906183243], [-0.006713471841067076, 0.04729768633842468, 0.0038743996992707253, -0.06659570336341858, 0.1123008280992508, 0.015925120562314987, -0.015676500275731087, 0.03404933586716652], [0.1846097856760025, 0.12588395178318024, 0.027300391346216202, 0.006491226144134998, 0.03918636962771416, -0.04505765810608864, 0.04367252066731453, -0.0027274165768176317], [0.10642892867326736, 0.10482005029916763, -0.045328520238399506, 0.003988606855273247, 0.13656285405158997, -0.07674531638622284, -0.03430037945508957, -0.022742416709661484], [0.13705535233020782, 0.10670395195484161, 0.00792503822594881, 0.045394204556941986, 0.06669015437364578, 0.013998077251017094, 0.0814259797334671, -0.048161499202251434], [0.08989683538675308, 0.11850433051586151, 0.001218048040755093, -0.024916797876358032, 0.01575513742864132, -0.030508318915963173, 0.0409301221370697, -0.023117752745747566], [0.06761225312948227, 0.04951754957437515, 0.01345556229352951, -0.029042644426226616, -0.021958233788609505, -0.07695641368627548, -0.03256971389055252, 0.010965485125780106], [0.11409346014261246, 0.00258107902482152, 0.061125293374061584, 0.017457306385040283, -0.018486978486180305, 0.04891379177570343, 0.0606665275990963, 0.08681982755661011], [0.03988061472773552, 0.18600620329380035, 0.11716917157173157, 0.06389020383358002, -0.09586547315120697, 0.03632461652159691, 0.18229876458644867, 0.08892248570919037], [0.06213618442416191, 0.3040614128112793, 0.006295457947999239, -0.04708272963762283, -0.10922077298164368, 0.07635889947414398, 0.12367156147956848, 0.15724435448646545], [0.09315147995948792, 0.22950692474842072, -0.01078188605606556, -0.000258677318925038, 0.03453122079372406, 0.07770427316427231, 0.004943120758980513, 0.17202013731002808], [0.012391313910484314, 0.04526861011981964, -0.019670521840453148, -0.003021000884473324, 0.008095336146652699, -0.007880141027271748, 0.006630140356719494, 0.07338615506887436], [-0.029074575752019882, 0.024204794317483902, 0.014014792628586292, -0.01697268895804882, 0.01319697592407465, 0.03382614627480507, 0.019787639379501343, 0.028716249391436577], [-0.01561090350151062, 0.018502458930015564, -0.02485016919672489, 0.03444870188832283, -0.01735682785511017, 0.018632691353559494, 0.01799391768872738, -0.02183038555085659], [0.005639205686748028, 0.02996828593313694, 0.01430194079875946, 0.0015297458739951253, 0.026214322075247765, -0.004837517626583576, -0.023980535566806793, -0.011501633562147617], [-0.03644184768199921, 0.02275323122739792, -0.029018230736255646, -0.02242359146475792, 0.03332001343369484, -0.03223099932074547, -0.03926897421479225, -0.0075288196094334126], [0.0024519511498510838, 0.009279037825763226, -0.03022027388215065, -0.04312828928232193, 0.05139491707086563, -0.0516546405851841, -0.05325930565595627, 0.06455273181200027], [-0.023814039304852486, -0.05932619422674179, -0.07875225692987442, 0.0058361547999084, 0.13078516721725464, -0.023928510025143623, -0.05221281945705414, 0.04897281154990196], [0.004610870033502579, -0.051221393048763275, -0.06219843029975891, 0.04253438115119934, 0.07447364926338196, 0.031816333532333374, -0.04003600403666496, 0.016671044752001762], [-0.06633075326681137, 0.008949720300734043, -0.06876240670681, 0.015427380800247192, 0.08979343622922897, -0.009585199877619743, -0.06705307215452194, 0.077034130692482], [0.011221474967896938, 0.02525114268064499, -0.05552353709936142, 0.09711647778749466, 0.030741892755031586, 0.008233921602368355, -0.07035654038190842, 0.048763543367385864], [-0.00019736435206141323, 0.11994247883558273, -0.046594735234975815, 0.2117268294095993, 0.07222434133291245, 0.10400983691215515, -0.11170034855604172, -0.03954414650797844], [0.02444927953183651, 0.15255658328533173, -0.05646738037467003, 0.1479772925376892, 0.07861213386058807, 0.011393167078495026, -0.1309758573770523, -0.0445343554019928], [0.05790470167994499, 0.09415276348590851, 0.013024083338677883, 0.058097369968891144, 0.036677081137895584, 0.005450417287647724, -0.10499516874551773, -0.02529938332736492], [0.05260493978857994, -0.057609643787145615, 0.019373394548892975, -0.015673387795686722, -0.016463372856378555, 0.08104462176561356, -0.04471493512392044, 0.015997108072042465], [-0.09377928823232651, 0.05201338604092598, -0.04397830739617348, -0.013113044202327728, -0.03481751307845116, 0.013019916601479053, -0.05173306539654732, -0.01709844544529915], [0.03324306756258011, -0.017641309648752213, 0.008470731787383556, -0.11545845121145248, 0.07861655950546265, -0.005903717130422592, 0.03793823719024658, 0.07455257326364517], [0.10265440493822098, 0.015233195386826992, 0.021466782316565514, -0.22894279658794403, 0.03748422861099243, -0.005732881370931864, 0.04599407687783241, 0.035902608186006546], [0.1125774011015892, 0.10735955089330673, 0.021601004526019096, -0.08838897943496704, 0.10785141587257385, 0.07262535393238068, 0.017135169357061386, 0.006205358542501926], [0.01647981069982052, 0.09184695035219193, -0.003873902140185237, 0.006939769722521305, 0.033866915851831436, 0.05231575295329094, -0.044191453605890274, -0.0314575657248497], [0.012248769402503967, 0.06557604670524597, -0.02260793186724186, -0.010271712206304073, 0.021176252514123917, 0.006041852291673422, 0.004469524137675762, 0.033150944858789444], [0.18742705881595612, 0.05522914230823517, 0.01581256464123726, 0.03703206032514572, 0.004674583673477173, -0.05420028418302536, 0.0013125983532518148, 0.009227191098034382], [0.06780330836772919, 0.015768086537718773, -0.03566949442028999, 0.10589568316936493, 0.03147651255130768, -0.047792963683605194, -0.016315503045916557, 0.03785524144768715], [-0.02477257139980793, 0.05135294795036316, 0.026684492826461792, 0.02438981458544731, -0.030488014221191406, -0.0831153616309166, -0.030796406790614128, 0.0027145161293447018], [0.10600756108760834, 0.01880929060280323, 0.03288809210062027, 0.05884940177202225, -0.015164227224886417, -0.01661219820380211, -0.015800975263118744, -0.03559539094567299], [0.1048954501748085, 0.022032471373677254, 0.07390200346708298, 0.0721687600016594, 0.05650537088513374, 0.019294487312436104, 0.055084262043237686, 0.07573791593313217], [0.07619789987802505, 0.21992351114749908, 0.11646480113267899, 0.020542750135064125, -0.11572019010782242, 0.07690956443548203, 0.1624542772769928, 0.056774698197841644], [0.012191629968583584, 0.30496108531951904, 0.01933758333325386, -0.027638504281640053, -0.14263467490673065, 0.16561928391456604, 0.19657427072525024, 0.10982072353363037], [0.06408396363258362, 0.22026436030864716, -0.05328889936208725, -0.07064256072044373, -0.026486383751034737, 0.11744712293148041, 0.06848899275064468, 0.19515866041183472], [-0.008036306127905846, 0.04498278349637985, -0.02718972973525524, -0.04088297113776207, -0.0023993151262402534, 0.013159445486962795, 0.02580343373119831, 0.04722148925065994], [-0.03164738044142723, -0.0158122256398201, -0.024249212816357613, -0.003292700042948127, 0.02217814512550831, 0.01572519727051258, -0.0035133985802531242, -0.016762416809797287], [-0.023782452568411827, -0.013919436372816563, -0.011182423681020737, 0.022295959293842316, 0.000692266330588609, 0.030070070177316666, 0.02785423770546913, -0.030140487477183342], [0.023137999698519707, -0.027425190433859825, 0.01801997795701027, 0.002361839171499014, -0.0013010301627218723, -0.010535278357565403, 0.021932441741228104, 0.013187670148909092], [-0.023165464401245117, -0.012831035070121288, 0.01564122922718525, -0.01707504503428936, 0.01696339249610901, 0.008027889765799046, 0.008944668807089329, -0.027787087485194206], [-0.02897678315639496, 0.02834503911435604, -0.021704601123929024, -0.024816839024424553, 0.088775634765625, -0.011645922437310219, -0.03847173601388931, 0.014027656055986881], [-0.027469979599118233, -0.00011485657159937546, -0.05835523456335068, 0.05562766268849373, 0.14242339134216309, -0.02599906735122204, -0.11862097680568695, 0.054382890462875366], [-0.08750013262033463, -0.0066303471103310585, -0.04472079128026962, 0.12903977930545807, 0.06688021868467331, -0.022340208292007446, 0.00528086768463254, -0.026221491396427155], [0.0049778674729168415, 0.05340283364057541, -0.014308436773717403, -0.006696305237710476, 0.06545329838991165, -0.024735035374760628, -0.02581721730530262, 0.043646637350320816], [-0.0022213126067072153, -0.009722388349473476, 0.05099630355834961, 0.07513455301523209, 0.0665631964802742, -0.03333014249801636, -0.11541616171598434, -0.02300765924155712], [0.024706007912755013, 0.13832055032253265, -0.007467448711395264, 0.07195623964071274, 0.0803060457110405, -0.011017095297574997, -0.10985084623098373, 0.02248101308941841], [0.09889104962348938, 0.13652968406677246, 0.02539624646306038, 0.15269392728805542, 0.05156996101140976, -0.01130163948982954, 0.0033728706184774637, 0.00028099879273213446], [0.06404906511306763, 0.019626645371317863, -0.024341365322470665, 0.054757874459028244, 0.06096833571791649, -0.03974469378590584, -0.07786621898412704, 0.01840987801551819], [-0.037369273602962494, 0.03342890366911888, -0.02667803317308426, -0.023372961208224297, -0.06394220888614655, -0.02667662873864174, -0.09260353446006775, -0.0028831122908741236], [0.09794463962316513, 0.01871063932776451, 0.07748423516750336, -0.06501278281211853, 0.023424305021762848, 0.03344146907329559, -0.02063656970858574, 0.011058283969759941], [-0.0045842016115784645, 0.01707652397453785, 0.07279177755117416, -0.152878075838089, 0.03335697203874588, 0.0318717360496521, 0.04136209562420845, 0.004677846096456051], [0.09156585484743118, -0.011920878663659096, 0.02479560300707817, -0.31430283188819885, 0.04958943650126457, -0.007707227021455765, -0.00047572841867804527, -0.002975547220557928], [-0.03700156882405281, 0.04765945300459862, 0.07932202517986298, -0.07963167876005173, 0.02702333778142929, 0.024110231548547745, -0.044013477861881256, -0.010667658410966396], [0.061827532947063446, 0.038285624235868454, -0.09210750460624695, 0.06006971746683121, 0.018885275349020958, 0.04481479525566101, -0.12989139556884766, 0.018782854080200195], [-0.02662798948585987, -0.08638516068458557, -0.011448397301137447, 0.02756189927458763, -0.009762590751051903, -0.01460818387567997, -0.08746001869440079, -0.038728900253772736], [0.03587868809700012, 0.08877269178628922, 0.0022694426588714123, 0.06275186687707901, 0.045886825770139694, -0.07573854923248291, -0.1402858942747116, 0.06766517460346222], [0.012507227249443531, 0.05049760267138481, -0.002643268322572112, -0.0020575793460011482, 0.056835025548934937, 0.0010165874846279621, -0.04442503675818443, -0.03117765486240387], [0.029623692855238914, 0.06505970656871796, -0.009213883429765701, 0.0022673755884170532, 0.008538723923265934, 0.06833101063966751, -0.040076564997434616, 0.13539011776447296], [0.017304526641964912, 0.05884021520614624, 0.028051257133483887, 0.03555583581328392, 0.014011286199092865, 0.04156367853283882, 0.0020400830544531345, 0.04893863573670387], [0.07596992701292038, -0.011222788132727146, 0.048399921506643295, 0.004268805030733347, 0.03856903314590454, -0.046301957219839096, -0.0911063551902771, 0.002800554735586047], [0.08354049921035767, 0.2192615568637848, 0.027532000094652176, -0.06885496526956558, -0.03944377601146698, 0.09154392033815384, 0.13780802488327026, 0.06835062801837921], [0.05611554533243179, 0.4513140618801117, 0.09424569457769394, -0.07043275237083435, -0.16878332197666168, 0.19161079823970795, 0.2550273835659027, 0.21426603198051453], [0.04378686100244522, 0.29756298661231995, 0.006712410598993301, 0.02742401696741581, -0.03842732310295105, 0.17424412071704865, 0.0859321802854538, 0.2512447237968445], [0.04950273782014847, 0.05854155868291855, 0.022155916318297386, -0.02853732369840145, 0.0835675299167633, 0.041372958570718765, -0.011198349297046661, 0.05083104968070984], [-0.012412185780704021, 0.027445977553725243, 0.024660471826791763, -0.033768102526664734, 0.03364255279302597, 0.011563455685973167, -0.04377000033855438, -0.012615060433745384], [-0.004455768968909979, -0.012514075264334679, 0.005955153610557318, 0.003510529873892665, 0.035386744886636734, -0.006487299222499132, 0.0035056432243436575, 0.03449322283267975], [0.005589687265455723, 0.0237368643283844, 0.005953731015324593, 0.021186985075473785, -0.015178440138697624, 0.008628161624073982, -0.035687852650880814, 0.009277891367673874], [0.02018818072974682, 0.02048185095191002, -0.02837204560637474, 0.02034229226410389, 0.04137276113033295, -0.024751830846071243, -0.032811764627695084, -0.03656429797410965], [0.017602458596229553, 0.0423303060233593, -0.052887700498104095, -0.0027392019983381033, 0.09363055974245071, -0.018021300435066223, -0.09846026450395584, 0.061032503843307495], [-0.05451493337750435, 0.045367367565631866, -0.1079743504524231, 0.036858804523944855, 0.15501518547534943, -0.0372195802628994, -0.09105366468429565, -0.028645426034927368], [-0.043313294649124146, 0.05956603214144707, -0.07173358649015427, 0.10970371961593628, 0.08485321700572968, -0.038942206650972366, -0.05520731583237648, -0.12999902665615082], [-0.01481044851243496, 0.07955677807331085, -0.012243853881955147, 0.058667052537202835, 0.03142177313566208, 0.010267511010169983, -0.06177482381463051, -0.00862586684525013], [-0.017515461891889572, 0.030908875167369843, 0.07425421476364136, 0.05070479214191437, 0.054965559393167496, -0.013448497280478477, -0.03186932951211929, 0.008264273405075073], [0.08440044522285461, 0.06659199297428131, 0.022101683542132378, 0.07711992412805557, 0.1119588240981102, 0.021402232348918915, -0.09302816540002823, -0.017932383343577385], [-0.026315953582525253, 0.10843833535909653, -0.0271037295460701, 0.1493329405784607, 0.07508400827646255, -0.02306198514997959, -0.10280308127403259, -0.11840638518333435], [0.004285925067961216, 0.024664459750056267, -0.02304859086871147, 0.07884185016155243, 0.01695575937628746, 0.05494318902492523, -0.05798162892460823, -0.1068713441491127], [-0.026527846232056618, 0.0772257074713707, 0.11220366507768631, -0.003756277495995164, -0.07666604965925217, 0.014913840219378471, -0.016371779143810272, -0.08451550453901291], [-0.02326381206512451, 0.06565212458372116, -0.03232323005795479, -0.05578208342194557, -0.03931298106908798, -0.03413737192749977, -0.08328953385353088, -0.09307537972927094], [0.0290241539478302, -0.037813860923051834, -0.0009602046338841319, -0.3472161591053009, 0.01209212001413107, -0.0014784106751903892, 0.0016212514601647854, -0.05570277199149132], [-0.010147524997591972, -0.0353434681892395, 0.07451912760734558, -0.3276846408843994, -0.06236184760928154, -0.0068818917497992516, -0.1451316773891449, -0.01485008280724287], [-0.061491165310144424, -0.1559717357158661, 0.04924100264906883, 0.06187213212251663, -0.0006665792316198349, -0.050351403653621674, -0.15217483043670654, 0.0933961346745491], [0.02061135321855545, -0.03747182339429855, -0.032351311296224594, 0.0687028095126152, 0.015392880886793137, -0.06621658802032471, -0.13726647198200226, 0.02299441583454609], [-0.025623800233006477, 0.09454191476106644, -0.05293602868914604, -0.049609411507844925, -0.0280774999409914, -0.0328306220471859, -0.08545484393835068, 0.030811075121164322], [-0.002287666779011488, 0.02906716614961624, -0.008194766007363796, 0.07360493391752243, -0.049816831946372986, -0.04788787662982941, -0.16237588226795197, -0.0003634283784776926], [0.03535149618983269, 0.02339118905365467, -0.05006619915366173, 0.02237102948129177, 0.021270358934998512, -0.009471151977777481, -0.017224987968802452, -0.06110898405313492], [-0.0194813534617424, 0.05381326749920845, -0.0329071544110775, 0.03856973350048065, 0.014995800331234932, 0.05544263869524002, -0.03728951886296272, 0.0393797904253006], [-0.01890225149691105, 0.06637492775917053, 0.017458731308579445, -0.005230631213635206, -0.08270354568958282, -0.005297266878187656, -0.01230636890977621, -0.06124739721417427], [0.01494225487112999, 0.0843166783452034, 0.024706905707716942, 0.04443879425525665, 0.08942150324583054, -0.005684200208634138, -0.07137301564216614, -0.014781109057366848], [0.20783422887325287, 0.18857255578041077, 0.12248014658689499, -0.05261457338929176, 0.062418948858976364, 0.17163939774036407, 0.07609304785728455, -0.042310431599617004], [0.12000232934951782, 0.3858257830142975, 0.028685573488473892, -0.005278902128338814, -0.16777753829956055, 0.29243847727775574, 0.20964205265045166, 0.20126481354236603], [0.07883208245038986, 0.27128276228904724, -0.05031486600637436, 0.0034440180752426386, -0.01658489555120468, 0.1404707282781601, 0.04006360098719597, 0.24971356987953186], [-0.0029866027180105448, 0.061117202043533325, -0.056943852454423904, -0.020125852897763252, 0.07423073053359985, 0.015200168825685978, -0.040912412106990814, 0.047527626156806946], [-0.00013161414244677871, 0.0031672425102442503, -0.022105827927589417, 0.017150459811091423, -0.0064755394123494625, 0.007134234067052603, -0.03603801131248474, -0.006347820162773132], [-0.012719272635877132, -0.004557216074317694, 0.009707996621727943, -0.019269347190856934, -0.023403845727443695, 0.0013196667423471808, -0.010816766880452633, -0.02414809539914131], [-0.016735386103391647, -0.002163694938644767, 0.029631448909640312, 0.0005014401394873857, -0.012288701720535755, 0.001123373513109982, 0.02666303887963295, 0.03154575452208519], [-0.024295644834637642, 0.0009447330958209932, -0.00844949297606945, 0.011354307644069195, 0.04720199480652809, -0.07227594405412674, -0.012829598970711231, -0.014555087313055992], [-0.016650281846523285, 0.09755779057741165, -0.06157049536705017, 0.00840567983686924, 0.08256584405899048, -0.020633015781641006, -0.08524969965219498, 0.0679115504026413], [-0.05340668931603432, 0.09076111763715744, -0.05679543316364288, 0.07336322963237762, 0.06718761473894119, -0.026771776378154755, -0.08053556829690933, -0.05885389447212219], [0.04109819233417511, 0.0362771674990654, -0.0774516761302948, -0.02892620675265789, 0.02455425076186657, -0.028219172731041908, -0.15188127756118774, -0.1171385869383812], [0.05851515009999275, 0.04195587709546089, 0.026793930679559708, 0.018110089004039764, 0.07818365842103958, -0.00022371052182279527, -0.06603139638900757, -0.07666776329278946], [0.008083936758339405, 0.06682039797306061, 0.08066213130950928, 0.09434197098016739, -0.026915600523352623, 0.012121015228331089, -0.017885839566588402, -0.10239870101213455], [0.0860559418797493, 0.07079502195119858, 0.018772561103105545, 0.12064908444881439, 0.0413692370057106, 0.03527155891060829, 0.04184221848845482, -0.09037146717309952], [0.04551081731915474, 0.14663760364055634, -0.016628919169306755, 0.07401147484779358, -0.062035176903009415, 0.038717713207006454, -0.006328982766717672, -0.20641975104808807], [0.05758509412407875, 0.164311021566391, 0.04730996489524841, 0.0608687698841095, -0.0019274200312793255, 0.02606816031038761, -0.007241545710712671, -0.08263073861598969], [0.009880553930997849, 0.07771854847669601, 0.04551145061850548, 0.07343844324350357, -0.09344138205051422, 0.1044452115893364, -0.028516724705696106, -0.11621841788291931], [0.01567903719842434, 0.028112031519412994, 0.030690740793943405, 0.028926676139235497, -0.177216574549675, 0.04752352833747864, 0.03246261924505234, -0.05941378325223923], [0.01874355599284172, 0.008727782405912876, 0.02838124893605709, -0.49625471234321594, -0.20005051791667938, -0.07417730242013931, -0.18202853202819824, -0.05145515128970146], [-0.08162367343902588, -0.13003936409950256, 0.16392754018306732, -0.3075484037399292, -0.13670995831489563, 0.025885507464408875, -0.2944687008857727, -0.06701698899269104], [-0.11585613340139389, -0.16508255898952484, 0.12297128885984421, 0.11658927798271179, -0.13351790606975555, -0.06462176889181137, -0.2537851929664612, -0.018230633810162544], [-0.035680461674928665, -0.07649745792150497, -0.14515867829322815, 0.03857002779841423, 0.08500229567289352, -0.0862278938293457, -0.17808747291564941, 0.11196231842041016], [0.031116588041186333, -0.11555813997983932, -0.09341523796319962, 0.05529050529003143, 0.007569631561636925, -0.10646677017211914, -0.07833203673362732, -0.0010855827713385224], [0.011479318141937256, -0.032643288373947144, -0.03827064111828804, 0.025437474250793457, 0.045797817409038544, 0.026336511597037315, -0.08515344560146332, 0.011452840641140938], [-0.07890646159648895, 0.01919926330447197, -0.020758435130119324, -0.034482311457395554, -0.005090484395623207, -0.08128927648067474, -0.03558151796460152, -0.11669209599494934], [0.015383422374725342, 0.06875801831483841, -0.12251731008291245, -0.010125933215022087, 0.025043828412890434, 0.02921895682811737, -0.1155254915356636, 0.011157458648085594], [0.00838516652584076, 0.04102112725377083, 0.010699596256017685, 0.0376182496547699, -0.01116579957306385, -0.042875371873378754, -0.07883600890636444, -0.0015383815625682473], [0.043627966195344925, 0.035597674548625946, 0.10655150562524796, -0.023702405393123627, 0.0718066468834877, 0.018957704305648804, -0.04023861140012741, 0.008873095735907555], [0.07343416661024094, 0.16825783252716064, 0.10442555695772171, -0.007326122373342514, 0.10101640224456787, 0.20789171755313873, 0.02575492672622204, 0.028289876878261566], [0.03500107675790787, 0.2688553035259247, -0.0042600007727742195, 0.07872398942708969, -0.09412727504968643, 0.21847280859947205, 0.1082390621304512, 0.16451530158519745], [0.03748122602701187, 0.30867716670036316, -0.08323348313570023, 0.009374328888952732, -0.042157888412475586, 0.067688949406147, 0.004222954623401165, 0.1873021423816681], [0.04735368490219116, 0.06419491022825241, -0.054740291088819504, -0.04615877568721771, -0.003495725803077221, 0.0216353889554739, -0.034438055008649826, 0.02967970259487629], [0.03564496710896492, -0.02199350669980049, -0.0017695321002975106, 0.0005496066296473145, 0.023040566593408585, -0.031406477093696594, 0.019789574667811394, -0.00637418869882822], [-0.028845440596342087, -0.0054587721824646, 0.026471970602869987, -0.018017278984189034, -0.03472425043582916, -0.025086648762226105, -0.02841462381184101, 0.01462266780436039], [0.025401854887604713, 0.006885518319904804, -0.010776151902973652, 0.0319533497095108, -0.01481529138982296, -0.018872668966650963, -0.03597208112478256, 0.016078829765319824], [0.016205649822950363, 0.0476335771381855, -0.03280525654554367, -0.02504740282893181, 0.005695680622011423, -0.08226058632135391, -0.029574871063232422, 0.016794197261333466], [0.014175034128129482, 0.049207426607608795, -0.06256911158561707, 0.007074556313455105, 0.03537135198712349, -0.088920958340168, -0.08964712172746658, 0.022900430485606194], [-0.020458098500967026, 0.09075842797756195, -0.09358368068933487, 0.05018096789717674, -0.010006982833147049, 0.004231910686939955, -0.06745085120201111, -0.003344680881127715], [-0.06093543395400047, 0.06199052929878235, 0.04119672626256943, 0.04165361449122429, -0.050515372306108475, -0.0253614392131567, 0.03411206603050232, -0.16795243322849274], [-0.03210880979895592, 0.04301327466964722, 0.020286086946725845, -0.020967431366443634, -0.015100750140845776, 0.07843516021966934, -0.017239335924386978, -0.07764231413602829], [-0.05667240917682648, 0.1130748987197876, 0.07919284701347351, -0.05840804800391197, -0.06711943447589874, 0.0394798219203949, 0.012211160734295845, -0.04549972340464592], [-0.02979246899485588, 0.14955344796180725, 0.03142638877034187, 0.013749685138463974, -0.06140390411019325, 0.06686016917228699, 0.03647425398230553, -0.10860428959131241], [-0.053531140089035034, 0.18779191374778748, 0.07934422791004181, 0.053699806332588196, -0.04934634268283844, 0.06008375808596611, 0.03523681312799454, -0.02991974726319313], [-0.012102151289582253, 0.2002989649772644, 0.02951687201857567, 0.1054348275065422, -0.1567428857088089, -0.02807927131652832, 0.006024542730301619, -0.04595857486128807], [0.07755246758460999, 0.17811726033687592, -0.030178172513842583, 0.16879349946975708, -0.026718931272625923, 0.024531269446015358, -0.001837709452956915, 0.012358731590211391], [0.025206416845321655, 0.15907984972000122, 0.1995711326599121, -0.009191462770104408, -0.12387506663799286, -0.0659770742058754, 0.1515764594078064, 0.08411603420972824], [0.14124831557273865, 0.12504719197750092, 0.13527074456214905, -0.5868766903877258, -0.10439277440309525, 0.08688212186098099, -0.08319158107042313, 0.09615037590265274], [-0.09267260879278183, -0.03394513204693794, 0.2688923180103302, -0.003487614681944251, -0.15540170669555664, 0.08872804045677185, -0.1583661437034607, 0.04671987518668175], [-0.22536365687847137, 0.05377698689699173, 0.08849809318780899, 0.09645427018404007, -0.03421168401837349, -0.04178148880600929, -0.16929857432842255, 0.0511295348405838], [-0.16243992745876312, 0.005878704134374857, -0.04383597895503044, 0.047182146459817886, 0.01141462940722704, -0.07179568707942963, 0.0739351436495781, -0.04752897098660469], [-0.1186244860291481, 0.1412959098815918, -0.14047135412693024, -0.018888523802161217, 0.0318429097533226, -0.04802526533603668, 0.001596413436345756, 0.02007743902504444], [-0.11441199481487274, 0.032558076083660126, -0.09385477006435394, 0.03662203624844551, 0.0013418616726994514, -0.059873707592487335, -0.08448973298072815, 0.00749296834692359], [-0.01699146069586277, -0.04469728842377663, -0.048791103065013885, -0.01449783518910408, 0.001597523340024054, 0.005999688990414143, -0.03491685166954994, 0.021618029102683067], [-0.11067906767129898, 0.03466057777404785, -0.013288205489516258, 0.009549218229949474, 0.03443280979990959, -0.07396625727415085, -0.060408610850572586, 0.06279738247394562], [-0.03316972404718399, -0.047564007341861725, -0.027945218607783318, 0.07588094472885132, -0.05448807403445244, 0.0013275779783725739, -0.10869196802377701, -0.08686690777540207], [-0.10719795525074005, 0.031162086874246597, 0.07272335886955261, -0.01278353575617075, -0.00619111955165863, 0.02114357240498066, -0.05139605328440666, -0.13093122839927673], [0.023898305371403694, 0.014904390089213848, 0.08964644372463226, 0.0882263034582138, 0.14193208515644073, 0.18251092731952667, -0.0603196956217289, -0.007244879379868507], [0.01232488825917244, 0.1401691436767578, 0.048908866941928864, 0.014763937331736088, 0.10285592824220657, 0.19439195096492767, -0.07166542857885361, 0.05374178662896156], [-0.01441736239939928, 0.1190958097577095, -0.05440486595034599, -0.017107758671045303, 0.029629573225975037, 0.04115472361445427, -0.05025201663374901, 0.10968825221061707], [-0.00404663011431694, 0.06802606582641602, 0.01484008226543665, 0.0018697521882131696, 0.02737085148692131, 0.0076404232531785965, -0.05006907135248184, 0.04312415421009064], [-0.016705496236681938, -0.012214905582368374, -0.0012168934335932136, -0.03020142763853073, 0.002792599145323038, -0.004567005205899477, 0.009518797509372234, 0.012887833639979362], [0.0326756127178669, -0.02458212338387966, 0.013887248933315277, -0.0251912958920002, 0.003432750003412366, 0.017618734389543533, 0.020103180781006813, -0.007980207912623882], [0.0034205119591206312, 0.03560369089245796, 0.017102805897593498, 0.030461017042398453, 0.03818366304039955, 0.017579233273863792, -0.04096343740820885, 0.0034077169839292765], [0.028392070904374123, 0.00533478194847703, -0.02799205668270588, -0.019378483295440674, -0.0021132775582373142, -0.06720516085624695, -0.012861439026892185, 0.022397257387638092], [0.008818249218165874, 0.05260249599814415, -0.053355906158685684, -0.012551287189126015, -0.059519581496715546, -0.07530461251735687, 0.005951939150691032, 0.05581348016858101], [-0.04662623256444931, 0.10843037068843842, -0.05861055105924606, -0.024651793763041496, -0.08954504132270813, -0.004571228288114071, -0.015389733947813511, 0.065937340259552], [-0.11649094521999359, 0.11116429418325424, -0.040865521878004074, -0.10696209222078323, -0.16593605279922485, 0.02789212204515934, 0.019400237128138542, -0.0006971574621275067], [-0.03467082232236862, 0.13448350131511688, -0.012588762678205967, 0.05736290663480759, -0.19154508411884308, 0.11893472820520401, 0.05676646530628204, 0.00648301700130105], [-0.05229082703590393, 0.13745562732219696, 0.0890916958451271, 0.04313117265701294, -0.1731874942779541, -0.005562992300838232, -0.009836097247898579, 0.021153489127755165], [0.09191937744617462, 0.059058092534542084, 0.08053410053253174, 0.013599080964922905, -0.15833380818367004, -0.03348231688141823, 0.07202523201704025, 0.06604672968387604], [0.04273783415555954, 0.02829379215836525, 0.07188411802053452, 0.04169904440641403, -0.019674140959978104, 0.0021178738679736853, 0.020545944571495056, 0.05056806653738022], [0.07333298027515411, 0.046440523117780685, 0.0227129515260458, 0.11465010792016983, -0.025793127715587616, 0.022676557302474976, 0.06119278445839882, 0.11097686737775803], [0.025454115122556686, 0.09739634394645691, 0.012607942335307598, 0.1292574405670166, -0.0619315467774868, 0.017922405153512955, 0.1510157436132431, 0.0944780632853508], [0.095401331782341, -0.006629464216530323, 0.11544400453567505, -0.09208113700151443, -0.025567516684532166, 0.1050276979804039, 0.2536144554615021, 0.15922975540161133], [0.09656892716884613, 0.0491756796836853, 0.2754475772380829, -0.24537204205989838, 0.041144587099552155, 0.21486762166023254, 0.16797210276126862, 0.034812234342098236], [-0.011626645922660828, 0.04072542488574982, 0.3306107521057129, -0.015683133155107498, 0.04813052713871002, 0.14003178477287292, -0.112705759704113, 0.1258011758327484], [0.01477380096912384, 0.10218684375286102, 0.07632886618375778, 0.08122354000806808, 0.07739458978176117, 0.024008052423596382, 0.005326131824404001, -0.03351601958274841], [-0.054717786610126495, 0.057306982576847076, -0.02575813978910446, -0.002211323706433177, 0.06396149843931198, -0.1049957349896431, 0.07532154768705368, -0.042718883603811264], [-0.07021080702543259, 0.08853677660226822, -0.10782542079687119, 0.017147846519947052, -0.012679585255682468, 0.030924228951334953, 0.026113206520676613, -0.0540546216070652], [-0.05468220263719559, 0.05734296515583992, -0.07097776979207993, 0.043715670704841614, 0.023893240839242935, -0.03987417370080948, -0.01394636183977127, 0.01797872595489025], [-0.058007024228572845, 0.024010924622416496, 0.008654079400002956, 0.07645545899868011, 0.12947949767112732, 0.008099852129817009, 0.01277892291545868, -0.10559879243373871], [0.014155656099319458, 0.003670806298032403, 0.028105029836297035, 0.021122153848409653, 0.018250321969389915, 0.08908011764287949, 0.02983763813972473, -0.0683630108833313], [0.002841013018041849, -0.06746316701173782, 0.04118846356868744, 0.04834072291851044, 0.026249311864376068, 0.04378103092312813, -0.05070612579584122, -0.17993350327014923], [-0.06846058368682861, 0.014872577972710133, 0.11288265138864517, -0.05289581045508385, 0.013081164099276066, 0.019834531471133232, -0.047447968274354935, -0.17880672216415405], [0.03260895982384682, -0.03400912880897522, 0.1458141952753067, 0.05120669677853584, 0.03907129168510437, 0.14656996726989746, 0.02717425674200058, -0.1521267592906952], [0.037701062858104706, -0.016487739980220795, 0.10782793909311295, 0.09115409106016159, 0.11182273179292679, 0.08810929954051971, -0.003080443711951375, -0.06822065263986588], [0.02941982075572014, -0.015171008184552193, -0.03922249749302864, -0.02593790739774704, 0.0922154039144516, 0.014712044037878513, -0.07091443240642548, 0.021246489137411118], [0.02206598035991192, 0.0006819981499575078, -0.02729026786983013, -0.013973329216241837, 0.10652301460504532, -0.015120405703783035, -0.12008213251829147, 0.025764282792806625], [-0.012667869217693806, 0.005338055547326803, 0.009113260544836521, -0.01993819884955883, 0.036992333829402924, 0.00019916673772968352, -0.011930221691727638, -0.032506123185157776], [0.00946645624935627, -6.365445733536035e-05, 0.02097637765109539, -0.021352611482143402, 0.025778191164135933, -0.03421246260404587, -0.031867191195487976, -0.029834328219294548], [0.010280788876116276, 0.00239327154122293, -0.01499262172728777, 0.012846636585891247, 0.030161578208208084, 0.010187335312366486, 0.02342015877366066, 0.006728808395564556], [0.021501414477825165, 0.04484127461910248, -0.019610760733485222, -0.03094635345041752, 0.021293168887495995, -0.008116536773741245, 0.014459621161222458, 0.028054768219590187], [-0.011510085314512253, 0.039533477276563644, -0.005650011356920004, -0.08344246447086334, -0.09237983077764511, 0.010971351526677608, 0.017778674140572548, 0.09080164134502411], [-0.057603348046541214, 0.1478700339794159, -0.047489944845438004, -0.09061753004789352, -0.16334283351898193, -0.023038260638713837, 0.03117937408387661, 0.0587313212454319], [-0.12045883387327194, 0.15648899972438812, -0.1099577397108078, -0.09478834271430969, -0.26036009192466736, 0.039631716907024384, 0.08406362682580948, 0.13846875727176666], [-0.0988270714879036, 0.14465078711509705, 0.04082510992884636, 0.06562884896993637, -0.23068997263908386, 0.005941825918853283, 0.042516306042671204, -0.01992681808769703], [0.045870646834373474, 0.14652284979820251, -0.019371645525097847, -0.004002001602202654, -0.15259698033332825, 0.015526305884122849, 0.10078741610050201, 0.10443638265132904], [0.01654934138059616, 0.05416177213191986, 0.03877729922533035, 0.008938753977417946, -0.07394768297672272, 0.006853329949080944, 0.09928643703460693, 0.03637298569083214], [0.06315749138593674, 0.030133886262774467, 0.07377472519874573, 0.08491037786006927, -0.011709008365869522, -0.014169221743941307, 0.07521173357963562, 0.14457103610038757], [-0.03779715299606323, -9.965088975150138e-05, 0.017683126032352448, 0.017619699239730835, -0.1410268247127533, -0.03583430498838425, 0.06249618157744408, 0.03807011619210243], [0.06055928021669388, 0.10074760764837265, 0.0013508591800928116, -0.028283551335334778, 0.026223724707961082, 0.03933416306972504, 0.14264948666095734, 0.05749204754829407], [0.01942450925707817, 0.13565723598003387, 0.08453133702278137, -0.02330387383699417, 0.024747300893068314, 0.15721596777439117, 0.2600701153278351, 0.11811327934265137], [-0.04060319438576698, 0.09126880764961243, 0.1707976907491684, -0.033274754881858826, 0.17332494258880615, 0.19438721239566803, 0.15950386226177216, 0.18373754620552063], [-0.0015671714209020138, 0.10721433907747269, 0.196694016456604, 0.046146031469106674, 0.16715101897716522, 0.18235665559768677, 0.01033534575253725, 0.09578719735145569], [0.006357895210385323, 0.0891823023557663, 0.24153949320316315, -0.026518112048506737, 0.08414025604724884, 0.0034071491099894047, 0.16208773851394653, -0.0944138690829277], [-0.12446802109479904, 0.05159939453005791, -0.02622087486088276, 0.04633113741874695, 0.12241780757904053, 0.007105136755853891, 0.11741069704294205, 0.08432924002408981], [-0.07099395245313644, 0.080635666847229, -0.11588352918624878, 0.07361400127410889, 0.05048152431845665, -0.10456395894289017, 0.09559260308742523, -0.06235962361097336], [-0.02849241904914379, 0.08928956836462021, -0.03859280049800873, 0.03577481210231781, 0.05768528953194618, 0.06273605674505234, 0.09149932861328125, 0.04317813739180565], [-0.10755660384893417, 0.09320583194494247, -0.007266086991876364, -0.00044308591168373823, 0.051466815173625946, 0.18189974129199982, 0.09014438092708588, -0.026840347796678543], [-0.0838194191455841, 0.11435862630605698, 0.03600049018859863, 0.01942973956465721, 0.04082873836159706, -0.10578658431768417, 0.028596024960279465, -0.05980539321899414], [-0.10882123559713364, -0.016675811260938644, 0.011280469596385956, -0.0242087934166193, -0.00976369809359312, -0.04678801819682121, 0.026255417615175247, -0.004513373598456383], [-0.023938041180372238, -0.03559066355228424, 0.047825444489717484, -0.03318933770060539, -0.10101096332073212, 0.0005236018914729357, -0.021695690229535103, -0.12555725872516632], [0.10965563356876373, -0.09308407455682755, 0.12568865716457367, 0.08774276822805405, -0.0027424138970673084, 0.16585637629032135, 0.04769568890333176, -0.1488771140575409], [0.03507703170180321, -0.07147213071584702, -0.025290489196777344, 0.12319552153348923, 0.06214655190706253, 0.04302200302481651, -0.0737396627664566, -0.027807826176285744], [-0.02189607545733452, -0.024413419887423515, -0.03237328305840492, 0.027805829420685768, 0.1495753675699234, -0.041628118604421616, -0.08288320153951645, -0.0020269895903766155], [0.02996004931628704, -0.05731825903058052, -0.00501245679333806, -0.007435317616909742, 0.12637953460216522, 0.009687053970992565, -0.10309477150440216, 0.034525416791439056], [0.02865537442266941, 0.01345103234052658, -0.024812867864966393, -0.01720275916159153, 0.04779132455587387, 0.007658370304852724, -0.007510123774409294, 0.007726084440946579], [0.006813232786953449, 0.008134856820106506, -0.028986293822526932, 0.029821041971445084, 0.006224275100976229, 0.009414001367986202, -0.018721915781497955, 0.018583716824650764], [-5.031355158280348e-06, -0.02799784578382969, -0.010246580466628075, 0.006319111678749323, -0.014243604615330696, -0.03312172740697861, -0.004962022416293621, 0.028449609875679016], [-0.024280419573187828, -0.0151664512231946, -0.008488808758556843, 0.009730496443808079, 0.005692919250577688, 0.015102890320122242, -0.0006581390625797212, 0.012907075695693493], [-0.014059428125619888, 0.013064929284155369, 0.035188231617212296, -0.027447469532489777, -0.011692901141941547, 0.02009902335703373, 0.04291630908846855, 0.04053352773189545], [-0.06525629758834839, 0.09900067746639252, -0.05199360474944115, -0.022640779614448547, -0.08338405936956406, 0.029910987243056297, 0.08756637573242188, 0.046910952776670456], [-0.05563145875930786, 0.038726504892110825, -0.08185900002717972, 0.006270154379308224, -0.1791730374097824, 0.04664775729179382, 0.13244906067848206, -0.021216964349150658], [0.0035151594784110785, 0.050284288823604584, -0.03372679278254509, 0.019430184736847878, -0.07157395035028458, 0.039537813514471054, 0.09854966402053833, -0.1245192140340805], [0.04996867477893829, -0.06017383933067322, -0.051765307784080505, -0.024144591763615608, 0.047587886452674866, -0.00673114275559783, 0.09160318970680237, -0.032813187688589096], [-0.07971492409706116, 0.026924364268779755, -0.041677750647068024, 0.0006950446986593306, -0.016825104132294655, -0.049243684858083725, 0.11193452775478363, -0.04059557989239693], [-0.04862579330801964, -0.0014524830039590597, -0.0304721649736166, -0.00234087067656219, -0.01882810890674591, 0.021860934793949127, 0.08891411125659943, -0.07910704612731934], [-0.014994574710726738, 0.006478913594037294, -0.08664275705814362, -0.02799268066883087, -0.07403627783060074, 0.022666359320282936, 0.004151694476604462, -0.03933332487940788], [0.016497787088155746, 0.05535651743412018, 0.003456869861111045, 0.09541670233011246, 0.09639423340559006, 0.157263845205307, 0.18877623975276947, 0.02414635755121708], [-0.0418880470097065, 0.06329935789108276, 0.04087274894118309, 0.030947377905249596, 0.09352725744247437, 0.13810409605503082, 0.21729053556919098, 0.07053505629301071], [-0.09295953065156937, 0.08742393553256989, 0.1216840073466301, -0.028470968827605247, 0.17032654583454132, 0.24635082483291626, 0.16588473320007324, 0.04301074892282486], [0.023518752306699753, 0.06534438580274582, 0.1774328202009201, -0.012006734497845173, 0.18380410969257355, 0.09221061319112778, 0.053247980773448944, -0.10102081298828125], [-0.0030132525134831667, 0.07311859726905823, 0.02332678996026516, 0.09259524941444397, 0.06303464621305466, 0.052007947117090225, 0.07093947380781174, 0.020389648154377937], [-0.13527143001556396, 0.10532388091087341, -0.013703490607440472, -0.008500785566866398, 0.11716239154338837, 0.027385586872696877, 0.18953414261341095, -0.030975596979260445], [-0.08002327382564545, 0.0897386446595192, -0.07122073322534561, 0.08782728016376495, 0.08157843351364136, 0.016577139496803284, 0.12891460955142975, -0.0473744198679924], [-0.14616882801055908, -0.044713206589221954, -0.07860570400953293, 0.018605822697281837, 0.08515122532844543, 0.008448631502687931, -0.004755594301968813, 0.009934259578585625], [-0.14367802441120148, 0.023675141856074333, -0.09654455631971359, 0.039533961564302444, -0.02765488438308239, -0.12345100939273834, -0.02051345817744732, -0.03026132844388485], [-0.056372519582509995, -0.0824214518070221, -0.14955058693885803, 0.017851034179329872, -0.10368964821100235, 0.00047359842574223876, -0.021680451929569244, -0.06709672510623932], [-0.07293663173913956, -0.05362320691347122, -0.16034401953220367, 0.015249640680849552, -0.03922153264284134, 0.014516588300466537, -0.03464842587709427, -0.00040682023973204195], [-0.011909721419215202, -0.06701870262622833, -0.0686740055680275, 0.018350858241319656, -0.1690930724143982, -0.05543793365359306, -0.051615942269563675, -0.08334498107433319], [0.07020973414182663, -0.0751505047082901, -0.01023012027144432, 0.024552909657359123, -0.038899119943380356, 0.009206565096974373, -0.08608025312423706, -0.0002620263257995248], [0.01056531723588705, -0.09196098893880844, -0.018844809383153915, 0.102630615234375, 0.03078470006585121, 0.1048232913017273, -0.04083355516195297, -0.025143180042505264], [-0.05367241054773331, -0.055408887565135956, 0.002888499293476343, 0.05892346426844597, 0.10586860775947571, -0.06714364886283875, -0.06746140122413635, -0.027283769100904465], [0.02376093715429306, -0.06751324236392975, 0.014782399870455265, 0.009259178303182125, 0.07909107953310013, 0.008008177392184734, -0.0369584821164608, -0.02770761027932167], [-0.008384606800973415, 0.024108679965138435, -0.013623434118926525, -0.02201218530535698, 0.00292712333612144, 0.029962440952658653, 0.01489180512726307, 0.021699240431189537], [-0.020766545087099075, -0.007319605443626642, 0.021561123430728912, -0.012652158737182617, -0.014966427348554134, 0.032775383442640305, -0.00941008422523737, -0.03221964091062546], [-0.02079937979578972, 0.02334859035909176, 0.009682753123342991, 0.01708722673356533, -0.014552092179656029, -0.014035537838935852, -0.034453243017196655, 0.00022956948669161648], [0.016933824867010117, 0.011048042215406895, -0.001631864462979138, 0.02821231260895729, 0.008349534124135971, 0.02766750194132328, 0.014397271908819675, 0.008906139060854912], [-0.08258615434169769, 0.0048212893307209015, 0.05162646248936653, 0.0399160198867321, 0.0005084934527985752, -0.023974858224391937, 0.05301699787378311, 0.0013097368646413088], [-0.014987621456384659, -0.045279648154973984, -0.024709979072213173, -0.024044230580329895, 0.025395765900611877, 0.005756450351327658, -0.022619763389229774, -0.007821895182132721], [0.01936991512775421, -0.0958896279335022, -0.1186799705028534, -0.007023612502962351, 0.04213293269276619, 0.06456826627254486, -0.03390548750758171, -0.08077961951494217], [-0.04879727587103844, -0.019645070657134056, -0.1533961445093155, 0.03611212223768234, 0.06781876087188721, -0.04948649927973747, 0.03108271397650242, -0.19262970983982086], [0.08704060316085815, -0.0010559236397966743, -0.10165853798389435, -0.005808863788843155, 0.040188923478126526, 0.011882326565682888, 0.11082704365253448, -0.15506966412067413], [0.07734841108322144, -0.02229451760649681, -0.08360103517770767, -0.025678133592009544, 0.01481311209499836, -0.03386566415429115, 0.09631140530109406, -0.18935318291187286], [0.03947243094444275, 0.009900611825287342, -0.07415422797203064, -0.041073206812143326, -0.0500720739364624, -0.003899193601682782, 0.07282821834087372, -0.01733115315437317], [0.04257374256849289, 0.05500299483537674, -0.10050452500581741, 0.005834368523210287, -0.05827761068940163, -0.01751631870865822, 0.08498407155275345, 0.12534797191619873], [-0.06149238348007202, 0.04775192216038704, 0.010417064651846886, -0.02878456935286522, 0.08890025317668915, 0.04785849526524544, 0.1953744739294052, 0.09075040370225906], [-0.020587850362062454, 0.09761648625135422, 0.06907012313604355, 0.002768652280792594, 0.09580664336681366, 0.16654904186725616, 0.2411603033542633, 0.1321575939655304], [0.04824129492044449, 0.01717742346227169, 0.211470365524292, 0.0771360918879509, 0.23350316286087036, 0.15796971321105957, 0.20078924298286438, 0.1206873208284378], [0.05518772825598717, -0.0728737935423851, 0.34721383452415466, 0.014493517577648163, 0.13093219697475433, 0.012769623659551144, 0.05076339468359947, 0.05395178496837616], [-0.024725303053855896, 0.043378494679927826, 0.07424399256706238, -0.0208054780960083, 0.07720258086919785, -0.037861209362745285, 0.047153815627098083, 0.0026260744780302048], [-0.08935640007257462, 0.08740580826997757, -0.07301659882068634, 0.0021765469573438168, 0.09799163043498993, -0.0025793621316552162, 0.19715967774391174, -0.12457568943500519], [-0.08250906318426132, 0.08064568787813187, -0.15868480503559113, -0.043282970786094666, -0.06246412172913551, -0.1438494622707367, 0.04975636675953865, -0.04188574105501175], [-0.06704992055892944, -0.000588279974181205, -0.12173157930374146, -0.01398791279643774, -0.06746192276477814, -0.0238204263150692, -0.02003670297563076, -0.05849152430891991], [-0.08353451639413834, -0.0821722075343132, -0.1224999725818634, -0.04572722315788269, -0.12244077026844025, -0.12120566517114639, -0.03087672032415867, 0.03764289990067482], [-0.12452897429466248, -0.012391037307679653, -0.21786287426948547, -0.020829103887081146, -0.15593774616718292, -0.09787596017122269, -0.18318647146224976, 0.09677770733833313], [0.014993803575634956, -0.07634996622800827, -0.12174893170595169, -0.030418312177062035, -0.07988881319761276, -0.11723710596561432, -0.0981675535440445, -0.02329554781317711], [-0.0433129258453846, 0.0015472639352083206, -0.05366775393486023, 0.04124285280704498, -0.1643047332763672, -0.18995624780654907, -0.03836848959326744, 0.06601717323064804], [0.09885121881961823, -0.0066508036106824875, -0.04340899735689163, -0.0033754282630980015, -0.09862401336431503, -0.046440012753009796, -0.03488251566886902, 0.12956972420215607], [0.012552616186439991, -0.11967863142490387, -0.01970105804502964, 0.009322220459580421, 0.11628878861665726, 0.1299287974834442, -0.11170797795057297, 0.028129352256655693], [-0.019678154960274696, -0.15743388235569, 0.00030339317163452506, 0.08712351322174072, 0.12556900084018707, 0.07752864807844162, -0.018215633928775787, -0.0008328151889145374], [0.023786265403032303, -0.046348631381988525, -0.005543567705899477, 0.015842773020267487, 0.11443226039409637, -0.02843037247657776, -0.07373785972595215, 0.00307505507953465], [0.016114216297864914, 0.009559577330946922, -0.008841085247695446, -0.0014546719612553716, 0.0481528677046299, -0.03819660842418671, 0.0241876021027565, 0.003793461248278618], [0.00952857080847025, -0.016477471217513084, -0.0007191288168542087, -0.0275956392288208, -0.030066048726439476, -0.01116310153156519, 0.02235613949596882, 0.009277120232582092], [0.011445561423897743, -0.0012204317608848214, -0.029478097334504128, -0.03291276842355728, 0.0215923935174942, -0.006496608257293701, -0.0047880071215331554, 0.010593551211059093], [-0.008062871173024178, -0.03726164624094963, -0.020461473613977432, -0.0011552190408110619, 0.02422354742884636, -0.011283804662525654, 0.018434280529618263, 0.0012736256467178464], [-0.04652266949415207, -0.010833068750798702, -0.004952566232532263, 0.001124065020121634, 0.029103245586156845, -0.03803369030356407, 0.00764783751219511, -0.016625795513391495], [-0.027519850060343742, -0.11015233397483826, -0.06605526059865952, -0.09427311271429062, 0.07384061068296432, -0.052462268620729446, -0.09071377664804459, -0.030551904812455177], [-0.009815163910388947, -0.1331581175327301, -0.054755065590143204, -0.00020470119488891214, 0.018593529239296913, -0.03473301976919174, -0.013955657370388508, -0.07666832208633423], [-0.07727435976266861, -0.018046114593744278, -0.07718860357999802, 0.04279940202832222, 0.022230440750718117, -0.04099737107753754, 0.010534773580729961, -0.25519075989723206], [-0.023668866604566574, -0.036852460354566574, -0.09915808588266373, 0.009934240020811558, -0.014921748079359531, -0.03213852271437645, 0.031098484992980957, -0.36417800188064575], [0.0320989154279232, 0.04353227838873863, -0.10477545857429504, 0.0034771659411489964, -0.06487740576267242, -0.0010406746296212077, 0.10086864978075027, -0.4361482560634613], [0.031942564994096756, 0.00648431247100234, -0.04741036146879196, 0.002164494711905718, 0.04141512140631676, -0.041563183069229126, 0.02453184872865677, -0.4509488046169281], [0.014940903522074223, -0.0532996691763401, -0.07789582014083862, -0.058501020073890686, 0.06572593748569489, -0.033016838133335114, 0.019244225695729256, -0.14518293738365173], [-0.10349349677562714, -0.0035349386744201183, -0.08179459720849991, 0.01787450537085533, 0.09899985790252686, 0.14467254281044006, 0.17922170460224152, -0.03248869255185127], [0.0774070993065834, 0.17507925629615784, -0.011426522396504879, 0.002473770175129175, 0.23095199465751648, 0.11276262253522873, 0.22776417434215546, -0.04437869042158127], [0.013479967601597309, 0.0065335058607161045, 0.13327717781066895, 0.06547896564006805, 0.21625357866287231, 0.06029502674937248, 0.18485455214977264, 0.05034107342362404], [-0.061104919761419296, -0.08699323236942291, 0.12390345335006714, 0.029017943888902664, 0.08461910486221313, 0.06448615342378616, 0.065592922270298, 0.054869502782821655], [-0.0672905221581459, 0.046807702630758286, -0.018375998362898827, 0.01634104736149311, 0.030943822115659714, 0.027010926976799965, 0.17687147855758667, 0.012097829952836037], [-0.11685369908809662, 0.00010113919415744022, -0.08835214376449585, -0.003471165429800749, 0.1358133852481842, -0.022571690380573273, 0.21844173967838287, -0.07650348544120789], [-0.0948745459318161, 0.02408427931368351, -0.2193036526441574, 0.01952681504189968, 0.05154702067375183, -0.05141691491007805, 0.05611267313361168, 0.015456484630703926], [-0.1010579988360405, -0.08453741669654846, -0.1750803291797638, -0.01966511830687523, -0.06258869171142578, -0.08189015090465546, -0.022524593397974968, 0.03608011454343796], [-0.0033911229111254215, -0.1302470713853836, -0.1821455955505371, -0.016656139865517616, -0.08169017732143402, -0.09366226941347122, -0.04387549310922623, 0.07790074497461319], [-0.031232250854372978, -0.11565136164426804, -0.11780007183551788, 0.00012921712186653167, -0.20516298711299896, -0.1455620676279068, -0.07155723869800568, 0.08034546673297882], [-0.018975941464304924, -0.10789207369089127, -0.10658615082502365, -0.01550227776169777, -0.11185494810342789, -0.11890965700149536, -0.06789933145046234, 0.003910767380148172], [0.01412616204470396, -0.05157289281487465, -0.10444935411214828, -0.033851541578769684, -0.10616513341665268, -0.07491397857666016, -0.07835879176855087, 0.10749021917581558], [-0.02103033848106861, -0.04828165844082832, 0.019182676449418068, -0.002013850025832653, 0.030894290655851364, 0.029229087755084038, -0.05551286041736603, 0.060216352343559265], [-0.0033182469196617603, -0.15782998502254486, 0.010236472822725773, 0.07512981444597244, 0.1921134740114212, 0.02747286669909954, -0.05267685651779175, 0.027640867978334427], [-0.04383127763867378, -0.2159525752067566, -0.02176615223288536, 0.1584765464067459, 0.25731924176216125, 0.062063999474048615, 0.0031157387420535088, -0.096082903444767], [-0.008227551355957985, -0.0978843942284584, -0.0013017650926485658, -0.023828836157917976, 0.12938876450061798, -0.009008755907416344, -0.07309001684188843, 0.007592430338263512], [0.02105504646897316, -0.014013219624757767, -0.029019827023148537, -0.02076571434736252, 0.0048376815393567085, 0.022456087172031403, -0.026483546942472458, -0.025359945371747017], [-0.027205690741539, 0.020873289555311203, -0.025262564420700073, 0.03279782459139824, 0.01719660311937332, 0.031606610864400864, -0.008004112169146538, 0.003520432859659195], [-0.011419422924518585, 0.024757403880357742, 0.03324087709188461, 0.010763115249574184, 0.02440568432211876, -0.02043786458671093, 0.008099646307528019, -0.03275575116276741], [0.02292315475642681, 0.016313346102833748, 0.010035578161478043, 0.004767491947859526, 0.025272311642766, -0.0166921429336071, 0.01339603029191494, 0.008045611903071404], [-0.0018301451345905662, -0.00043521547922864556, -0.028456371277570724, 0.019258150830864906, 0.038760434836149216, -0.01821727678179741, -0.04578004032373428, 0.07055695354938507], [-0.0057537914253771305, -0.12770281732082367, -0.11691541224718094, -0.046608347445726395, 0.09097383916378021, -0.01589799113571644, -0.07039158046245575, 0.06649065017700195], [0.01868462935090065, -0.05217960476875305, -0.08226876705884933, -0.006586183328181505, 0.017332060262560844, -0.04854306951165199, -0.06212398782372475, -0.009248804301023483], [0.008780756033957005, -0.011307336390018463, -0.15691232681274414, -0.015365943312644958, -0.01810937561094761, -0.03425198048353195, -0.03556625172495842, -0.037820104509592056], [-0.06419681012630463, -0.056045107543468475, -0.12158407270908356, -0.02758786268532276, 0.008025101386010647, -0.04216773435473442, 0.006668399553745985, -0.1485709398984909], [-0.062470003962516785, 0.02304641157388687, -0.029931843280792236, -0.006570648867636919, 0.05146140977740288, 0.005428926087915897, 0.03454853966832161, -0.33697211742401123], [-0.04199224337935448, -0.015360116958618164, 0.006007688585668802, 0.03690841794013977, 0.0355868861079216, 0.02098134532570839, -0.0006992834969423711, -0.6453494429588318], [0.0497245192527771, -0.09799604117870331, 0.006494957488030195, -0.06515373289585114, -0.03435087203979492, 0.06006414070725441, 0.1258813887834549, -0.7337667346000671], [-0.03843417763710022, 0.023517703637480736, -0.05568553879857063, 0.017163677141070366, 0.12467990815639496, 0.12936756014823914, 0.20481818914413452, -0.7134343385696411], [-0.022129802033305168, 0.0657401904463768, 0.03473729267716408, -0.005930675193667412, 0.27351680397987366, 0.14841803908348083, 0.19576868414878845, -0.4992055594921112], [-0.00952905509620905, 0.036455243825912476, -0.0019656040240079165, -0.0226010512560606, 0.1990373283624649, 0.028121689334511757, 0.13104483485221863, -0.2833382189273834], [-0.04341677948832512, -0.012729399837553501, 0.011526363901793957, -0.01475586835294962, 0.02456267550587654, -0.05153309181332588, 0.010948562063276768, -0.16390617191791534], [-0.11167842894792557, 0.026226390153169632, -0.13212725520133972, -0.01786358468234539, 0.015383271500468254, -0.06297843158245087, 0.07652884721755981, -0.11090389639139175], [-0.077175572514534, 0.024297652766108513, -0.16643139719963074, 0.03798924386501312, 0.01832789182662964, -0.037432409822940826, 0.15165452659130096, 0.011058837175369263], [-0.025364171713590622, 0.017500290647149086, -0.26837632060050964, 0.0028430053498595953, -0.04731958732008934, -0.04149565473198891, -0.0026230269577354193, 0.05448644608259201], [0.013709239661693573, -0.007521992549300194, -0.15661360323429108, -0.038267314434051514, -0.05555004999041557, -0.06931546330451965, 0.04783622920513153, 0.0807790607213974], [0.031033717095851898, -0.06287966668605804, -0.05598840489983559, -0.02035706304013729, 0.0018394376384094357, -0.015425757504999638, -0.03556547686457634, 0.0907207801938057], [-0.034982454031705856, -0.025900403037667274, -0.0650048553943634, -0.0042684078216552734, -0.06455935537815094, 0.011765663512051105, 0.0008241363684646785, 0.03639667108654976], [-0.03390980139374733, -0.11118534952402115, -0.04107445478439331, -0.008324827998876572, -0.06644336879253387, -0.0399826280772686, -0.004533059895038605, 0.051763951778411865], [0.014049934223294258, -0.049254849553108215, -0.04316827282309532, 0.024127161130309105, -0.033293794840574265, -0.059965845197439194, -0.05473894625902176, 0.07521072030067444], [-0.021377451717853546, -0.005256233736872673, 0.02361646480858326, 0.07860194891691208, 0.03717169538140297, -0.04218784347176552, -0.042178090661764145, 0.06130378320813179], [-0.06323707103729248, -0.09413737058639526, 0.003165330970659852, 0.052680160850286484, 0.1300072968006134, 0.03059629164636135, -0.042699601501226425, -0.06488198786973953], [-0.0058861784636974335, -0.20559333264827728, -0.06562505662441254, 0.09734532237052917, 0.22125570476055145, 0.08515308052301407, -0.07425009459257126, -0.12735781073570251], [-0.019269879907369614, -0.09700696170330048, -0.02513755112886429, 0.007902910932898521, 0.08028952032327652, 0.025401223450899124, -0.03277178108692169, 0.02034497633576393], [0.0256795771420002, -0.03951901197433472, 0.028533807024359703, -0.02919062413275242, 0.043221428990364075, -0.016765890643000603, 0.013130078092217445, -0.030402591452002525], [-0.0038983626291155815, 0.028240540996193886, -0.01118160504847765, 0.00956468004733324, 0.03499779477715492, -0.020020117983222008, 0.02661762945353985, -0.022462693974375725], [-0.00881280843168497, 0.018731217831373215, 0.0023730506654828787, 0.02441972680389881, -0.028703054413199425, -0.006601211614906788, -0.023475512862205505, -0.03480818122625351], [2.1917454432696104e-05, -0.02955731377005577, 0.016184575855731964, -0.04400181397795677, -0.02195964939892292, -0.005465189926326275, -0.0019438747549429536, 0.03194475546479225], [-0.06757770478725433, -0.014538726769387722, -0.03326176106929779, -0.04510505869984627, 0.08157718926668167, -0.05143825709819794, -0.030985819175839424, 0.10035818815231323], [0.0008743344224058092, -0.08428637683391571, -0.07455702871084213, -0.06561105698347092, 0.059401266276836395, 0.01879524253308773, -0.030657844617962837, -0.016835741698741913], [-0.011198339983820915, -0.12318867444992065, -0.05858305096626282, -0.034176990389823914, 0.10572397708892822, 0.08952455967664719, 0.06199685484170914, 0.05771863833069801], [-0.09819251298904419, 0.0872742310166359, -0.14219485223293304, 0.009758304804563522, 0.04554086923599243, 0.04130050912499428, 0.0849476307630539, 0.09507273137569427], [-0.04333827644586563, -0.0378718338906765, -0.10259544849395752, -0.0008237555739469826, -0.019680464640259743, 0.014735139906406403, 0.034514300525188446, 0.07986464351415634], [0.03985366225242615, -0.09961938112974167, 0.03432054817676544, 0.026339150965213776, -0.045299071818590164, 0.029620449990034103, -0.0514494925737381, 0.12046165764331818], [0.03525758534669876, -0.02772817388176918, 0.07926049083471298, 0.009475043043494225, -0.014820034615695477, 0.047617848962545395, 0.013295626267790794, -0.0020574424415826797], [-0.016585560515522957, 0.0057660359889268875, 0.05107118561863899, -0.04620950296521187, 0.0893375426530838, 0.15379156172275543, 0.006939401384443045, -0.11052697896957397], [-0.15070697665214539, 0.06539442390203476, -0.051264919340610504, 0.022189786657691002, 0.08943941444158554, 0.11135704815387726, 0.027108659967780113, -0.13988615572452545], [-0.2057642787694931, -0.10963035374879837, -0.044096074998378754, 0.0841175764799118, 0.07740575075149536, 0.13291090726852417, 0.07357188314199448, -0.21129709482192993], [-0.21027827262878418, -0.05077527463436127, -0.03770681843161583, 0.01299620233476162, 0.016941770911216736, 0.004548969678580761, 0.03657563403248787, -0.2511546015739441], [-0.24813583493232727, -0.04123540595173836, -0.10096418112516403, 0.04939379543066025, -0.04600908234715462, -0.01975436881184578, -0.06827791035175323, -0.2165893167257309], [-0.09419949352741241, -0.030445847660303116, -0.17944876849651337, -0.034886255860328674, -0.047899164259433746, 0.01819729618728161, -0.012455896474421024, -0.16625134646892548], [0.026216624304652214, -0.01684800162911415, -0.15369237959384918, -0.08600497245788574, 0.05317981168627739, 0.009923059493303299, 0.1151309609413147, 0.11455606669187546], [0.04692225158214569, -0.0718306228518486, -0.09599373489618301, -0.06543496251106262, 0.06769668310880661, -0.028049593791365623, 0.08471591770648956, 0.027933895587921143], [0.0065649705938994884, -0.02599673718214035, 0.038402706384658813, 0.022522730752825737, 0.04366801306605339, -0.024181973189115524, 0.06803794950246811, 0.003808095119893551], [0.07736746221780777, -0.016056129708886147, -0.028547421097755432, -0.04029837250709534, 0.10908395797014236, 0.035980746150016785, 0.13761407136917114, 0.11422895640134811], [-0.008898799307644367, -0.01321845967322588, 0.02657988667488098, -0.03693900629878044, 0.007746322080492973, -0.04120168834924698, 0.09165719896554947, -0.045704931020736694], [-0.024053527042269707, -0.04910996928811073, -0.0053480942733585835, 0.02624521218240261, 0.02900855429470539, -0.05969659239053726, 0.0017769072437658906, 0.09948749095201492], [-0.017550619319081306, -0.12198721617460251, -0.08072798699140549, 0.02666206657886505, 0.041967831552028656, 0.014086601324379444, -0.02367345243692398, 0.11021870374679565], [-0.040766600519418716, -0.09798922389745712, -0.011026103049516678, 0.07793261110782623, 0.07829272001981735, 0.06678930670022964, 0.01769014075398445, -0.01902027428150177], [-0.010467213578522205, -0.15546248853206635, -0.0359528511762619, -0.02288641780614853, 0.17609016597270966, 0.11554285883903503, 0.004381395876407623, -0.02572927623987198], [0.025204716250300407, -0.14545010030269623, 0.017760317772626877, 0.013162391260266304, 0.21298755705356598, 0.012407456524670124, -0.039562124758958817, -0.08301369100809097], [-0.055635545402765274, -0.004642344079911709, -0.01799263432621956, 0.018281273543834686, 0.014284499920904636, -0.04954901337623596, -0.009407568722963333, -0.019680751487612724], [-0.010436412878334522, -0.015454632230103016, -0.010906483046710491, -0.02942667342722416, 0.001503088278695941, 0.0034733170177787542, 0.021883970126509666, -0.0036203162744641304], [0.024541040882468224, -0.032907985150814056, 0.02372349053621292, 0.014183038845658302, 