{"layers": [784, 8, 8, 8, 10], "input": [0.0, 0.0, 0.0, 0.0, 0.0, 0.0, 0.0, 0.0, 0.0, 0.0, 0.0, 0.0, 0.0, 0.0, 0.0, 0.0, 0.0, 0.0, 0.0, 0.0, 0.0, 0.0, 0.0, 0.0, 0.0, 0.0, 0.0, 0.0, 0.0, 0.0, 0.0, 0.0, 0.0, 0.0, 0.0, 0.0, 0.0, 0.0, 0.0, 0.0, 0.0, 0.0, 0.0, 0.0, 0.0, 0.0, 0.0, 0.0, 0.0, 0.0, 0.0, 0.0, 0.0, 0.0, 0.0, 0.0, 0.0, 0.0, 0.0, 0.0, 0.0, 0.0, 0.0, 0.0, 0.0, 0.0, 0.0, 0.0, 0.0, 0.0, 0.0, 0.0, 0.0, 0.0, 0.0, 0.0, 0.0, 0.0, 0.0, 0.0, 0.0, 0.0, 0.0, 0.0, 0.0, 0.0, 0.0, 0.0, 0.0, 0.0, 0.0, 0.0, 0.0, 0.0, 0.0, 0.0, 0.0, 0.0, 0.0, 0.0, 0.0, 0.0, 0.0, 0.0, 0.0, 0.0, 0.0, 0.0, 0.0, 0.0, 0.0, 0.0, 0.0, 0.0, 0.0, 0.0, 0.0, 0.0, 0.0, 0.0, 0.0, 0.0, 0.0, 0.0, 0.0, 0.0, 0.0, 0.0, 0.0, 0.0, 0.0, 0.0, 0.0, 0.0, 0.0, 0.0, 0.0, 0.0, 0.0, 0.0, 0.0, 0.0, 0.0, 0.0, 0.0, 0.0, 0.0, 0.0, 0.0, 0.0, 0.0, 0.0, 0.0, 0.0, 0.0, 0.0, 0.0, 0.0, 0.0, 0.0, 0.0, 0.0, 0.0, 0.0, 0.0, 0.0, 0.0, 0.0, 0.0, 0.0, 0.0, 0.0, 0.0, 0.0, 0.0, 0.0, 0.0, 0.0, 0.0, 0.0, 0.0, 0.0, 0.0, 0.0, 0.0, 0.0, 0.0, 0.0, 0.0, 0.0, 0.0, 0.0, 0.0, 0.0, 0.0, 0.0, 0.0, 0.0, 0.0, 0.0, 0.0, 0.0, 0.3294117748737335, 0.7254902124404907, 0.6235294342041016, 0.5921568870544434, 0.23529411852359772, 0.1411764770746231, 0.0, 0.0, 0.0, 0.0, 0.0, 0.0, 0.0, 0.0, 0.0, 0.0, 0.0, 0.0, 0.0, 0.0, 0.0, 0.0, 0.0, 0.0, 0.0, 0.0, 0.0, 0.0, 0.8705882430076599, 0.9960784316062927, 0.9960784316062927, 0.9960784316062927, 0.9960784316062927, 0.9450980424880981, 0.7764706015586853, 0.7764706015586853, 0.7764706015586853, 0.7764706015586853, 0.7764706015586853, 0.7764706015586853, 0.7764706015586853, 0.7764706015586853, 0.6666666865348816, 0.20392157137393951, 0.0, 0.0, 0.0, 0.0, 0.0, 0.0, 0.0, 0.0, 0.0, 0.0, 0.0, 0.0, 0.26274511218070984, 0.4470588266849518, 0.2823529541492462, 0.4470588266849518, 0.6392157077789307, 0.8901960849761963, 0.9960784316062927, 0.8823529481887817, 0.9960784316062927, 0.9960784316062927, 0.9960784316062927, 0.9803921580314636, 0.8980392217636108, 0.9960784316062927, 0.9960784316062927, 0.5490196347236633, 0.0, 0.0, 0.0, 0.0, 0.0, 0.0, 0.0, 0.0, 0.0, 0.0, 0.0, 0.0, 0.0, 0.0, 0.0, 0.0, 0.0, 0.06666667014360428, 0.25882354378700256, 0.054901961237192154, 0.26274511218070984, 0.26274511218070984, 0.26274511218070984, 0.23137255012989044, 0.08235294371843338, 0.9254902005195618, 0.9960784316062927, 0.4156862795352936, 0.0, 0.0, 0.0, 0.0, 0.0, 0.0, 0.0, 0.0, 0.0, 0.0, 0.0, 0.0, 0.0, 0.0, 0.0, 0.0, 0.0, 0.0, 0.0, 0.0, 0.0, 0.0, 0.0, 0.0, 0.32549020648002625, 0.9921568632125854, 0.8196078538894653, 0.07058823853731155, 0.0, 0.0, 0.0, 0.0, 0.0, 0.0, 0.0, 0.0, 0.0, 0.0, 0.0, 0.0, 0.0, 0.0, 0.0, 0.0, 0.0, 0.0, 0.0, 0.0, 0.0, 0.0, 0.0, 0.08627451211214066, 0.9137254953384399, 1.0, 0.32549020648002625, 0.0, 0.0, 0.0, 0.0, 0.0, 0.0, 0.0, 0.0, 0.0, 0.0, 0.0, 0.0, 0.0, 0.0, 0.0, 0.0, 0.0, 0.0, 0.0, 0.0, 0.0, 0.0, 0.0, 0.0, 0.5058823823928833, 0.9960784316062927, 0.9333333373069763, 0.1725490242242813, 0.0, 0.0, 0.0, 0.0, 0.0, 0.0, 0.0, 0.0, 0.0, 0.0, 0.0, 0.0, 0.0, 0.0, 0.0, 0.0, 0.0, 0.0, 0.0, 0.0, 0.0, 0.0, 0.0, 0.23137255012989044, 0.9764705896377563, 0.9960784316062927, 0.24313725531101227, 0.0, 0.0, 0.0, 0.0, 0.0, 0.0, 0.0, 0.0, 0.0, 0.0, 0.0, 0.0, 0.0, 0.0, 0.0, 0.0, 0.0, 0.0, 0.0, 0.0, 0.0, 0.0, 0.0, 0.0, 0.5215686559677124, 0.9960784316062927, 0.7333333492279053, 0.019607843831181526, 0.0, 0.0, 0.0, 0.0, 0.0, 0.0, 0.0, 0.0, 0.0, 0.0, 0.0, 0.0, 0.0, 0.0, 0.0, 0.0, 0.0, 0.0, 0.0, 0.0, 0.0, 0.0, 0.0, 0.03529411926865578, 0.8039215803146362, 0.9725490212440491, 0.22745098173618317, 0.0, 0.0, 0.0, 0.0, 0.0, 0.0, 0.0, 0.0, 0.0, 0.0, 0.0, 0.0, 0.0, 0.0, 0.0, 0.0, 0.0, 0.0, 0.0, 0.0, 0.0, 0.0, 0.0, 0.0, 0.4941176474094391, 0.9960784316062927, 0.7137255072593689, 0.0, 0.0, 0.0, 0.0, 0.0, 0.0, 0.0, 0.0, 0.0, 0.0, 0.0, 0.0, 0.0, 0.0, 0.0, 0.0, 0.0, 0.0, 0.0, 0.0, 0.0, 0.0, 0.0, 0.0, 0.29411765933036804, 0.9843137264251709, 0.9411764740943909, 0.2235294133424759, 0.0, 0.0, 0.0, 0.0, 0.0, 0.0, 0.0, 0.0, 0.0, 0.0, 0.0, 0.0, 0.0, 0.0, 0.0, 0.0, 0.0, 0.0, 0.0, 0.0, 0.0, 0.0, 0.0, 0.07450980693101883, 0.8666666746139526, 0.9960784316062927, 0.6509804129600525, 0.0, 0.0, 0.0, 0.0, 0.0, 0.0, 0.0, 0.0, 0.0, 0.0, 0.0, 0.0, 0.0, 0.0, 0.0, 0.0, 0.0, 0.0, 0.0, 0.0, 0.0, 0.0, 0.0, 0.0117647061124444, 0.7960784435272217, 0.9960784316062927, 0.8588235378265381, 0.13725490868091583, 0.0, 0.0, 0.0, 0.0, 0.0, 0.0, 0.0, 0.0, 0.0, 0.0, 0.0, 0.0, 0.0, 0.0, 0.0, 0.0, 0.0, 0.0, 0.0, 0.0, 0.0, 0.0, 0.0, 0.14901961386203766, 0.9960784316062927, 0.9960784316062927, 0.3019607961177826, 0.0, 0.0, 0.0, 0.0, 0.0, 0.0, 0.0, 0.0, 0.0, 0.0, 0.0, 0.0, 0.0, 0.0, 0.0, 0.0, 0.0, 0.0, 0.0, 0.0, 0.0, 0.0, 0.0, 0.12156862765550613, 0.8784313797950745, 0.9960784316062927, 0.45098039507865906, 0.003921568859368563, 0.0, 0.0, 0.0, 0.0, 0.0, 0.0, 0.0, 0.0, 0.0, 0.0, 0.0, 0.0, 0.0, 0.0, 0.0, 0.0, 0.0, 0.0, 0.0, 0.0, 0.0, 0.0, 0.0, 0.5215686559677124, 0.9960784316062927, 0.9960784316062927, 0.20392157137393951, 0.0, 0.0, 0.0, 0.0, 0.0, 0.0, 0.0, 0.0, 0.0, 0.0, 0.0, 0.0, 0.0, 0.0, 0.0, 0.0, 0.0, 0.0, 0.0, 0.0, 0.0, 0.0, 0.0, 0.239215686917305, 0.9490196108818054, 0.9960784316062927, 0.9960784316062927, 0.20392157137393951, 0.0, 0.0, 0.0, 0.0, 0.0, 0.0, 0.0, 0.0, 0.0, 0.0, 0.0, 0.0, 0.0, 0.0, 0.0, 0.0, 0.0, 0.0, 0.0, 0.0, 0.0, 0.0, 0.0, 0.4745098054409027, 0.9960784316062927, 0.9960784316062927, 0.8588235378265381, 0.1568627506494522, 0.0, 0.0, 0.0, 0.0, 0.0, 0.0, 0.0, 0.0, 0.0, 0.0, 0.0, 0.0, 0.0, 0.0, 0.0, 0.0, 0.0, 0.0, 0.0, 0.0, 0.0, 0.0, 0.0, 0.4745098054409027, 0.9960784316062927, 0.8117647171020508, 0.07058823853731155, 0.0, 0.0, 0.0, 0.0, 0.0, 0.0, 0.0, 0.0, 0.0, 0.0, 0.0, 0.0, 0.0, 0.0, 0.0, 0.0, 0.0, 0.0, 0.0, 0.0, 0.0, 0.0, 0.0, 0.0, 0.0, 0.0, 0.0, 0.0, 0.0, 0.0, 0.0, 0.0, 0.0, 0.0, 0.0, 0.0, 0.0, 0.0, 0.0, 0.0, 0.0, 0.0], "expectedOutput": [0.0, 0.0, 0.0, 0.0, 0.0, 0.0, 0.0, 1.0, 0.0, 0.0], "weights": {"1": [[0.031229909509420395, -0.015924347564578056, -0.02515944465994835, -0.012558085843920708, 0.03489769622683525, -0.012028681114315987, 0.018071502447128296, 0.020080849528312683, -0.015070348978042603, -0.03454674407839775, 0.028425101190805435, 0.00406264141201973, -0.014025891199707985, -0.0032114130444824696, 0.024152148514986038, 0.017043717205524445, 0.005772825330495834, 0.007464408874511719, 0.029783252626657486, -0.005625324323773384, -0.01818237639963627, -0.03314744308590889, -0.03195419907569885, -0.012579433619976044, 0.031331244856119156, 0.029785487800836563, 7.048994302749634e-05, 0.03514574095606804, -0.009884605184197426, 0.012435607612133026, 0.0006141625344753265, -0.023231277242302895, 0.009844020009040833, -0.03349493816494942, 0.03416549041867256, 0.04141751676797867, -0.0003710630116984248, 0.021667540073394775, 0.010902581736445427, -0.034837882965803146, -0.001349632628262043, 0.03643151372671127, -0.020972492173314095, 0.034981001168489456, -0.01925051212310791, 0.034070130437612534, -0.02875521220266819, 0.03941918909549713, 0.01028749905526638, -0.004369237460196018, -0.025119002908468246, 0.010996168479323387, 0.028173621743917465, -0.018985450267791748, 0.005183722823858261, 0.007606618106365204, 0.013623762875795364, 0.011828158050775528, 0.013501857407391071, -0.0013229717733338475, 0.0005178652354516089, 0.02429071068763733, -0.01017424650490284, 0.0850367322564125, 0.0855783149600029, 0.13492365181446075, 0.11048714816570282, 0.12689466774463654, 0.16533327102661133, 0.14852407574653625, 0.15231457352638245, 0.12386885285377502, 0.1146848276257515, 0.10423297435045242, 0.13013751804828644, 0.11018069833517075, 0.06982257217168808, 0.05998937413096428, 0.07592873275279999, 0.030685506761074066, 0.023866767063736916, 0.006487557198852301, 0.009501628577709198, 0.013033650815486908, 0.024155955761671066, -0.028808599337935448, -0.02210712805390358, 0.024129245430231094, -0.010086935944855213, -0.01683012582361698, 0.03641342371702194, 0.040756743401288986, 0.06991548836231232, 0.16127349436283112, 0.0343375988304615, 0.02074839174747467, 0.005352559965103865, 0.006750455591827631, -0.05306057259440422, 0.01126865204423666, 0.011357585899531841, -0.010235329158604145, 0.05028029903769493, 0.04792957007884979, -0.07263682782649994, 0.06285282224416733, 0.05590905249118805, 0.033350273966789246, -0.0021258355118334293, -0.012744177132844925, 0.007780332583934069, 0.015102151781320572, 0.025873403996229172, -0.014743831008672714, -0.032082702964544296, 0.03270053118467331, -0.02758471854031086, 0.0583956241607666, 0.045190922915935516, -0.05598380044102669, -0.052860863506793976, -0.03368688002228737, -0.011480075307190418, -0.0269413273781538, 0.10299064218997955, -0.045013178139925, 0.11069515347480774, -0.03708900138735771, 0.11346546560525894, 0.07080988585948944, 0.00516904704272747, -0.010002085007727146, -0.03081972897052765, -0.12491821497678757, -0.056845083832740784, -0.12657107412815094, -0.1584649235010147, -0.04181718826293945, -0.0013549576979130507, 0.015563543885946274, 0.026728753000497818, -0.02965054102241993, -0.0046915034763514996, 0.018780751153826714, 0.0649762824177742, -0.03956998884677887, -0.03893757984042168, -0.10237643867731094, -0.0014075906947255135, -0.015635699033737183, 0.051567159593105316, 0.14023955166339874, 0.18555223941802979, 0.04729125648736954, 0.028282422572374344, 0.015456394292414188, 0.012527469545602798, 0.047537487000226974, -0.06082945317029953, 0.11006724834442139, 0.09906494617462158, 0.09739327430725098, 0.0033344479743391275, 0.03573139011859894, -0.11454782634973526, -0.008883676491677761, -0.015575191006064415, -0.009471206925809383, 0.008749488741159439, -0.0023407400585711002, -0.026553358882665634, -0.023049090057611465, -0.031589217483997345, -0.12351306527853012, -0.07439886033535004, 4.66372148366645e-05, -0.0627252534031868, 0.07041027396917343, 0.004311180207878351, 0.0180754903703928, 0.14931513369083405, 0.08778026700019836, 0.08732852339744568, 0.0975784957408905, 0.0075293066911399364, 0.11840716004371643, -0.054438479244709015, 0.12786689400672913, 0.09281972050666809, 0.08572615683078766, 0.05541825667023659, 0.1522527039051056, -0.048190776258707047, -0.027908341959118843, -0.016065578907728195, -0.03436233475804329, 0.020741494372487068, 0.004523334093391895, -0.017945293337106705, -0.04272260516881943, 0.011654624715447426, 0.025128228589892387, -0.05298049747943878, -0.04327293112874031, 0.008993769995868206, 0.009279284626245499, -0.025528034195303917, -0.0032304665073752403, -0.03793702647089958, 0.1335374414920807, 0.03011166863143444, 0.1705940216779709, 0.07212063670158386, 0.01835060864686966, 0.08442419022321701, 0.006150602363049984, 0.02518085017800331, 0.09558247774839401, 0.06728604435920715, 0.040087006986141205, 0.08414239436388016, -0.13688240945339203, -0.01564749889075756, -0.033593207597732544, -0.027096958830952644, -0.005710790865123272, -0.05042458698153496, -0.07750254124403, 0.06882335990667343, -0.009636426344513893, 0.027644608169794083, -0.04038779065012932, -0.07367460429668427, 0.05338691547513008, 0.05678649991750717, 0.01321843545883894, 0.0181563813239336, 0.08894576877355576, 0.05692991986870766, 0.070401132106781, 0.0075503247790038586, 0.06589524447917938, -0.01716918870806694, 0.1293582022190094, -0.008556331507861614, 0.05272553861141205, 0.014190278016030788, -0.005855122581124306, -0.1074078157544136, -0.1286371946334839, 0.004856746643781662, -0.02383350394666195, 0.027410201728343964, 0.02699783630669117, -0.0004492423322517425, -0.008993339724838734, -0.03346020355820656, 0.018139973282814026, -0.1027238592505455, -0.03241194784641266, -0.07359320670366287, -0.0045621320605278015, 0.04945619776844978, -0.0052719442173838615, -0.12371651828289032, -0.030304983258247375, -0.044657863676548004, -0.09622146189212799, -0.03715355694293976, -0.04941226541996002, -0.07549342513084412, 0.004356935620307922, 0.052208635956048965, -0.06084837391972542, -0.04517044126987457, 0.04659077152609825, -0.21108399331569672, -0.15569032728672028, 0.009844069369137287, -0.004735343623906374, -0.006860661786049604, 0.019472267478704453, -0.04729847237467766, -0.11355915665626526, -0.09808804094791412, -0.09642606973648071, 0.05142360180616379, -0.023239627480506897, 0.04966282844543457, -0.028121815994381905, -0.014256955124437809, -0.01938728801906109, -0.06992027163505554, -0.1989859938621521, -0.16156268119812012, -0.29667770862579346, -0.24050618708133698, -0.13531087338924408, -0.07673057168722153, -0.10929211229085922, -0.12741507589817047, -0.09390925616025925, -0.1228099912405014, 0.019528333097696304, -0.16039685904979706, -0.21467144787311554, -0.0643121674656868, 0.012057186104357243, -0.0240089762955904, 0.02164718136191368, -0.0708884447813034, -0.09218914061784744, -0.05364990234375, 0.09787393361330032, 0.044371962547302246, 0.03843493014574051, 0.03537824749946594, 0.05551333725452423, 0.04924281686544418, 0.03479074314236641, 0.02072828635573387, -0.1525120735168457, -0.007351915817707777, -0.1291801631450653, -0.03901772201061249, -0.1025068387389183, -0.1533094346523285, -0.045806657522916794, -0.05913281440734863, -0.0699697732925415, 0.018894005566835403, 0.09925348311662674, 0.06866192817687988, -0.18993882834911346, -0.07365851104259491, -0.0026476415805518627, -0.002438349649310112, -0.03636147826910019, -0.06701595336198807, -0.019413603469729424, 0.06770109385251999, 0.04008781537413597, -0.0217388067394495, 0.0031482113990932703, -0.017409348860383034, 0.0419270284473896, -0.04701430723071098, 0.05177946761250496, 0.03084087371826172, 0.07467872649431229, 0.014548737555742264, -0.0480964221060276, -0.05109751224517822, 0.007766115944832563, -0.01488418411463499, -0.019933566451072693, -0.007464360445737839, 0.1870913952589035, 0.08806081116199493, 0.18847569823265076, 0.1903616338968277, 0.019892070442438126, -0.0721406564116478, 0.026440653949975967, -0.012999770231544971, 0.02992473728954792, 0.003940863534808159, -0.020770514383912086, 0.014164282009005547, 0.039197634905576706, 0.003506869077682495, -0.03567325696349144, 0.06954701244831085, -0.018788065761327744, 0.03279842808842659, -0.025576908141374588, -0.025916561484336853, 0.05397741496562958, 0.047633253037929535, 0.1569455862045288, 0.02546733431518078, 0.06290452182292938, 0.08905132114887238, 0.16331030428409576, 0.10900186747312546, 0.06102846935391426, 0.12633271515369415, 0.2264987677335739, 0.059472888708114624, 0.03344673290848732, 0.06029704213142395, -0.005405275616794825, 0.0054344250820577145, -0.02231302484869957, -0.05392378568649292, 0.0273751150816679, 0.01127571053802967, 0.07580580562353134, 0.13178300857543945, 0.0368594266474247, 0.03152832016348839, 0.021819904446601868, 0.03757037967443466, 0.12987008690834045, -0.01698605716228485, 0.09973990172147751, 0.15641576051712036, -0.03229277953505516, 0.07987690716981888, 0.027131611481308937, 0.049474868923425674, 0.1455097198486328, 0.03575695678591728, 0.02435641922056675, -0.09722886234521866, -0.06347283720970154, -0.07223658263683319, 0.021711254492402077, 0.07135649770498276, -0.014691542834043503, 0.02818427048623562, 0.01052484568208456, 0.010345407761633396, 0.10197507590055466, -0.03203298896551132, -0.002381321508437395, 0.05464735999703407, 0.11210951954126358, 0.17590418457984924, 0.09012696146965027, 0.08745825290679932, 0.05808139219880104, 0.10812214016914368, 0.1845710575580597, 0.1435614675283432, -0.000750224688090384, 0.10322804003953934, 0.08688177168369293, -0.05785500258207321, -0.07958928495645523, -0.1765611320734024, -0.15558263659477234, -0.12636996805667877, -0.15704834461212158, -0.06295707076787949, 0.07339273393154144, 0.06810888648033142, 0.006873800419270992, -0.008149205707013607, 0.023788979277014732, -0.04227375239133835, 0.09199907630681992, -0.07331717014312744, -0.01533001009374857, 0.045454200357198715, 0.07401509582996368, 0.07031109184026718, 0.1771085411310196, 0.1588570922613144, 0.1454678475856781, 0.288300484418869, 0.2670946717262268, 0.0909995436668396, 0.03327208757400513, 0.14377962052822113, 0.09171262383460999, -0.06790857017040253, -0.0785624235868454, -0.07974515110254288, -0.1077861487865448, -0.059773240238428116, -0.0364496149122715, 0.06598556041717529, 0.23288831114768982, 0.07851047813892365, -0.014625217765569687, -0.018698275089263916, -0.0018506202613934875, 0.024678459390997887, 0.018610183149576187, -0.09484810382127762, -0.021308286115527153, -0.022190887480974197, -0.025307701900601387, 0.023909466341137886, 0.1267922967672348, 0.13896462321281433, 0.17691080272197723, 0.23296517133712769, 0.21669989824295044, 0.055106256157159805, -0.03288131579756737, 0.05156642198562622, -0.09111398458480835, -0.08104187250137329, -0.03719676285982132, -0.040487539023160934, -0.006101358216255903, 0.004340555053204298, 0.01286714244633913, 0.08097594976425171, 0.2397027611732483, 0.06805148720741272, 0.013846195302903652, 0.032864760607481, 0.027935607358813286, -0.04831905663013458, 0.047262076288461685, -0.0935923159122467, -0.031441476196050644, 0.02173069678246975, 0.03661254420876503, -0.014406239613890648, 0.10064762085676193, 0.07707143574953079, 0.14665056765079498, 0.17455317080020905, 0.0024396211374551058, -0.07061733305454254, -0.0735262781381607, -0.08866759389638901, -0.020884215831756592, 0.001440701656974852, 0.012659160420298576, 0.028904549777507782, -0.03445051982998848, -0.018331753090023994, 0.12273269891738892, 0.14438316226005554, 0.14889058470726013, 0.05115470662713051, 0.013989054597914219, -0.009746638126671314, -0.020023232325911522, -0.017867520451545715, -0.08346680551767349, -0.1519709825515747, -0.0027373917400836945, 0.024042027071118355, 0.0014651562087237835, -0.032856930047273636, 0.08531994372606277, 0.12025943398475647, 0.0696028396487236, 0.0680808275938034, 0.023200636729598045, -0.03774599730968475, -0.10043711960315704, 0.04822615534067154, 0.01569301076233387, 0.025988591834902763, -0.04561030864715576, -0.04416849836707115, -0.06350018084049225, -0.0050863600336015224, 0.040789972990751266, -0.002771980594843626, 0.09329119324684143, 0.031824275851249695, -0.011196899227797985, -0.012683941051363945, 0.002864107256755233, -0.02554655820131302, -0.12591500580310822, -0.16646037995815277, -0.030028635635972023, 0.026768650859594345, 0.13421858847141266, -0.09683398902416229, -0.06491417437791824, 0.05380156263709068, -0.06262178719043732, 0.08079880475997925, -0.004262393806129694, -0.1122334823012352, 0.05771844461560249, 0.03676175698637962, -0.0769272893667221, 0.05997094139456749, -0.024101272225379944, 0.06205642223358154, 0.11550576984882355, 0.06471326947212219, 0.03619072958827019, 0.05302710086107254, -0.03081868588924408, 0.028943000361323357, 0.0028120880015194416, 0.028057964518666267, 0.011996808461844921, -0.023965630680322647, -0.034556757658720016, -0.14852634072303772, -0.0898173376917839, -0.011607915163040161, -0.004526481498032808, 0.008073312230408192, 0.09592443704605103, -0.08636248111724854, -0.0486333966255188, 0.0706072598695755, 0.07584156841039658, 0.027823450043797493, -0.054010070860385895, -0.031380411237478256, 0.058145321905612946, 0.03289594128727913, 0.09347125142812729, -0.06590566784143448, 0.024842197075486183, 0.07699576020240784, 0.11281470209360123, 0.007859425619244576, 0.0012882394948974252, 0.006126234773546457, 0.002468047197908163, -0.007865161634981632, 0.032665204256772995, -0.006713029462844133, 0.011500958353281021, 0.01956404373049736, 0.0037633308675140142, 0.07325327396392822, 0.11511868238449097, 0.038889314979314804, -0.02040618285536766, 0.01316675916314125, 0.031188709661364555, 0.06843379139900208, 0.04880538210272789, -0.0008050553151406348, -0.04254873842000961, -0.019016148522496223, -0.07322961091995239, -0.025777019560337067, 0.04064905643463135, 0.029260147362947464, 0.08765411376953125, 0.0442345030605793, 0.022964203730225563, -0.01662587746977806, -0.05810083448886871, 0.016117481514811516, 0.03290550410747528, 0.012093976140022278, -0.012699060142040253, 0.033743683248758316, -0.0015637855976819992, -0.08699865639209747, -0.04973601549863815, -0.1340232491493225, 0.007045390550047159, 0.031742990016937256, 0.025858143344521523, -0.01890311762690544, 0.08637894690036774, 0.03500467911362648, 0.1903758943080902, 0.09230135381221771, 0.06851695477962494, 0.14248935878276825, -0.003246799809858203, 0.11050865054130554, 0.13808149099349976, 0.17974166572093964, 0.2214745283126831, 0.2367151379585266, 0.05671187490224838, -0.039015933871269226, -0.004303566180169582, 0.005369872786104679, 0.011843271553516388, 0.0011414103209972382, -0.009019188582897186, -0.012078937143087387, -0.05645688250660896, -0.05395849421620369, -0.08298476040363312, -0.11447863280773163, -0.1407678872346878, 0.00590552669018507, -0.021697398275136948, -0.02222142368555069, 0.07180175930261612, 0.011343918740749359, 0.01734236814081669, -0.007294030394405127, 0.03118366189301014, 0.14304791390895844, -0.04544612020254135, 0.18439839780330658, 0.2500959634780884, 0.21788068115711212, 0.21488873660564423, 0.12804558873176575, 0.07283465564250946, 0.0043411110527813435, 0.03891688957810402, -0.029955759644508362, -0.002802286297082901, 0.001754559576511383, 0.026892054826021194, 0.014445844106376171, -0.007071375381201506, 0.035060033202171326, -0.014097378589212894, 0.016325892880558968, 0.010660992003977299, -0.09988604485988617, -0.11322113126516342, 0.020326292142271996, -0.019778123125433922, -0.05693667382001877, -0.006675843149423599, 0.15558874607086182, 0.1953061819076538, 0.06897012144327164, 0.11591414362192154, 0.05511307343840599, -0.06650019437074661, 0.0643119290471077, 0.0036390291061252356, -0.03006698004901409, 0.015405751764774323, 0.004870757460594177, -0.02954675443470478, 0.012798870913684368, -0.013367338106036186, 0.022177476435899734, 0.030490342527627945, 0.019937071949243546, -0.01643264666199684, -0.03864137455821037, 0.0384579598903656, 0.01893017068505287, -0.002538098720833659, 0.012681545689702034, -0.03982175141572952, -0.021401291713118553, 0.009850329719483852, 0.07469792664051056, -0.005458205938339233, 0.054090775549411774, 0.005392201244831085, -0.007215557619929314, 0.06395798176527023, 0.05289633944630623, -0.017295004799962044, 0.050860967487096786, 0.03651343286037445, 0.03186429291963577, 0.03177599236369133, -0.014209490269422531, -0.018652286380529404, 0.029655609279870987, -0.013452833518385887, -0.03102940507233143, 0.011070545762777328, -0.02739511802792549, -0.006277710199356079, 0.01787622645497322, -0.033333614468574524, -0.02681199461221695, 0.016556711867451668, 0.022913858294487, -0.015047057531774044, -0.015765059739351273, 0.02134968526661396, 0.034340549260377884, 0.007377144414931536, 0.014715127646923065, -0.009433521889150143, -0.005057584028691053, -0.021146347746253014, 0.0017423612298443913, 0.002400165656581521, 0.0492786206305027, 0.013541065156459808, -0.03519286587834358, -0.0064795901998877525, 0.006852403283119202, 0.01765766367316246, -0.0038650035858154297, 0.015785589814186096], [-0.031330253928899765, 0.01595219597220421, -0.0057714879512786865, -0.008329400792717934, 0.026313643902540207, 0.01768675446510315, 0.03546403720974922, 0.02645908296108246, 0.010582882910966873, -0.029660627245903015, 0.001773390918970108, 0.007498659193515778, -0.009488335810601711, 0.018708636984229088, 0.020959166809916496, 0.02413802780210972, 0.033011022955179214, -0.014645546674728394, 0.013185389339923859, 0.03405582532286644, -7.971376180648804e-05, 0.018100276589393616, -0.031804461032152176, 0.0339127816259861, -0.0028612539172172546, 0.019338037818670273, 0.014697309583425522, 0.03209741786122322, 0.03555069491267204, -0.020224325358867645, -0.02998131699860096, -0.030438438057899475, 0.010066978633403778, 0.02614181861281395, -0.018954873085021973, -0.04530530050396919, -0.0315421000123024, 0.003776713041588664, 0.012148954905569553, -0.015653736889362335, -0.04078305512666702, 0.010974932461977005, 0.05805446207523346, 0.008032920770347118, -0.04429912567138672, -0.02391359768807888, -0.0068112569861114025, -0.020512323826551437, -0.015243387781083584, 0.008754076436161995, -0.0587846115231514, -0.006407510489225388, 0.023664027452468872, -0.012631731107831001, -0.000950891524553299, -0.029189029708504677, -0.02509310469031334, 0.027088794857263565, 0.006385859567672014, 0.005503103137016296, 0.00459684245288372, -0.009761765599250793, -0.02905045822262764, -0.10840383172035217, -0.10476785898208618, -0.08823592960834503, -0.1433652639389038, -0.17046169936656952, -0.1972174048423767, -0.08733062446117401, -0.003159385174512863, -0.07279030978679657, -0.06782720983028412, -0.008786113001406193, -0.05837522819638252, -0.027061063796281815, -0.07488103955984116, -0.022083617746829987, -0.017806263640522957, -0.060464151203632355, -0.023335162550210953, -0.0186574999243021, 0.01576617732644081, 0.03478458151221275, 0.029200594872236252, 0.03015908971428871, -0.0216621533036232, 0.005822102073580027, -0.026232754811644554, -0.011001561768352985, -0.08615311980247498, -0.23779058456420898, -0.30107223987579346, -0.29844236373901367, -0.2989552915096283, -0.4169749617576599, -0.49832630157470703, -0.5543937087059021, -0.3784644603729248, -0.2718283534049988, -0.25627729296684265, -0.14146238565444946, -0.12250280380249023, -0.14173854887485504, -0.13657157123088837, 0.08059807866811752, 0.024150697514414787, -0.06951580941677094, -0.030230626463890076, 0.004521219525486231, -0.009510667063295841, -0.018587445840239525, -0.012320386245846748, -0.03325999900698662, 0.002195875160396099, 0.029785702005028725, 0.017368996515870094, -0.06775204092264175, -0.10426830500364304, -0.059715040028095245, -0.048827316612005234, -0.10040369629859924, -0.05361334979534149, -0.008917071856558323, -0.023589927703142166, -0.008793841116130352, -0.04042202606797218, -0.002940078964456916, -0.06347715854644775, 0.04171944037079811, -0.023789577186107635, -0.009043091908097267, -0.005807595793157816, -0.008851335383951664, -0.011369957588613033, -0.005731421057134867, 0.11782984435558319, 0.07181806862354279, 0.026470212265849113, -0.020539715886116028, -0.01337612234055996, -0.024197638034820557, -0.009224913083016872, -0.038157444447278976, -0.03972461447119713, 0.10208911448717117, -0.001259886659681797, -0.0019569641444832087, 0.03757539018988609, 0.04106311500072479, 0.02931836247444153, 0.19194869697093964, 0.18412594497203827, 0.138699010014534, -0.04104405641555786, 0.0035573842469602823, -0.11389760673046112, -0.004199211951345205, -0.09951337426900864, -0.07679307460784912, -0.02835330180823803, -0.13173623383045197, -0.09397129714488983, -0.08484350889921188, 0.04880060628056526, 0.06438257545232773, -0.011688179336488247, 0.026876531541347504, 0.0021887198090553284, -0.02085542120039463, 0.02514735981822014, 0.011110151186585426, 0.014476098120212555, 0.052261631935834885, 0.020578306168317795, -0.0380796454846859, 0.11121569573879242, 0.05327290669083595, 0.10662885755300522, 0.06214747577905655, 0.0050255912356078625, 0.07404335588216782, 0.08262958377599716, 0.06765136867761612, 0.012341341935098171, 0.07415398210287094, -0.019182458519935608, 0.044827867299318314, 0.04237060621380806, 0.1197141632437706, 0.009212546050548553, -0.00600617378950119, 0.015037380158901215, -0.0022555175237357616, -0.02395385317504406, -0.026304807513952255, 0.03092249669134617, 0.03165796771645546, 0.016104241833090782, 0.14409738779067993, 0.007594040594995022, -0.10595273226499557, 0.07430443167686462, -0.008710077963769436, 0.010017981752753258, 0.011903026141226292, 0.03183072805404663, 0.022830195724964142, 0.03839927166700363, 0.15920528769493103, 0.0036293405573815107, 0.14629435539245605, 0.060676027089357376, 0.12655764818191528, 0.09620871394872665, 0.07868298143148422, 0.10279799997806549, 0.0586085207760334, 0.11808645725250244, 0.09820620715618134, -0.0004971078597009182, -0.03250070661306381, 0.006789634004235268, 0.012431510724127293, 0.005753173027187586, -0.006439858116209507, 0.05428024008870125, 0.10204409062862396, 0.10050056129693985, 0.03144951909780502, 0.13258510828018188, -0.021369442343711853, 0.1036420539021492, 0.08817048370838165, 0.08261152356863022, 0.044040583074092865, 0.0010760908480733633, 0.035759273916482925, 0.13184645771980286, 0.10290803760290146, 0.17739750444889069, 0.01508947741240263, 0.16547776758670807, 0.1354820281267166, 0.08517111837863922, 0.11242445558309555, 0.04808863252401352, 0.03695850074291229, -0.004747424274682999, -0.0029532478656619787, 0.02553977258503437, -0.004478769842535257, 0.013989212922751904, -0.003496625227853656, 0.04626438021659851, 0.10449057817459106, 0.07631797343492508, 0.10497613996267319, 0.1091066524386406, -0.029522303491830826, -0.03716089576482773, 0.06998973339796066, 0.037573330104351044, 0.044070105999708176, 0.029461711645126343, 0.047148577868938446, 0.01660999283194542, 0.08092468976974487, 0.10538458824157715, 0.1934165507555008, 0.14026722311973572, 0.1478864699602127, 0.12865406274795532, 0.055029239505529404, 0.08951114118099213, 0.124371238052845, 0.0152505524456501, 0.014981879852712154, 0.04752179980278015, 0.00562023650854826, 0.0333886444568634, 0.006356566213071346, 0.05350014194846153, 0.055700257420539856, 0.03633260726928711, -0.08383794128894806, -0.039632875472307205, 0.011851898394525051, -0.07298935949802399, -0.01414157822728157, 0.036136917769908905, -0.034184131771326065, 0.0015986901707947254, -0.08117666095495224, -0.1427825391292572, -0.09282394498586655, 0.05790763720870018, -0.001069396617822349, 0.08751965314149857, 0.1726139485836029, 0.12308065593242645, 0.0792553722858429, 0.12573117017745972, 0.16450220346450806, -0.08281151205301285, 0.030290352180600166, 0.010989256203174591, -0.03132486343383789, -0.01947183348238468, 0.050116926431655884, 0.11841589212417603, 0.06583894789218903, -0.04024048149585724, 0.02162831276655197, 0.0008899937383830547, 0.0600057989358902, 0.06977736204862595, 0.0694570243358612, 0.20406781136989594, 0.06968783587217331, 0.06034843996167183, -0.165221706032753, -0.10331518203020096, -0.051747098565101624, -0.0582902729511261, 0.03699326887726784, -0.008797450922429562, -0.09214466065168381, 0.12621048092842102, 0.035399094223976135, 0.11637979000806808, -0.023872900754213333, -0.04771735519170761, -0.022580061107873917, -0.01107747107744217, -0.03252842277288437, 0.00846800021827221, 0.010281962342560291, 0.11378667503595352, 0.02832137607038021, -0.014118061400949955, 0.04836299642920494, 0.028322899714112282, 0.021170619875192642, -0.023672031238675117, -0.010429807007312775, -0.016425952315330505, 0.09394501894712448, -0.017149439081549644, -0.036730796098709106, -0.08312247693538666, -0.011195478960871696, 0.028261622413992882, 0.01829405687749386, -0.02344805933535099, 0.0473422110080719, -0.002394475042819977, 0.03801226243376732, 0.08679750561714172, 0.07907866686582565, -0.07629512995481491, -0.03466540947556496, 0.04798396676778793, 0.032479044049978256, -0.029986316338181496, -0.03308109939098358, 0.05544488877058029, -0.04942059516906738, 0.13606925308704376, 0.040422093123197556, 0.059578217566013336, 0.08791696280241013, 0.09162694215774536, 0.12438066303730011, 0.08745139092206955, 0.10806687921285629, 0.04614784196019173, -0.022859660908579826, -0.04700377583503723, -0.015708792954683304, 0.01688421703875065, 0.02282002381980419, 0.08876705169677734, 0.057497788220644, 0.1244736909866333, 0.07156644016504288, 0.05110866576433182, -0.11708713322877884, -0.0599280409514904, 0.015896998345851898, -0.014946352690458298, -0.00597848417237401, 0.025559306144714355, -0.030538856983184814, 0.02012195996940136, 0.016680853441357613, 0.17421342432498932, 0.005565897561609745, 0.09227544069290161, 0.1579601764678955, 0.07833536714315414, 0.10186564922332764, -0.0228427741676569, -0.0002148464263882488, 0.05147156864404678, 0.10669226944446564, -0.03445206210017204, 0.06728444248437881, -0.03651239350438118, 0.15406006574630737, -0.008724360726773739, 0.039475515484809875, 0.05206545442342758, -0.1093478873372078, -0.012697296217083931, -0.06489770114421844, -0.10409059375524521, 0.045303404331207275, -0.0003289240412414074, -0.008847103454172611, -0.02803303673863411, -0.013044371269643307, 0.001769505557604134, 0.06465812027454376, 0.06417393684387207, 0.11437475681304932, 0.18028365075588226, 0.09193097054958344, 0.14391472935676575, 0.0435769185423851, 0.09984477609395981, 0.08886271715164185, 0.054567527025938034, 0.06800530850887299, -0.029180064797401428, 0.023849738761782646, -0.023020083084702492, 0.1635814905166626, -0.06403651833534241, 0.03486929461359978, -0.060078732669353485, -0.02395114116370678, 0.057791050523519516, -0.14706870913505554, -0.2482319325208664, -0.1503090113401413, 0.03925955295562744, -0.029881667345762253, -0.029824500903487206, -0.02744413912296295, 0.013247941620647907, -0.04933418706059456, -0.015919988974928856, 0.03287195414304733, 0.05446261167526245, 0.01964421011507511, 0.14524102210998535, 0.03745109960436821, 0.08383741974830627, 0.06745275855064392, 0.14913083612918854, 0.1159767359495163, -0.047186385840177536, 0.020997144281864166, 0.09518083930015564, 0.07198787480592728, -0.035274188965559006, -0.1262889802455902, -0.008247296325862408, -0.17917796969413757, -0.04441709443926811, -0.0777776911854744, -0.1713869571685791, -0.2044041007757187, -0.08930203318595886, 0.003632711246609688, -0.0005604326725006104, -0.007424393203109503, -0.05868780240416527, -0.1182083711028099, -0.1631443202495575, -0.11181683093309402, -0.09370870888233185, -0.06617403030395508, 0.014031153172254562, 0.07860279083251953, 0.01991208642721176, -0.022638283669948578, 0.12187724560499191, 0.13752439618110657, 0.0005710304831154644, 0.09197121858596802, 0.003388414392247796, 0.047351233661174774, 0.01920812763273716, -0.08555731922388077, -0.07434402406215668, 0.000984536367468536, 0.05353028327226639, -0.0711502730846405, -0.0737566128373146, -0.19238699972629547, -0.012620102614164352, 0.0003170556447003037, -0.013730603270232677, 0.0007835347205400467, 0.03152208402752876, -0.14677885174751282, -0.16244763135910034, -0.13632000982761383, 0.019979150965809822, -0.16478949785232544, -0.02421947382390499, -0.046743687242269516, -0.027693239971995354, 0.0882597416639328, -0.10900692641735077, -0.09480246156454086, -0.08933339267969131, -0.051499105989933014, 0.02013070322573185, -0.006712842267006636, 0.041132986545562744, -0.015785980969667435, 0.028611689805984497, -0.0017756994348019361, -0.01868250034749508, -0.1768212914466858, -0.26344531774520874, -0.1453864723443985, -0.0014817164046689868, 0.005602621007710695, 0.03374150022864342, 0.03838234394788742, 0.03310810402035713, -0.03731425479054451, -0.10330817848443985, -0.002215243875980377, 0.04772408679127693, -0.08482792228460312, -0.02821534126996994, -0.08208248019218445, -0.05652059614658356, -0.16854967176914215, -0.019469870254397392, -0.12810033559799194, -0.061077844351530075, -0.10329241305589676, -0.06478898972272873, -0.05942031368613243, -0.05148087814450264, 0.050183091312646866, -0.055343203246593475, -0.04771996662020683, -0.05607491359114647, -0.1521064192056656, -0.1378338783979416, -0.0866425409913063, -0.02262427657842636, -0.02941359579563141, 0.016215208917856216, -0.019024532288312912, -0.0048284754157066345, -0.013621254824101925, -0.1309133917093277, -0.03629902005195618, 0.010488905012607574, -0.09725435078144073, -0.14236049354076385, -0.12152787297964096, -0.17151054739952087, -0.1588089019060135, -0.12322854995727539, 0.037399061024188995, -0.061169352382421494, 0.020314540714025497, -0.05014574155211449, 0.009820021688938141, -0.09374862909317017, 0.06447053700685501, -0.13661834597587585, -0.06563007831573486, -0.10441062599420547, -0.1080784723162651, -0.01023870985955, -0.062405623495578766, -0.015577809885144234, -0.02660590037703514, -0.016212930902838707, -0.023284338414669037, -0.022622715681791306, -0.09943481534719467, -0.1278432309627533, -0.07284022122621536, 0.002059514168649912, -0.10017076879739761, -0.024326307699084282, -0.08269324898719788, -0.05046333000063896, -0.07224191725254059, -0.052412115037441254, -0.054965436458587646, -0.0892985388636589, -0.0880827084183693, 0.007085210178047419, -0.12006542831659317, -0.042764078825712204, -0.03454720228910446, -0.06298797577619553, 0.024245569482445717, -0.06772610545158386, -0.16303929686546326, -0.01680213026702404, -0.09996135532855988, -0.028485633432865143, 0.01767459511756897, 0.030292436480522156, -0.03224129229784012, -0.020689962431788445, -0.05603562667965889, -0.06562760472297668, -0.11929601430892944, 0.021262088790535927, 0.060955364257097244, 0.046703800559043884, -0.04904454946517944, -0.05929498001933098, 0.04294924437999725, 0.05262836813926697, -0.024173879995942116, 0.029933210462331772, -0.05675875023007393, -0.04632001370191574, -0.0022357525303959846, -0.06904485821723938, -0.0882941484451294, -0.015342893078923225, -0.06620147079229355, 0.1090509220957756, -0.027731822803616524, 0.05190044641494751, -0.009940833784639835, 0.0005765815149061382, -0.014117558486759663, 0.021422050893306732, 0.006481993943452835, -0.016984999179840088, -0.0486299954354763, -0.009364411234855652, -0.0772952288389206, -0.04469505324959755, -0.012130492366850376, 0.05782623589038849, -0.025600982829928398, 0.0614192821085453, 0.09226749837398529, 0.037228457629680634, 0.06523735821247101, 0.1196543276309967, 0.08315960317850113, 0.008032616227865219, 0.06697593629360199, 0.04363435506820679, -0.013939517550170422, -0.03145727515220642, -0.006089049857109785, 0.01795656979084015, 0.00609930232167244, 0.030188418924808502, -0.014497200027108192, 0.005763121414929628, 0.004408784210681915, 0.007919419556856155, -0.03529703617095947, -0.03441988304257393, 0.0035972585901618004, 0.05804119631648064, 0.14211148023605347, 0.0634765625, 0.026980839669704437, -0.015194233506917953, -0.036822687834501266, 0.026989301666617393, 0.004675345961004496, -0.07379624992609024, 0.00996557716280222, -0.08069174736738205, 0.0500657893717289, 0.035531800240278244, 0.018611187115311623, -0.06647852808237076, 0.08260300755500793, 0.13006551563739777, 0.07697772234678268, 0.03935157135128975, 0.026898225769400597, -0.04869712144136429, -0.016933271661400795, -0.011496434919536114, 0.0238041914999485, 0.017964940518140793, -0.01744883880019188, 0.020256197080016136, -0.0024966043420135975, 0.010277659632265568, 0.11885922402143478, 0.0424979068338871, 0.057128604501485825, 0.09450245648622513, 0.11807908117771149, 0.014543207362294197, 0.1421634405851364, 0.082260861992836, 0.09343670308589935, 0.21193763613700867, 0.11486120522022247, 0.2375517636537552, 0.18668583035469055, 0.20326662063598633, 0.11258956789970398, 0.19034554064273834, 0.12000000476837158, 0.05214325711131096, -0.014459745958447456, -0.017522308975458145, 0.033474382013082504, 0.017848530784249306, -0.032989226281642914, -0.0319816954433918, -0.03257647156715393, -0.009556127712130547, -0.026963084936141968, -0.011140350252389908, 0.020225295796990395, 0.07810431718826294, 0.174049973487854, 0.23005644977092743, 0.2372407168149948, 0.2234833538532257, 0.20556674897670746, 0.22728964686393738, 0.24313227832317352, 0.33368632197380066, 0.2357286959886551, 0.21346430480480194, 0.20789402723312378, 0.18073546886444092, 0.1300707757472992, 0.0921846330165863, 0.03950466588139534, 0.04435740038752556, 0.031860582530498505, -0.030224379152059555, -0.03206085041165352, 0.008237652480602264, 0.014565248042345047, -0.014100650325417519, -0.021948406472802162, -0.001139223575592041, -0.021493270993232727, -0.023148296400904655, 0.005084941629320383, 0.03069239854812622, 0.0065241614356637, 0.02370743453502655, 0.04242115095257759, 0.04753624275326729, 0.04870235174894333, 0.04916556179523468, 0.0241391621530056, 0.06612543016672134, 0.03755372017621994, 0.05186385661363602, 0.026992080733180046, 0.0847291350364685, 0.0019164866534993052, -0.006600144784897566, 0.030351655557751656, 0.03822694718837738, 0.004964808933436871, -0.018308062106370926, -0.025783255696296692, 0.029331203550100327, 0.025910615921020508], [0.029774699360132217, -0.004199482500553131, -0.012957947328686714, 0.03548142686486244, -0.008107036352157593, 0.02720366045832634, -0.013661691918969154, -0.010605506598949432, -0.023580364882946014, 0.00199054554104805, -0.021126829087734222, -0.0034501589834690094, -0.011683808639645576, -0.03213118016719818, -0.02792890928685665, -0.022117694839835167, 0.010782480239868164, -0.008352259173989296, 0.020315885543823242, 0.0062075890600681305, -0.015286488458514214, -0.021386470645666122, -0.022248277440667152, -0.02020486816763878, -0.020605122670531273, 0.02932749316096306, -0.02451082319021225, -0.030556313693523407, -0.012597659602761269, -0.01984304189682007, 0.032486047595739365, 0.0217675119638443, 0.011656210757791996, 0.02267441339790821, -0.003146437229588628, 0.015633542090654373, -0.012840168550610542, 0.029301855713129044, -0.004553745500743389, 0.03537922725081444, -0.02054811827838421, 0.011800318956375122, -0.008637464605271816, -0.0027162947226315737, 0.021220257505774498, 0.028728194534778595, 0.007834462448954582, 0.011412134394049644, -0.013466628268361092, -0.03474728390574455, -0.010314427316188812, 0.03305680677294731, -0.015478450804948807, -0.02048638090491295, 0.01778349280357361, -0.01602717861533165, 0.0017118938267230988, -0.026638304814696312, 0.030519049614667892, -0.02432607114315033, 0.018532615154981613, 0.00482556177303195, 0.031514786183834076, -0.024017926305532455, -0.04170345887541771, -0.058421604335308075, -0.03254660591483116, -0.03248161822557449, -0.0025847351644188166, 0.11132432520389557, 0.020264284685254097, 0.08450723439455032, 0.015274210833013058, -0.026806119829416275, -0.00993334036320448, 0.0029506185092031956, 0.01844838634133339, 0.02809673734009266, 0.0074869985692203045, 0.030266357585787773, -0.031443625688552856, -0.005781226791441441, 0.010304749011993408, 0.017045993357896805, 0.025516647845506668, 0.00020342320203781128, -0.030688846483826637, -0.013231953606009483, 0.025426944717764854, 0.03734253719449043, 0.041228748857975006, 0.03651176020503044, 0.03229726105928421, 0.0473296083509922, 0.053111374378204346, 0.036598704755306244, 0.1585685908794403, 0.1918317824602127, 0.14093627035617828, 0.1687069982290268, 0.14994081854820251, 0.03491860255599022, 0.03992938995361328, 0.09334132820367813, 0.05358407646417618, -0.05825161188840866, -0.07014462351799011, -0.04185118153691292, -0.03143058717250824, 0.01851835288107395, 0.009455974213778973, -0.03166127949953079, 0.018666256219148636, 0.018265850841999054, -0.033065471798181534, 0.016992924734950066, 0.018202535808086395, 0.03594384714961052, 0.08708491176366806, 0.09626315534114838, 0.14886578917503357, 0.13480383157730103, 0.2343369573354721, 0.09393168985843658, 0.13775518536567688, 0.12485121190547943, 0.08172164857387543, 0.06390294432640076, 0.13109555840492249, 0.04358014836907387, 0.05593544617295265, 0.10563018172979355, 0.03344978392124176, -0.018914034590125084, -0.07131528109312057, -0.08233347535133362, -0.01018466241657734, 0.010325780138373375, 0.03484277427196503, -0.010434973984956741, 0.012011654675006866, 0.03247895464301109, 0.02112600766122341, 0.037750594317913055, 0.0299152173101902, 0.14915665984153748, 0.18644925951957703, 0.07685934007167816, 0.023742297664284706, 0.05926798656582832, -0.07843547314405441, 0.01577090658247471, 0.023593857884407043, 0.08375732600688934, 0.09744647890329361, 0.12125760316848755, -0.011435583233833313, 0.02046278677880764, -0.010301069356501102, 0.06820620596408844, 0.02300429902970791, 0.026633042842149734, 0.000524053000845015, 0.052975527942180634, -0.007600072771310806, 0.0023005609400570393, -0.013132312335073948, -0.009657260961830616, -0.02758217416703701, 0.008056444115936756, 0.010249142535030842, -0.015598051249980927, -0.007411613129079342, 0.04181854799389839, 0.07358784973621368, 0.010011117905378342, 0.052568864077329636, 0.07687003165483475, 0.02890223264694214, 0.029112985357642174, 0.09450389444828033, 0.0016504665836691856, -0.039233963936567307, -0.01089521124958992, -0.030091123655438423, -0.043818313628435135, -0.028965501114726067, -0.09698586910963058, 0.023532690480351448, -0.030156923457980156, -0.05007261782884598, 0.1286230832338333, 0.18380703032016754, 0.05544286221265793, 0.05845661833882332, -0.008896952494978905, -0.013202049769461155, -0.010252999141812325, 0.02109694294631481, -0.031593456864356995, 0.0005702471826225519, 0.041431013494729996, -0.025159601122140884, -0.00962915737181902, -0.002372432267293334, 0.013990932144224644, -0.02990260347723961, -0.03895232826471329, 0.06092372164130211, -0.09223029017448425, 0.07524871081113815, 0.05515522509813309, 0.018064523115754128, 0.015001152642071247, -0.010056789964437485, -0.015469915233552456, 0.07266663759946823, -0.030111093074083328, -0.017301373183727264, 0.05407636612653732, 0.16393232345581055, 0.14489835500717163, 0.06717866659164429, 0.001887527876533568, -0.026162059977650642, -0.03417816385626793, -0.04924909025430679, -0.020455557852983475, 0.07316344976425171, 0.03319669887423515, 0.008161356672644615, -0.021277058869600296, -0.02600872702896595, 0.0016772986855357885, -0.06590639054775238, -0.10094675421714783, 0.041115764528512955, 0.0850328877568245, 0.07242025434970856, -0.012665707617998123, -0.023546582087874413, 0.07543927431106567, 0.06275290995836258, 0.015895690768957138, -0.07981101423501968, 0.001502704108133912, 0.06615694612264633, -0.1422489881515503, 0.21182024478912354, 0.2751035690307617, 0.0628085732460022, 0.000525693001691252, -0.0023032967001199722, -0.01016081590205431, -0.009465748444199562, 0.019708704203367233, -0.060938816517591476, -0.08424586802721024, 0.08735828846693039, 0.1213403046131134, 0.007138569839298725, -0.09809383749961853, -0.08680063486099243, -0.018137775361537933, -0.07062793523073196, -0.03383803367614746, 0.04026924446225166, 0.1577834039926529, 0.05330696702003479, 0.017859911546111107, 0.005641482304781675, 0.05000704154372215, 0.09002198278903961, 0.07878535985946655, 0.11565879732370377, 0.042977672070264816, 0.2609497308731079, 0.3058500289916992, 0.11576427519321442, 0.006053972523659468, -0.0275394506752491, -0.013479534536600113, -0.02313411235809326, -0.05246122553944588, -0.05683114379644394, -0.07693832367658615, 0.0287765022367239, -0.07377520203590393, -0.04681943729519844, -0.10334278643131256, 0.02009141445159912, -0.09996005147695541, -0.001076268614269793, 0.014457140117883682, 0.058613371104002, 0.16038860380649567, 0.06744769215583801, 0.027333566918969154, 0.07486464083194733, 0.0354173518717289, 0.04548561945557594, 0.05584745109081268, 0.045867931097745895, 0.17273283004760742, 0.2336256206035614, 0.2902994155883789, 0.07667811214923859, 0.013085202313959599, -0.02644767425954342, 0.018028920516371727, -0.058148741722106934, -0.11672794818878174, -0.11902514845132828, 0.05540401116013527, -0.07650361955165863, -0.10372550785541534, 0.04164216294884682, 0.04781894385814667, -0.028347544372081757, -0.05429144948720932, 0.052589479833841324, 0.016930215060710907, 0.10219328850507736, 0.13133566081523895, 0.0877101719379425, 0.0659852921962738, 0.006625736597925425, 0.0007643740391358733, 0.05337689444422722, -0.04155084490776062, -0.06602036952972412, 0.06780171394348145, 0.21390432119369507, 0.14725302159786224, 0.051824480295181274, 0.0022848842199891806, -0.012377830222249031, 0.021954907104372978, -0.075583316385746, -0.10758225619792938, -0.15435175597667694, -0.055340588092803955, -0.06023407354950905, 0.13511374592781067, -0.05999787151813507, -0.03474241867661476, 0.008647145703434944, -0.044299282133579254, 0.03365793079137802, 0.11206509172916412, 0.22728076577186584, 0.08853637427091599, -0.02919767238199711, -0.028474479913711548, 0.03312147408723831, 0.015456092543900013, 0.03381010890007019, -0.032814133912324905, -0.05233759805560112, 0.05997399985790253, -0.043687500059604645, 0.016647202894091606, 0.04554063081741333, -0.007828361354768276, -0.009871821850538254, 0.0019208415178582072, -0.041601814329624176, -0.09952480345964432, -0.1342926174402237, -0.10962967574596405, -0.02228558622300625, 0.05332484468817711, 0.08334117382764816, 0.036184895783662796, -0.024954022839665413, 0.01772397756576538, 0.1623903065919876, 0.18790197372436523, 0.2474813014268875, 0.10274472087621689, -0.03903648629784584, -0.030016833916306496, -0.03670541197061539, 0.021331965923309326, 0.09944842010736465, -0.1194479838013649, -0.12119189649820328, -0.0476628839969635, -0.15881672501564026, -0.09553277492523193, -0.01800570823252201, -0.02030264027416706, -0.020201021805405617, 0.005874494090676308, -0.04890206456184387, -0.10098229348659515, -0.1565854698419571, -0.19485872983932495, -0.03538287803530693, -0.1832934319972992, -0.06919995695352554, 0.0564279705286026, -0.0687023401260376, 0.009914640337228775, 0.1115240752696991, 0.1822323203086853, 0.4267953932285309, -0.0344226099550724, -0.0192157793790102, 0.06984710693359375, -0.03500222787261009, -0.10997901111841202, -0.17916475236415863, -0.12097615748643875, -0.1737738847732544, -0.22151392698287964, -0.14979000389575958, -0.08356408029794693, -0.04111960530281067, 0.01203135959804058, 0.0251309871673584, -0.0057744611985981464, -0.0033970477525144815, 0.006424137391149998, -0.09844401478767395, -0.17741554975509644, -0.04839971289038658, -0.08466402441263199, -0.07229747623205185, -0.07548312842845917, -0.08504410088062286, -0.03722274303436279, -0.008841950446367264, 0.23509475588798523, 0.2707025408744812, -0.09801395982503891, 0.020523732528090477, -0.1924038976430893, -0.08294590562582016, -0.1710032969713211, -0.13861556351184845, -0.013939241878688335, -0.05378890037536621, -0.050494659692049026, -0.02297842688858509, -0.04166491702198982, -0.019507547840476036, -0.040695562958717346, 0.0007224773871712387, 0.024554790928959846, 0.028391070663928986, 0.03548850864171982, 0.02057293988764286, -0.03132191300392151, -0.0681268647313118, -0.13471563160419464, -0.09192069619894028, -0.08019748330116272, -0.06066923961043358, -0.11807572841644287, 0.008859943598508835, 0.20458191633224487, 0.07488705217838287, -0.03595390170812607, -0.16406792402267456, -0.23977752029895782, -0.0409567728638649, -0.14108827710151672, -0.10651656240224838, -0.149139404296875, -0.039887432008981705, 0.08556967973709106, 0.04923335090279579, -0.06181160360574722, -0.020447447896003723, -0.02683185413479805, 0.029976900666952133, 0.024836711585521698, 0.024698002263903618, 0.062067609280347824, 0.04137147590517998, -0.01054916437715292, -0.06798702478408813, -0.08490173518657684, -0.007418641820549965, -0.07489333301782608, -0.030862243846058846, -0.09469868242740631, -0.039035867899656296, 0.0651044175028801, 0.02460605278611183, -0.21866285800933838, -0.011858779937028885, -0.08200431615114212, -0.12475237250328064, 0.0686754509806633, -0.10352816432714462, 0.03357716649770737, -0.010014843195676804, 0.08229852467775345, 0.07965646684169769, -0.19449937343597412, -0.038698963820934296, -0.018810879439115524, -0.03074073977768421, 0.024168923497200012, 0.018877552822232246, 0.18407544493675232, 0.04354822263121605, -0.035053420811891556, 0.04836625978350639, -0.050721559673547745, -0.10955394059419632, -0.04204494506120682, -0.06763389706611633, 0.06375471502542496, -0.09018147736787796, -0.05035702884197235, -0.09634343534708023, -0.05534576624631882, -0.12297303974628448, -0.13315175473690033, -0.097474604845047, -0.10808084160089493, 0.0340847410261631, -0.056168004870414734, -0.082911416888237, -0.014250656589865685, 0.005125884898006916, -0.05450991541147232, 0.0178674403578043, -0.004535732325166464, -0.033353935927152634, -0.022753041237592697, -0.01628691703081131, 0.12561285495758057, -0.018645793199539185, 0.07238421589136124, -0.03544378653168678, -0.04773058369755745, 0.010770958848297596, 0.06935977190732956, 0.015388179570436478, -0.12497598677873611, -0.15018200874328613, 0.015412634238600731, -0.039138197898864746, 0.0836866945028305, 0.07050837576389313, -0.022684721276164055, 0.014750191010534763, -0.03857562690973282, 0.01601879857480526, 0.00948888249695301, 0.013989238068461418, 0.02263215184211731, -0.043246056884527206, -0.04270244017243385, 0.007307514548301697, 0.03235127776861191, 0.03164887800812721, -0.023845866322517395, -0.017007382586598396, 0.030135801061987877, -0.006371405906975269, -0.10554998368024826, 0.10635358840227127, 0.04285172000527382, 0.03320058062672615, 0.013698523864150047, 0.03596624359488487, 0.09004808962345123, -0.05307772755622864, -0.03410301357507706, 0.08352726697921753, -0.0054970053024590015, 0.10320787876844406, 0.10736628621816635, 0.16742271184921265, 0.09441197663545609, 0.07922432571649551, 0.06254417449235916, 0.10952619463205338, 0.02535109408199787, -0.026023956015706062, 0.02187841758131981, -0.01452296320348978, -0.033898890018463135, 0.01314075943082571, 0.029916297644376755, 0.0007016172166913748, 0.003395919920876622, 0.05918348580598831, 0.03832563757896423, 0.13378094136714935, 0.13029269874095917, 0.1228971928358078, 0.007619844749569893, -0.00966439675539732, -0.004060481209307909, 0.0236493032425642, -0.014181450009346008, 0.06942509114742279, 0.05207142233848572, -0.07462596893310547, 0.023220621049404144, -0.009978809393942356, -0.014436909928917885, -0.01901165582239628, 0.035780616104602814, -0.022192321717739105, -0.10889977961778641, -0.011064358055591583, -0.03401317447423935, 0.028382988646626472, 0.035051461309194565, -0.032163992524147034, -0.0015072948299348354, 0.02221381664276123, 0.05426539108157158, 0.07524466514587402, 0.10865868628025055, 0.05207398533821106, 0.028349999338388443, -0.0756334662437439, -0.014953827485442162, -0.028963424265384674, 0.019055413082242012, -0.07133699208498001, -0.0010347937932237983, -0.009268646128475666, 0.005038502160459757, -0.028132682666182518, 0.06015223637223244, 0.03457807004451752, -0.033915407955646515, -0.033917564898729324, -0.006642666645348072, -0.11620859801769257, -0.13177748024463654, -0.03370333090424538, -0.02876589260995388, 0.016427526250481606, -0.015430235303938389, 0.028535332530736923, -0.01161545142531395, 0.04153338819742203, 0.06970614194869995, 0.1394639015197754, 0.0890597552061081, -0.05711951106786728, -0.059129439294338226, 0.008220785297453403, 0.0017036710632964969, -0.034072499722242355, 0.0032829802948981524, 0.0028323756996542215, 0.03736898675560951, 0.0033110531512647867, 0.040887150913476944, 0.1278102993965149, 0.05730428174138069, 0.03670340031385422, -0.008578483946621418, -0.08748729526996613, -0.18366341292858124, -0.20733073353767395, -0.10236180573701859, -0.014454156160354614, -0.05274719372391701, 0.010032249614596367, 0.017133142799139023, 0.009843535721302032, 0.011717233806848526, 0.043203968554735184, 0.026520436629652977, 0.04973013699054718, 0.09604546427726746, -0.007704876828938723, 0.10563811659812927, 0.06343625485897064, 0.023909011855721474, 0.08222032338380814, 0.11961250752210617, -0.027559559792280197, 0.06945611536502838, 0.0534285232424736, -0.046246375888586044, 0.06321676820516586, -0.06407766044139862, 0.026069413870573044, -0.017536895349621773, -0.04836723208427429, -0.058468569070100784, -0.0918567031621933, -0.026989446952939034, -0.007907288148999214, -0.01871737837791443, 0.00624009920284152, 0.0063170380890369415, 0.004137247800827026, 0.001132432371377945, -0.0078051029704511166, -0.024699393659830093, 0.021655557677149773, -0.013636704534292221, 0.009032835252583027, 0.026603419333696365, 0.10615579038858414, 0.10559618473052979, 0.09653517603874207, -0.0356617271900177, -0.0033630437683314085, 0.0355992428958416, 0.08833013474941254, -0.0858098566532135, -0.10839464515447617, 0.043522078543901443, 0.05858903005719185, -0.01903870888054371, 0.04799061268568039, 0.04425526037812233, -0.026100989431142807, 0.007413026411086321, 0.013471737504005432, -0.005208897404372692, -0.026304690167307854, -0.014700174331665039, -0.006533049046993256, 0.01857887953519821, -0.030114367604255676, -0.02369592897593975, -0.025577962398529053, 0.027497684583067894, 0.007629659492522478, -0.07243315130472183, -0.053693369030952454, -0.036345865577459335, 0.0305849090218544, 0.09267124533653259, 0.12000016123056412, 0.07814093679189682, 0.1655920296907425, 0.14329759776592255, 0.12055770307779312, 0.14841517806053162, 0.07805508375167847, -0.017555885016918182, 0.061564020812511444, 0.058589302003383636, 0.0231640562415123, 0.002587971743196249, 0.0006334296776913106, 0.020091304555535316, 0.03555379435420036, 0.009338553994894028, -0.03148375079035759, 0.010352753102779388, -0.008208850398659706, -0.032858628779649734, -0.004888132214546204, 0.016146786510944366, 0.031110191717743874, 0.004324332345277071, 0.004243882838636637, 0.004557410720735788, -0.015369533561170101, -0.020388446748256683, 0.013142561540007591, -0.006386544089764357, 0.026767341420054436, -0.015530962496995926, -0.010923266410827637, 0.019536804407835007, -0.020972223952412605, -0.000824153539724648, 0.02017669938504696, 0.01938657835125923, 0.00988447479903698, -0.00826175045222044, 0.004207532852888107, 0.003370247781276703, 0.011827833950519562, -0.018354561179876328], [-0.017685431987047195, -0.03131192550063133, 0.0054533109068870544, 0.02476547658443451, 0.022957555949687958, -0.019443001598119736, -0.0008537769317626953, -0.004363615065813065, 0.019110098481178284, 0.0013852789998054504, 0.004050206393003464, 0.008469630032777786, 0.03530339151620865, -0.002083087107166648, -0.02972574718296528, -0.02959584817290306, 0.022436629980802536, 0.0035615600645542145, 0.026719916611909866, -0.03042583540081978, 0.0013733915984630585, 0.027357827872037888, 0.027362171560525894, -0.029132278636097908, -0.02192091941833496, -0.03488679230213165, -0.03385497257113457, -0.020954230800271034, 0.011373236775398254, 0.01609223708510399, 0.004625607281923294, -0.012843320146203041, -0.008507639169692993, 0.006924983114004135, 0.001937361084856093, -0.01673182286322117, -0.0194548387080431, -0.02913384884595871, 0.009318133816123009, 0.006451964844018221, 0.04173702001571655, 0.009161216206848621, -0.022089727222919464, 0.001194818178191781, -0.011162777431309223, -0.004092196002602577, -0.02857314795255661, 0.015293026342988014, -0.01449510920792818, -0.02448849007487297, 0.000806842406746, -0.010369991883635521, 0.004211213439702988, -0.007373405620455742, -0.01685587503015995, -0.022258972749114037, 0.03479909524321556, 0.008588630706071854, 0.029967231675982475, 0.0011972275096923113, -0.020497135818004608, 0.009502570144832134, 0.022273072972893715, 0.035904087126255035, -0.004780985414981842, 0.02175220288336277, 0.013975030742585659, 0.026323584839701653, 0.04165077954530716, -0.045672040432691574, -0.08680709451436996, -0.154188871383667, -0.12577024102210999, -0.03602676838636398, -0.054453521966934204, 0.00210255803540349, 0.0022116464097052813, 0.00976432766765356, -0.023182101547718048, 0.039153195917606354, -0.009307515807449818, 0.020291253924369812, 0.016220536082983017, 0.003959231078624725, 0.013827450573444366, 0.018398046493530273, 0.02371034026145935, -0.000958874064963311, -0.02699427306652069, -0.02006619982421398, 0.006414113566279411, -0.04586963355541229, 0.0387604646384716, 0.0668114498257637, 0.04512375593185425, 0.057317741215229034, 0.09204121679067612, 0.07788848131895065, -0.0020356837194412947, -0.009851270355284214, 0.04771207645535469, -0.01857888139784336, -0.021121084690093994, 0.005454053170979023, -0.020037023350596428, 0.020373335108160973, -0.050067413598299026, -0.01057405211031437, 0.027073562145233154, 0.03215533494949341, -0.01534485723823309, -0.033785056322813034, -0.02737281285226345, 0.012020565569400787, 0.01159801334142685, 0.02776050753891468, 0.00844187568873167, -0.00387558969669044, 0.03139609470963478, 0.022791655734181404, 0.07906725257635117, 0.15602530539035797, 0.10311407595872879, 0.24750593304634094, 0.15788570046424866, 0.07509502023458481, 0.04816426336765289, 0.07724958658218384, 0.06780797243118286, 0.016571467742323875, 0.021265331655740738, -0.07057267427444458, -0.09541292488574982, -0.1255151778459549, -0.09539537876844406, -0.21942907571792603, -0.03754208981990814, 0.05986865237355232, 0.004792373161762953, 0.03165531903505325, 0.028620664030313492, 0.020360339432954788, -0.008915070444345474, 0.006756140850484371, -0.004486481659114361, -0.05380161851644516, 0.013999269343912601, 0.11090236157178879, 0.1356181800365448, -0.006464093457907438, 0.08222067356109619, 0.13335449993610382, 0.11607866734266281, 0.11193832010030746, 0.09788259118795395, -0.04221910238265991, 0.14008839428424835, 0.047157105058431625, 0.024619460105895996, 0.003782206680625677, 0.10377508401870728, 0.010707871057093143, -0.02064218558371067, -0.15018679201602936, -0.023267481476068497, 0.08005807548761368, 0.011815173551440239, 0.01135259959846735, 0.028125513345003128, 0.03344070911407471, 0.04898623377084732, 0.08513417840003967, 0.07605820894241333, -0.03187410160899162, 0.007980856113135815, -0.01838282123208046, 0.07822562009096146, -0.03473034128546715, 0.11233624815940857, 0.06909303367137909, 0.02697744593024254, 0.029387203976511955, 0.18301092088222504, 0.06514931470155716, -0.024595746770501137, 0.0880713015794754, -0.027296170592308044, -0.012500697746872902, 0.01322830282151699, -0.026015866547822952, 0.02931615523993969, -0.04193248599767685, 0.05873522534966469, 0.0700891986489296, 0.01943964697420597, -0.0008823640528135002, -0.010006162337958813, 0.00796353816986084, -0.03297857940196991, 0.018377987667918205, 0.057920362800359726, -0.007000063546001911, -0.05502582713961601, -0.03612184897065163, 0.056624848395586014, -0.024946628138422966, 0.06097548454999924, 0.0793146938085556, 0.05284613370895386, 0.10810308903455734, 0.06683503091335297, 0.1541404277086258, 0.08005434274673462, 0.01273929513990879, 0.18722715973854065, 0.10855468362569809, 0.08714985847473145, 0.12693355977535248, 0.08358094096183777, 0.021886983886361122, 0.0066422647796571255, -0.02039678394794464, 0.04328465461730957, -0.01711941696703434, -0.0151496147736907, -0.02829660102725029, 0.03757492080330849, 0.08595507591962814, 0.12106004357337952, 0.08309105783700943, 0.0503968708217144, 0.019919516518712044, 0.07960464060306549, -0.034850649535655975, 0.04121077433228493, -0.020719759166240692, 0.11198775470256805, 0.08562313765287399, 0.20956288278102875, 0.1206902489066124, 0.25077569484710693, 0.15571290254592896, 0.15857237577438354, 0.15645860135555267, 0.1435733437538147, 0.08729797601699829, 0.19928911328315735, 0.04618600755929947, -0.02044806443154812, -0.0073660267516970634, 0.06581944227218628, 0.002559375250712037, -0.015298979356884956, -0.025011291727423668, 0.01940060220658779, 0.1155485138297081, 0.2138603925704956, 0.18994790315628052, 0.10211785137653351, 0.03992428630590439, 0.11053667962551117, 0.1232537105679512, 0.12865781784057617, -0.03275289759039879, -0.0038100562524050474, 0.1499764323234558, 0.13406111299991608, 0.181949183344841, 0.12612006068229675, 0.1663186103105545, 0.10584692656993866, 0.10312683880329132, 0.128020778298378, 0.04789657145738602, 0.1433899849653244, 0.10611364990472794, 0.1008761003613472, 0.19427041709423065, 0.050668865442276, 0.019081497564911842, -0.017734989523887634, 0.013502979651093483, 0.007996044121682644, 0.11924394220113754, 0.13992398977279663, 0.18439914286136627, 0.20644064247608185, -0.018545804545283318, 0.014398785308003426, -0.05336423218250275, 0.08999642729759216, 0.1352642923593521, -0.047069672495126724, 0.001380863948725164, 0.04892315715551376, 0.00373487058095634, 0.08680658042430878, -0.023887334391474724, 0.059651557356119156, -0.0032298972364515066, 0.11716882884502411, 0.06717357784509659, 0.07638173550367355, 0.23440439999103546, 0.11390899121761322, 0.07940098643302917, 0.0883912593126297, 0.01967471092939377, 0.008405664004385471, 0.001634464249946177, 0.008907517418265343, 0.03997102007269859, -0.0051316446624696255, -0.19690553843975067, 0.08760782331228256, -0.059748031198978424, -0.010017096064984798, 0.005752763710916042, -0.04249505698680878, 0.10233544558286667, -0.10102768987417221, -0.03790806606411934, -0.10930308699607849, -0.19431880116462708, -0.1258878856897354, -0.13864044845104218, 0.025218844413757324, -0.078403539955616, -0.049448709934949875, -0.006252463441342115, -0.005005422979593277, 0.1278485804796219, 0.16082969307899475, 0.044580090790987015, 0.02606768161058426, 0.03385491669178009, 0.022248385474085808, -0.014893407002091408, 0.03369467332959175, -0.054675113409757614, -0.18176455795764923, -0.25339826941490173, -0.09001198410987854, -0.0638616681098938, -0.011703377589583397, -0.01938639208674431, -0.05349772050976753, -0.12750238180160522, -0.06705223768949509, -0.08888735622167587, -0.02575630508363247, -0.14504985511302948, -0.10060406476259232, -0.009751277975738049, -0.11148854345083237, -0.02236921899020672, -0.0023560947738587856, -0.05223940685391426, 0.006337655242532492, 0.02883886732161045, 0.07449403405189514, 0.02936622127890587, -0.048469752073287964, -0.028464587405323982, -0.011508168652653694, -0.0021530641242861748, 0.02282589115202427, -0.07880599796772003, -0.3267005681991577, -0.19289402663707733, -0.09085484594106674, -0.10269655287265778, -0.15040066838264465, -0.05439513549208641, -0.12101960182189941, -0.05502095818519592, -3.6626119253924116e-05, 0.007499149534851313, 0.02114870399236679, -0.18650411069393158, -0.1279231160879135, -0.0806472897529602, -0.048559583723545074, -0.03193020820617676, -0.05393673852086067, -0.17622816562652588, -0.11462696641683578, -0.05600415915250778, -0.031057151034474373, -0.04419468715786934, -0.03446469083428383, 0.006497572176158428, 0.03336576744914055, 0.006687197834253311, -0.0190415196120739, -0.07380553334951401, -0.2541728913784027, -0.14233997464179993, -0.11236585676670074, -0.04804689809679985, -0.04392733797430992, -0.04083909094333649, -0.04591056704521179, -0.022003374993801117, -0.042905036360025406, 0.16512294113636017, 0.07159402221441269, -0.09641115367412567, -0.17662501335144043, -0.04520219564437866, -0.04911908134818077, -0.16864033043384552, -0.07270874828100204, 0.08368726074695587, -0.1961195021867752, -0.007798024453222752, 0.036143023520708084, -0.005579808261245489, 0.017563359811902046, -0.007610403932631016, -0.015089272521436214, 0.03550828620791435, 0.01606573536992073, -0.13595382869243622, -0.1284623146057129, 0.07451196014881134, -0.04951042681932449, 0.09970928728580475, 0.037400294095277786, 0.004579490050673485, 0.01170849334448576, -0.04369064420461655, 0.06527344882488251, 0.15478932857513428, -0.043076321482658386, -0.10382747650146484, -0.07549510896205902, -0.14104750752449036, -0.07298515737056732, -0.23126985132694244, -0.008437594398856163, -0.07349278032779694, -0.1400265097618103, -0.05303317680954933, 0.10874795913696289, -0.01261101383715868, -0.04167135804891586, 0.002334907418116927, -0.005700404290109873, 0.0206852238625288, -0.010774817317724228, -0.06381732225418091, 0.011194594204425812, 0.00315616256557405, -0.08227617293596268, -0.0009175700251944363, -0.021960938349366188, 0.039466697722673416, 0.03786461427807808, 0.013974308967590332, 0.100106380879879, 0.21176652610301971, -0.03311460092663765, -0.1739339828491211, -0.10736098140478134, -0.09324092417955399, -0.1534276008605957, 0.025941945612430573, -0.2578760087490082, -0.036390867084264755, -0.0954858660697937, 0.013782941736280918, 0.037182148545980453, 0.07652223110198975, 0.001999875530600548, -0.011326159350574017, -0.005455894395709038, 0.004237155895680189, -0.013520726934075356, -0.03000035509467125, 0.02901693619787693, 0.07050062716007233, -0.05408228561282158, -0.1553127020597458, -0.12448601424694061, 0.0047316718846559525, 0.016595952212810516, -0.0034894589334726334, 0.1321905553340912, 0.06761562079191208, -0.008931908756494522, -0.09411077201366425, -0.025825833901762962, 0.032376889139413834, -0.02467760629951954, 0.04615309089422226, -0.12817305326461792, -0.07256975024938583, 0.06456685066223145, -0.052798639982938766, 0.007014680188149214, 0.15723049640655518, 0.05055626481771469, -0.02825990505516529, 0.002577312756329775, 0.015647053718566895, -0.03507894277572632, -0.10096211731433868, -0.01780278980731964, 0.13887062668800354, -0.03249910846352577, -0.09784536063671112, -0.04762619361281395, -0.09238003194332123, 0.0011159107089042664, -0.05507774278521538, -0.0451529324054718, -0.08062943071126938, -0.20942595601081848, -0.010170256718993187, 0.010549030266702175, -0.012543758377432823, -0.0020949069876223803, 0.042531490325927734, -0.01248919777572155, 0.042393866926431656, 0.137456014752388, 0.049868278205394745, 0.06049996614456177, 0.09459300339221954, 0.033986691385507584, 0.0049929930828511715, 0.017173923552036285, -0.0003241172817070037, -0.027973109856247902, -0.047185011208057404, -0.013597342185676098, 0.02042781561613083, 0.07212810963392258, 0.07634297758340836, -0.006748281419277191, -0.012212907895445824, 0.024397745728492737, -0.16176681220531464, -0.07993977516889572, -0.06057845801115036, -0.07670062780380249, 0.022081637755036354, -0.09725113213062286, 0.09681668132543564, 0.016976812854409218, 0.12597477436065674, 0.051415953785181046, 0.06473376601934433, 0.17948545515537262, 0.08380898088216782, 0.13575999438762665, 0.06883902102708817, 0.045272763818502426, 0.022844426333904266, -0.005472928285598755, -0.006454192101955414, 0.012894888408482075, 0.052737537771463394, 0.17071984708309174, 0.2113320529460907, 0.22664488852024078, 0.13540595769882202, 0.097083181142807, 0.06694141775369644, -0.01497154962271452, 0.007387194782495499, 0.1237577423453331, 0.06981918960809708, 0.00864475965499878, 0.11687824130058289, 0.028125187382102013, 0.13140422105789185, 0.019668037071824074, 0.0928637683391571, 0.11602548509836197, 0.1669812649488449, 0.1090444028377533, 0.06792796403169632, 0.04025549814105034, 0.03254746273159981, 0.020316660404205322, 0.001230859779752791, -0.032947689294815063, -0.007907477207481861, 0.08145325630903244, 0.17957580089569092, 0.194125235080719, -0.015481389127671719, 0.15225867927074432, 0.09831884503364563, 0.026922838762402534, 0.027644623070955276, 0.015249582938849926, 0.06415531784296036, 0.04286392033100128, 0.10697785764932632, 0.12355171889066696, 0.05382330343127251, 0.06743387132883072, 0.011412173509597778, 0.13984645903110504, 0.05355056747794151, -0.011143614538013935, 0.05010891333222389, 0.11974535882472992, 0.1662246584892273, 0.015704063698649406, 0.06507918238639832, -0.02690289542078972, -0.010830206796526909, 0.0336139053106308, 0.010671344585716724, 0.03636832535266876, 0.10101508349180222, 0.05474380403757095, 0.038347356021404266, 0.07813867926597595, 0.07051084190607071, 0.021430866792798042, 0.16229750216007233, -0.027511630207300186, 0.09770862758159637, 0.09763026982545853, 0.07608023285865784, -0.030881986021995544, 0.042340606451034546, 2.0967976524843834e-05, 0.04183004051446915, 0.0323893204331398, 0.015774520114064217, 0.03682931885123253, 0.011567868292331696, 0.012412358075380325, 0.04489610344171524, -0.002683081431314349, 0.013886488974094391, 0.023583272472023964, -0.0011775530874729156, 0.02896292880177498, 0.005773331969976425, 0.0525779090821743, 0.058099716901779175, 0.08119543641805649, 0.05391380190849304, 0.02935771457850933, 0.1774168312549591, 0.09467286616563797, 0.11259389668703079, 0.08581767231225967, 0.1870102435350418, 0.05335381254553795, 0.03192866966128349, 0.14426174759864807, 0.09715399891138077, 0.11027373373508453, 0.09997567534446716, 0.021807579323649406, 0.041722703725099564, 0.0021434170193970203, -0.007684348151087761, 0.04231240227818489, 0.13871870934963226, 0.0020387268159538507, -0.0010276547400280833, 0.008444683626294136, -0.003706280142068863, -0.026633132249116898, -0.0323491245508194, -0.003778356360271573, 0.023629508912563324, 0.08392827957868576, 0.007071175146847963, 0.008202983066439629, 0.030154889449477196, 0.03289472311735153, 0.0020916566718369722, -0.021304339170455933, -0.027780966833233833, 0.10927395522594452, 0.05016074329614639, 0.14801225066184998, 0.11768527328968048, 0.08898612856864929, 0.06580179184675217, 0.131356880068779, -0.008686695247888565, -0.047358617186546326, -0.027811923995614052, -0.045389171689748764, 0.032801661640405655, 0.06167542561888695, -0.014478527009487152, -0.003969129174947739, -0.009730564430356026, -0.020329736173152924, 0.02335435152053833, -0.025099480524659157, 0.016300491988658905, 0.009839153848588467, -0.08072149753570557, -0.0068233017809689045, -0.017012860625982285, 0.09991662204265594, 0.11743564903736115, 0.09320797026157379, 0.1364264339208603, 0.12258907407522202, 0.1682789921760559, 0.05049089342355728, 0.15744507312774658, 0.1822509914636612, 0.1750314086675644, 0.110318124294281, 0.19497911632061005, -0.007331410422921181, -0.036554232239723206, 0.011455608531832695, 0.022083716467022896, -0.0055619459599256516, 0.03038841485977173, -0.01298396848142147, 0.026395730674266815, -0.008622996509075165, -0.007042037323117256, -0.02192351222038269, 0.01797441951930523, -0.0292842797935009, -0.06720799952745438, -0.10413521528244019, -0.03443866968154907, -0.0044387090019881725, -0.01592455618083477, 0.02280839905142784, 0.053947292268276215, 0.017802437767386436, 0.043166905641555786, 0.09804779291152954, 0.10179279744625092, 0.06889353692531586, 0.000283146247966215, 0.014385269954800606, 0.034042924642562866, 0.0005388005520217121, 0.015033704228699207, 0.009724926203489304, -0.0326019711792469, 0.03367201238870621, -0.025479916483163834, -0.008494356647133827, 0.01773214340209961, 0.0302685908973217, 0.009885568171739578, -0.015027476474642754, -0.012827137485146523, -0.02997651882469654, -0.010964779183268547, -0.02247665449976921, 0.028446190059185028, 0.04720884934067726, 0.025533882901072502, -0.0009642661898396909, 0.011924678459763527, 0.01081941183656454, 0.029530325904488564, 0.037181999534368515, 0.03111385926604271, 0.006889634300023317, 0.03985698148608208, 0.008267217315733433, -0.023800166323781013, -0.023215536028146744, -0.0060312519781291485, -0.010638094507157803, 0.029173878952860832, 0.013657152652740479, 0.029373344033956528, 0.019403181970119476, 0.017081156373023987], [-0.031996745616197586, -0.020258832722902298, -0.028422199189662933, 0.019561555236577988, -0.03431714326143265, -0.03428845852613449, -0.011940382421016693, -0.011113805696368217, 0.03534626588225365, 0.03431687876582146, -0.01089627854526043, -0.028895476832985878, 0.029623176902532578, -0.028565265238285065, -0.018650876358151436, -0.0314946286380291, -0.027608387172222137, -0.006454341113567352, -0.0020906738936901093, 0.02412339672446251, -0.005182322114706039, -0.023298826068639755, 0.02666395530104637, 0.026791181415319443, 0.015178821980953217, 0.01678973063826561, -0.00361773744225502, -0.02645767293870449, -0.005339976400136948, 0.006029635667800903, -0.0055527351796627045, -0.016272077336907387, -0.015525328926742077, -0.004082057159394026, 0.005960940383374691, 0.0011652433313429356, -0.021942155435681343, -0.030032828450202942, 0.01504606194794178, 0.011459053494036198, -0.019647793844342232, -0.03354382514953613, 0.003193090669810772, -0.03443816304206848, 0.0143702058121562, -0.008739646524190903, -0.01476135104894638, -0.031663283705711365, -0.012933303602039814, 0.00199318490922451, -0.018736913800239563, 0.03192869946360588, 0.029365506023168564, -0.0020675621926784515, 0.03164080157876015, -0.021476853638887405, -0.014450082555413246, 0.02386695146560669, 0.0018806157168000937, -0.024237757548689842, 0.0036924961023032665, 0.013226242735981941, -0.02993818372488022, -0.03138897567987442, 0.0009209641139023006, -0.03604241460561752, -0.004092959221452475, 0.013814800418913364, -0.06012038514018059, -0.051716409623622894, -0.026561906561255455, -0.014752990566194057, -0.036578621715307236, -0.07238505780696869, -0.038515567779541016, 0.0073391143232584, 0.03056555613875389, -0.014482622034847736, 0.006784855388104916, -0.037672024220228195, 0.002790198428556323, -0.004052473232150078, -0.032904013991355896, -0.000529848039150238, -0.026331569999456406, 0.015973631292581558, -0.024854741990566254, 0.03165789321064949, 0.007722059264779091, -0.004374415148049593, -0.013006515800952911, 0.01621364988386631, -0.040722332894802094, -0.05082481727004051, 0.002233664970844984, 0.006629586685448885, 0.07737641781568527, 0.002563874004408717, -0.06643711030483246, -0.09773144870996475, -0.08557247370481491, 0.00869709812104702, 0.018684742972254753, 0.0262309480458498, -0.02119043469429016, -0.04804840683937073, 0.009996414184570312, -0.044170867651700974, -0.01302554365247488, 0.018513314425945282, 0.02149907499551773, -0.02870011515915394, 0.014556903392076492, 0.011319530196487904, -0.0077936830930411816, 0.024408061057329178, 0.010512802749872208, -0.02427399344742298, -0.0689602866768837, -0.010752777568995953, -0.10622718185186386, -0.0825115442276001, -0.06316249072551727, 0.10100574791431427, -0.030973970890045166, -0.04310140386223793, -0.04344439134001732, -0.004764440469443798, 0.06989835202693939, -0.022362325340509415, 0.01102177519351244, 0.05265412479639053, -0.01976458542048931, 0.06382347643375397, -0.05003475025296211, 0.0070329089649021626, 0.05972227081656456, 0.01627645641565323, 0.011798655614256859, -0.009836875833570957, 0.004214432090520859, 0.016222015023231506, 0.027192184701561928, -0.04053303599357605, -0.034713905304670334, -0.08915593475103378, -0.07637125998735428, 0.0036919775884598494, -0.0647306963801384, 0.033920250833034515, -0.005608337465673685, 0.017875926569104195, 0.10887356102466583, -0.08248425275087357, -0.07765749096870422, -0.07362408936023712, 0.013159122318029404, -0.03264151141047478, -0.07976994663476944, 0.008998005650937557, 0.07624299824237823, -0.047513965517282486, 0.04687903821468353, 0.03937223553657532, -0.028730427846312523, -0.01426040381193161, 0.023581434041261673, 0.018161945044994354, -0.009787287563085556, 0.021270951256155968, 0.005502038169652224, -0.024088667705655098, -0.0013016933808103204, 0.026248589158058167, -0.07446347922086716, -0.01402139849960804, -0.048414040356874466, -0.03819561004638672, 0.039812106639146805, 0.032392363995313644, -0.028919823467731476, -0.02103358320891857, 0.04869137704372406, -0.04331519454717636, -0.05622076615691185, -0.036463815718889236, -0.03730633854866028, 0.06778008490800858, 0.1291837841272354, 0.01782267354428768, 0.15759047865867615, 0.13948200643062592, 0.16828182339668274, 0.10715442895889282, 0.07626872509717941, 0.012174174189567566, -0.003560161916539073, -0.01889258436858654, 0.01221627276390791, -0.05806093290448189, -0.04463418945670128, 0.08686695992946625, 0.020336201414465904, 0.003543841652572155, 0.04184425249695778, 0.032807424664497375, 0.00997056532651186, -0.06862669438123703, -0.006314791738986969, 0.02779375948011875, -0.05117446184158325, 0.0005853618495166302, 0.021990235894918442, 0.09277686476707458, 0.10277839750051498, 0.10312573611736298, 0.08153151720762253, 0.13893379271030426, 0.15242820978164673, 0.13505882024765015, 0.08371596038341522, 0.14681345224380493, 0.10923418402671814, 0.0020770449191331863, 0.014660084620118141, -0.010141977109014988, 0.043076302856206894, 0.052476730197668076, 0.03297644853591919, 0.07602610439062119, -0.03917757794260979, -0.0068991463631391525, -0.026767266914248466, 0.0423140786588192, -0.01181876566261053, 0.002235155552625656, -0.08980147540569305, 0.008667919784784317, 0.05503188818693161, 0.03914467990398407, -0.011922692880034447, 0.06828316301107407, 0.12996770441532135, 0.1757911592721939, 0.20117150247097015, 0.1572529375553131, 0.2474789172410965, 0.19883711636066437, 0.14433357119560242, 0.17598696053028107, 0.027268061414361, -0.0319773368537426, 0.006578640080988407, -0.011195853352546692, 0.011755852960050106, 0.01966390758752823, 0.008419419638812542, -0.11510828882455826, 0.022613821551203728, -0.031588852405548096, -0.08917786926031113, -0.0467834547162056, -0.022489823400974274, -0.02680552750825882, -0.05684855580329895, -0.057624347507953644, -0.06457210332155228, 0.16508877277374268, 0.0855376198887825, 0.09323881566524506, 0.07192085683345795, 0.07644344121217728, 0.1310092657804489, 0.07493574917316437, 0.10723888874053955, -0.07012511789798737, 0.06908540427684784, 0.06292902678251266, 0.008890035562217236, 0.013275434263050556, 0.02187371253967285, 0.004015033598989248, -0.02189398743212223, 0.040759600698947906, 0.031328726559877396, -0.015374910086393356, -0.13623681664466858, -0.019425969570875168, 0.018086744472384453, -0.008020554669201374, 0.13274599611759186, 0.004088410176336765, -0.051170557737350464, -0.20144832134246826, -0.28829410672187805, -0.2456425428390503, -0.28883081674575806, -0.2100815623998642, -0.27307814359664917, -0.3442838191986084, -0.3124038875102997, -0.25597506761550903, -0.2196824550628662, -0.2381865680217743, -0.11440049856901169, 0.011539459228515625, 0.030915509909391403, 0.011594641022384167, 0.018427450209856033, -0.01217256672680378, -0.018611837178468704, -0.023419462144374847, -0.04742932319641113, 0.04363170266151428, 0.053661786019802094, 0.047299087047576904, 0.023227954283356667, 0.08405115455389023, -0.001077258842997253, -0.04447483643889427, 0.007941819727420807, -0.13349638879299164, -0.2071302980184555, -0.07639583945274353, -0.08332009613513947, -0.23300889134407043, -0.28223907947540283, -0.38079068064689636, -0.5589132308959961, -0.43075066804885864, -0.4072059690952301, -0.2975159287452698, -0.25327035784721375, 0.012545301578938961, 0.05019973963499069, 0.02919956110417843, -0.030057508498430252, -0.03571172431111336, 0.0032802987843751907, -0.04914532229304314, -0.06297390162944794, -0.015656664967536926, 0.035466279834508896, -0.08596966415643692, 0.03759278357028961, -0.06039668247103691, 0.09856875985860825, 0.03462470695376396, 0.12652438879013062, 0.04175849258899689, -0.1262768805027008, -0.051423948258161545, -0.05267577990889549, -0.00547504797577858, 0.016484685242176056, -0.13969504833221436, -0.07663078606128693, -0.24774546921253204, -0.2826787233352661, -0.21339760720729828, -0.16066187620162964, -0.05792827904224396, -0.06267839670181274, 0.008128833025693893, 0.023115409538149834, 0.0214938186109066, -0.016004882752895355, 0.025320714339613914, 0.020369358360767365, 0.016966842114925385, 0.008124646730720997, 0.054997216910123825, 0.08295848965644836, 0.06156134605407715, 0.0725114718079567, 0.14164383709430695, 0.10616187751293182, -0.02733193151652813, -0.022336287423968315, -0.07616429030895233, -0.05229354649782181, 0.09750282764434814, 0.032993655651807785, 0.17634263634681702, 0.03124876879155636, 0.04697616770863533, -0.13894908130168915, -0.16327255964279175, -0.16643813252449036, -0.1441487818956375, -0.08756564557552338, -0.04178131744265556, -0.02194974571466446, 0.014070401899516582, -0.004583271685987711, 0.022044138982892036, -0.052611175924539566, 0.11604541540145874, 0.017934681847691536, 0.11080271750688553, 0.10964179784059525, 0.062327660620212555, 0.015971776098012924, -0.01661260984838009, 0.03890526294708252, 0.010919369757175446, 0.05892409756779671, 0.032929837703704834, -0.0195023100823164, 0.060405831784009933, 0.027837373316287994, 0.08236607909202576, 0.014714304357767105, 0.03375820070505142, -0.021157419309020042, -0.09908126294612885, -0.08443991094827652, -0.18153241276741028, -0.11498699337244034, -0.032419923692941666, -0.01059802621603012, 0.03414393588900566, 0.008936730213463306, -0.0006187919061630964, -0.11660145968198776, -0.03804849088191986, -0.05086606740951538, 0.08149415254592896, 0.07967987656593323, 0.11628811806440353, 0.19026923179626465, 0.14277230203151703, 0.21003827452659607, 0.06481804698705673, 0.05429327115416527, -0.00019518149201758206, 0.08305905759334564, -0.012238127179443836, -0.020074086263775826, 0.04402195289731026, -0.0035268033389002085, -0.011769267730414867, -0.00490824319422245, -0.06387230008840561, -0.0755014643073082, -0.1652647703886032, -0.0049119084142148495, -0.00258891424164176, -0.011089187115430832, 0.002140784403309226, -0.004604628775268793, -0.060067471116781235, -0.16017521917819977, -0.04904690012335777, -0.22257527709007263, -0.09809190034866333, -0.029119858518242836, 0.10465550422668457, 0.10850577056407928, 0.08004472404718399, 0.2552627921104431, 0.18768098950386047, 0.025067992508411407, 0.02237539179623127, 0.01639847457408905, 0.14701122045516968, -0.007851597853004932, -0.005155978258699179, -0.05131979659199715, 0.017011992633342743, 0.018462158739566803, -0.11158357560634613, -0.1710018813610077, -0.24507242441177368, -0.2092268466949463, -0.049512580037117004, -0.0011256970465183258, -0.01644333265721798, -0.03203525021672249, -0.06233356520533562, -0.022287731990218163, -0.04976425692439079, -0.12847478687763214, -0.21783357858657837, -0.14990313351154327, -0.07352738827466965, -0.04249752685427666, -0.008179465308785439, 0.06343448907136917, 0.13429687917232513, 0.04030845686793327, 0.0675533264875412, 0.036411598324775696, 0.0007631781627424061, 0.18023119866847992, -0.000124128331663087, -0.03531545028090477, 0.10884491354227066, -0.03739483281970024, -0.05508161336183548, -0.07035374641418457, -0.2462303340435028, -0.1502409279346466, -0.01934298872947693, -0.03357581049203873, -0.01056954637169838, 0.034904323518276215, -0.028678467497229576, -0.019659919664263725, -0.04199046641588211, 0.08886619657278061, -0.0764027088880539, -0.1559329330921173, -0.17128728330135345, -0.10892624408006668, -0.1152079701423645, -0.08415055274963379, 0.03593883663415909, -0.06437710672616959, -0.031203266233205795, 0.09627606719732285, 0.06745149195194244, -0.043471600860357285, 0.08442127704620361, 0.007801175583153963, 0.06988949328660965, 0.02652016468346119, -0.045322079211473465, -0.03932381048798561, -0.04953492432832718, -0.013527262024581432, 0.01559281162917614, 0.00149070518091321, -0.03419695422053337, 0.061799030750989914, -0.010854481719434261, 0.0401219017803669, -0.012054701335728168, 0.06641361117362976, -0.0497797392308712, -0.05519482120871544, -0.10461320728063583, -0.15192073583602905, -0.11984845250844955, -0.13492438197135925, 0.009082963690161705, 0.01319966558367014, 0.004205452743917704, -0.024628421291708946, 0.05973948910832405, 0.08125804364681244, 0.0882117971777916, -0.020785247907042503, -0.00029206988983787596, 0.027538178488612175, -0.007019262760877609, -0.04521426931023598, -0.01357104629278183, 0.0005397663917392492, 0.025504836812615395, -0.00895584188401699, -0.024126658216118813, -0.006268841680139303, -0.009751605801284313, -0.04064676910638809, -0.05648601055145264, 0.0288650281727314, -0.10242697596549988, -0.01839234121143818, -0.030325235798954964, -0.03820830583572388, 0.03969717398285866, 0.00784131046384573, 0.07914429157972336, -0.09222032874822617, 0.056384939700365067, 0.08144059032201767, 0.03620842471718788, 0.0017628718633204699, 0.10377389192581177, -0.025330372154712677, 0.027072209864854813, 0.11407981812953949, 0.00601528724655509, -0.06496256589889526, 0.021627426147460938, -0.018976984545588493, -0.01558221597224474, -0.012470990419387817, -0.005982890259474516, 0.010850241407752037, -0.03017713874578476, 0.020785853266716003, 0.02283770777285099, -0.09454803913831711, 0.01907363161444664, 0.04829041287302971, 0.0420839786529541, -0.024899214506149292, -0.03607426956295967, -0.04153306409716606, -0.007177470717579126, 0.053681451827287674, 0.09620941430330276, 0.050830963999032974, 0.0720040574669838, 0.023318547755479813, -0.01087581180036068, 0.08147963881492615, -0.040491607040166855, 0.0641719400882721, -0.001681224792264402, 0.005003166850656271, 0.04718565195798874, 0.026242410764098167, 0.013491032645106316, 0.0022654300555586815, 0.032781098037958145, -0.02594611421227455, -0.049873314797878265, 0.029761210083961487, -0.0481690876185894, -0.04496480152010918, 0.052334997802972794, -0.005359549541026354, -0.026020068675279617, -0.030084460973739624, 0.01189399790018797, -0.020615527406334877, -0.03257865458726883, -0.0312761589884758, -0.004633651580661535, 0.014839417301118374, 0.0008948862669058144, 0.12036963552236557, 0.04514925181865692, -0.0036848848685622215, -0.012013955041766167, 0.01976136676967144, 0.08645004779100418, 0.042488809674978256, 0.06565182656049728, -0.00013953351299278438, 0.033765967935323715, -0.0174858458340168, -0.020817182958126068, -0.015616245567798615, 0.07222852855920792, 0.08854976296424866, 0.1281493753194809, 0.12289680540561676, 0.024678034707903862, 0.06196589767932892, -0.0012484316248446703, 0.051084887236356735, 0.0780443400144577, -0.0212455652654171, 0.025555407628417015, 0.03951606526970863, 0.07070203125476837, 0.05108977481722832, 0.029667243361473083, 0.053039319813251495, -0.03446848690509796, 0.043624524027109146, 0.03840789198875427, 0.0010590667370706797, 0.05690508335828781, 0.013468204066157341, 0.05435808375477791, 0.04365302994847298, 0.026007678359746933, -0.02941753715276718, 0.031084399670362473, -0.008048977702856064, 0.09292709827423096, 0.061841584742069244, 0.012510707601904869, 0.15413756668567657, 0.0961461290717125, -0.02236691117286682, 0.048870835453271866, 0.04817245900630951, 0.023692946881055832, -0.12506446242332458, -0.03329499438405037, 0.09187043458223343, -0.017721857875585556, 0.07067976146936417, 0.03157594054937363, 0.12134852260351181, 0.038907814770936966, 0.1266297549009323, 0.08415117114782333, 0.013201200403273106, 0.000821958645246923, 0.019509177654981613, -0.028490561991930008, -0.016021519899368286, -0.02729697898030281, -0.013274172320961952, -0.030913762748241425, 0.022776229307055473, -0.0007986450800672174, -0.024353452026844025, -0.05167477950453758, -0.013942603021860123, 0.01303107663989067, -0.05005862936377525, 0.004029100760817528, 0.0012997499434277415, 0.024480193853378296, 0.11240774393081665, 0.18461066484451294, 0.09056436270475388, 0.04382457211613655, 0.11225458979606628, 0.15148626267910004, 0.1821211874485016, 0.14079047739505768, 0.14548121392726898, 0.10074467211961746, 0.13700824975967407, 0.06593873351812363, 0.02367938682436943, -0.04316815361380577, -0.014636981301009655, -0.032384030520915985, -0.02147407829761505, -0.016060199588537216, 0.03429652377963066, -0.0110808489844203, 0.02091280184686184, -0.00813349150121212, 0.0033061769790947437, -0.0037332535721361637, -0.06074931472539902, -0.008338113315403461, 0.007307328749448061, 0.008438748307526112, 0.03436997905373573, 0.08595375716686249, 0.019292594864964485, 0.014065783470869064, 0.09481306374073029, 0.028689032420516014, -0.00780665734782815, -0.014055524952709675, 0.0036439099349081516, 0.009476958774030209, -0.020865142345428467, -0.0053132036700844765, -0.00371152488514781, 5.696378866559826e-05, 0.013215795159339905, -0.02125294879078865, -0.010289626196026802, -0.02766607701778412, 0.011744823306798935, -0.013743499293923378, 0.02780916728079319, 0.012286009266972542, 0.023476287722587585, -0.00946219265460968, -0.02525409311056137, -0.02890607714653015, 0.007693176623433828, 0.017153175547719002, -0.012073833495378494, -0.017526188865303993, 0.03311590105295181, -0.0011880557285621762, -0.015344774350523949, -0.016563408076763153, -0.021101394668221474, 0.026217591017484665, 0.02457401528954506, -0.008690985850989819, -0.03141613304615021, 0.03345130756497383, -0.0022050216794013977, 0.03397123143076897, -0.03346404433250427, -0.02431657537817955], [0.024751797318458557, 0.031624648720026016, 0.0026275552809238434, 0.0014535114169120789, 0.008110567927360535, 0.022448334842920303, -0.007061246782541275, -0.0160723514854908, 0.005370922386646271, 0.011520911008119583, 0.02308911457657814, 0.022897690534591675, 0.028484994545578957, 0.016992488875985146, 0.00900251418352127, -0.02077501080930233, 0.02657477930188179, -0.012386888265609741, 0.03448149189352989, 0.016976553946733475, 0.010966446250677109, 0.03328276053071022, 0.017980273813009262, 0.008544914424419403, -0.019489863887429237, 0.0083380825817585, -0.0038828961551189423, 0.023548681288957596, 0.007526829838752747, 0.01407599076628685, 0.0047301240265369415, -0.008026795461773872, -0.01560113113373518, -0.0005471997428685427, 0.006964832544326782, -0.02076909691095352, -0.02135372906923294, -0.0004915244644507766, 0.0064613609574735165, -0.009988472796976566, 0.0002398576179984957, 0.028529802337288857, -0.015042667277157307, 0.014623845927417278, 0.00020905115525238216, 0.014939782209694386, -0.0004004088987130672, 0.012221252545714378, -0.025205321609973907, -0.005097348242998123, 0.0007958041387610137, 0.0036259375046938658, 0.0333227775990963, 0.023465216159820557, -0.006463387981057167, 0.0028822235763072968, -0.01813402771949768, 0.007892217487096786, 0.0069992877542972565, 0.0018329235026612878, -0.007651613559573889, -0.013020014390349388, -0.03142863139510155, -0.0026642135344445705, -0.02126973867416382, -0.01802924834191799, -0.0509585402905941, 0.013902425765991211, 0.007618165574967861, -0.04846717044711113, -0.05497337132692337, -0.05467594787478447, 0.007455889135599136, 0.05563759431242943, 0.05126212537288666, 0.05201748386025429, -0.03345311060547829, 0.01887071318924427, -0.0009352360502816737, -0.028227712959051132, -0.046110428869724274, -0.012974976561963558, 0.025031201541423798, -0.030509473755955696, 0.017978370189666748, -0.025733310729265213, -0.03453643247485161, 0.003986273426562548, 0.009424935095012188, 0.010589526034891605, 0.005950560327619314, -0.01854037679731846, 0.009076818823814392, -0.042876966297626495, 0.08512108027935028, 0.038280174136161804, 0.04762586951255798, 0.020939156413078308, 0.01016119122505188, 0.06707575172185898, 0.010758143849670887, 0.0410088486969471, 0.12239493429660797, 0.04115719720721245, 0.1009112000465393, 0.01156508456915617, 0.023460375145077705, 0.0007581634563393891, -0.020032932981848717, 0.027354473248124123, 0.033296287059783936, 0.034805405884981155, -0.014242922887206078, 0.02890857681632042, 0.008222733624279499, 0.01318481657654047, 0.02525530755519867, 0.015718510374426842, -0.07410136610269547, 0.025695694610476494, 0.024289658293128014, 0.030362842604517937, 0.04155692458152771, 0.08180653303861618, 0.04867833852767944, -0.04606194421648979, 0.04427191615104675, 0.13545873761177063, 0.06134906783699989, 0.08956165611743927, 0.13636115193367004, -0.013695591129362583, -0.10722562670707703, 0.014184332452714443, -0.004332573153078556, 0.07727960497140884, 0.140913724899292, 0.07226885110139847, 0.04376710206270218, -0.018068166449666023, -0.013187311589717865, 0.017877247184515, 0.004545107949525118, 0.0007705785101279616, -0.007862049154937267, -0.04976224899291992, -0.04499431699514389, 0.028615018352866173, -0.039890825748443604, 0.027209166437387466, 0.07356499880552292, 0.14131061732769012, 0.11708520352840424, 0.14830338954925537, 0.11070030182600021, 0.019718511030077934, -0.009442945942282677, 0.10817372053861618, 0.12139517813920975, 0.05467751994729042, 0.14237286150455475, 0.04054562747478485, 0.06266593188047409, -0.04409647732973099, 0.09434898942708969, 0.12204255908727646, 0.022739991545677185, 0.019529281184077263, -0.01933937519788742, -0.005248313304036856, -0.012123772874474525, -0.006099444814026356, -0.07687712460756302, 0.0710766538977623, 0.0001533160830149427, -0.052049167454242706, 0.08370738476514816, 0.018362687900662422, -0.033729299902915955, 0.07428556680679321, 0.13240940868854523, 0.1494711935520172, 0.07227536290884018, 0.1888553500175476, 0.14578287303447723, 0.1400665044784546, 0.07139226794242859, 0.1334720104932785, 0.12872359156608582, 0.03641257435083389, 0.058920830488204956, 0.005473630968481302, 0.1987648606300354, 0.20636089146137238, 0.04447678476572037, 0.026683425530791283, -0.009636405855417252, 0.012045783922076225, -0.010171407833695412, -0.06269833445549011, -0.07037941366434097, 0.05213967710733414, 0.01277120504528284, -0.06500378251075745, 0.04760464280843735, 0.03164641186594963, 0.047567714005708694, 0.0687938779592514, 0.10999832302331924, 0.07154581695795059, 0.18950442969799042, 0.2030905783176422, 0.11699482053518295, 0.11477921158075333, 0.07912778854370117, -0.026482487097382545, -0.06282135844230652, -0.0028500049374997616, -0.08234518021345139, 0.06502186506986618, 0.20976804196834564, 0.21953581273555756, 0.08671611547470093, -0.006048687733709812, 0.010305117815732956, -0.016511032357811928, 0.05874720588326454, 0.01873062551021576, -0.1408298760652542, -0.039425645023584366, 0.01677701435983181, -0.07109403610229492, -0.012243809178471565, 0.10577602684497833, -0.024663347750902176, 0.06459903717041016, 0.10440608114004135, 0.09283086657524109, 0.03119243122637272, 0.03375053033232689, 0.17654387652873993, -0.09215124696493149, 0.00523658050224185, -0.06100323051214218, 0.03703738749027252, 0.018799854442477226, -0.0909462496638298, 0.10805906355381012, 0.3730185925960541, 0.277595192193985, 0.04955088719725609, -0.020686760544776917, 0.019505947828292847, -0.01865631714463234, -0.027053046971559525, -0.01997417025268078, -0.06242787837982178, -0.09561944752931595, 0.10271768271923065, -0.01931760646402836, 0.024866284802556038, -0.017473051324486732, 0.07407460361719131, 0.025859851390123367, -0.013649889267981052, -0.08426222950220108, -0.033517010509967804, -0.21385523676872253, -0.16262368857860565, -0.08235736191272736, -0.11836709827184677, -0.016114884987473488, 0.019469795748591423, -0.06294102221727371, -0.0521969199180603, 0.055393036454916, 0.42228561639785767, 0.2605903744697571, 0.0664198249578476, -0.0015563626075163484, -0.027480514720082283, -0.013067513704299927, -0.01236588042229414, -0.031055357307195663, 0.027225639671087265, -0.0008436745847575366, -0.01273429300636053, 0.03617546707391739, 0.01984378881752491, 0.04203011095523834, -0.09140327572822571, -0.06141991913318634, 0.019499577581882477, -0.02540511079132557, 0.020565126091241837, -0.16329023241996765, -0.10919606685638428, -0.0834701657295227, -0.07273899763822556, -0.08083072304725647, 0.04085640236735344, -0.050800155848264694, 0.06779240816831589, 0.15046952664852142, 0.33442172408103943, 0.3212016224861145, 0.10603421926498413, -0.03576798364520073, -0.0031842528842389584, -0.04129922389984131, -0.0333365797996521, -0.09360789507627487, -0.03629385679960251, -0.091717429459095, 0.06065865606069565, 0.03652594983577728, 0.11922086775302887, -0.007262417580932379, 0.002312585012987256, 0.05474909394979477, 0.08697046339511871, 0.19772101938724518, 0.17577044665813446, -0.045309629291296005, -0.059233807027339935, 0.1340610831975937, 0.008676917292177677, -0.015435260720551014, -0.08704407513141632, -0.04263262823224068, 0.1006416529417038, 0.17414666712284088, 0.2334592342376709, 0.2044360488653183, 0.09189479798078537, -0.026734014973044395, 0.012349745258688927, 0.020962441340088844, -0.04725019633769989, -0.08295955508947372, 0.026826616376638412, 0.05825924873352051, 0.09903613477945328, -0.09692506492137909, -0.07572503387928009, -0.06346902996301651, 0.06409353017807007, 0.044010892510414124, 0.018039293587207794, 0.11071758717298508, 0.11116591095924377, 0.011161908507347107, 0.015053756535053253, 0.08836916089057922, 0.09992329031229019, 0.13624946773052216, 0.1915537267923355, 0.02022588439285755, 0.06239697337150574, 0.11013680696487427, 0.0018677327316254377, 0.020385541021823883, 0.007870952598750591, -0.029630860313773155, 0.00879447441548109, 0.02231501042842865, -0.010600638575851917, -0.044361721724271774, 0.12561571598052979, 0.07328281551599503, 0.06804125010967255, 0.18895979225635529, -0.00821206159889698, -0.035390455275774, -0.006788878235965967, -0.07395751774311066, -0.013325481675565243, 0.13262394070625305, 0.2013722062110901, 0.08465564996004105, 0.04612595960497856, -0.043702270835638046, 0.020272860303521156, 0.13705980777740479, 0.11216101050376892, 0.1217966079711914, 0.083091601729393, -0.018241146579384804, -0.011347685009241104, -0.13730457425117493, -0.04621729254722595, -0.0051656002178788185, -0.01922861859202385, 0.032634809613227844, 0.032525040209293365, -0.00965349841862917, 0.0003702871617861092, 0.030251523479819298, 