{"layers": [784, 8, 8, 8, 10], "input": [0, 0, 0, 0, 0, 0, 0, 0, 0, 0, 0, 0, 0, 0, 0, 0, 0, 0, 0, 0, 0, 0, 0, 0, 0, 0, 0, 0, 0, 0, 0, 0, 0, 0, 0, 0, 0, 0, 0, 0, 0, 0, 0, 0, 0, 0, 0, 0, 0, 0, 0, 0, 0, 0, 0, 0, 0, 0, 0, 0, 0, 0, 0, 0, 0, 0, 0, 0, 0, 0, 0, 0, 0, 0, 0, 0, 0, 0, 0, 0, 0, 0, 0, 0, 0, 0, 0, 0, 0, 0, 0, 0, 0, 0, 0, 0, 0, 0, 0, 0, 0, 0, 0, 0, 0, 0, 0, 0, 0, 0, 0, 0, 0, 0, 0, 0, 0, 0, 0, 0, 0, 0, 0, 0, 0, 0, 0, 0, 0, 0, 0, 0, 0, 0, 0, 0, 0, 0, 0, 0, 0, 0, 0, 0, 0, 0, 0, 0, 0, 0, 0, 0, 3, 18, 18, 18, 126, 136, 175, 26, 166, 255, 247, 127, 0, 0, 0, 0, 0, 0, 0, 0, 0, 0, 0, 0, 30, 36, 94, 154, 170, 253, 253, 253, 253, 253, 225, 172, 253, 242, 195, 64, 0, 0, 0, 0, 0, 0, 0, 0, 0, 0, 0, 49, 238, 253, 253, 253, 253, 253, 253, 253, 253, 251, 93, 82, 82, 56, 39, 0, 0, 0, 0, 0, 0, 0, 0, 0, 0, 0, 0, 18, 219, 253, 253, 253, 253, 253, 198, 182, 247, 241, 0, 0, 0, 0, 0, 0, 0, 0, 0, 0, 0, 0, 0, 0, 0, 0, 0, 0, 80, 156, 107, 253, 253, 205, 11, 0, 43, 154, 0, 0, 0, 0, 0, 0, 0, 0, 0, 0, 0, 0, 0, 0, 0, 0, 0, 0, 0, 14, 1, 154, 253, 90, 0, 0, 0, 0, 0, 0, 0, 0, 0, 0, 0, 0, 0, 0, 0, 0, 0, 0, 0, 0, 0, 0, 0, 0, 0, 139, 253, 190, 2, 0, 0, 0, 0, 0, 0, 0, 0, 0, 0, 0, 0, 0, 0, 0, 0, 0, 0, 0, 0, 0, 0, 0, 0, 11, 190, 253, 70, 0, 0, 0, 0, 0, 0, 0, 0, 0, 0, 0, 0, 0, 0, 0, 0, 0, 0, 0, 0, 0, 0, 0, 0, 0, 35, 241, 225, 160, 108, 1, 0, 0, 0, 0, 0, 0, 0, 0, 0, 0, 0, 0, 0, 0, 0, 0, 0, 0, 0, 0, 0, 0, 0, 81, 240, 253, 253, 119, 25, 0, 0, 0, 0, 0, 0, 0, 0, 0, 0, 0, 0, 0, 0, 0, 0, 0, 0, 0, 0, 0, 0, 0, 45, 186, 253, 253, 150, 27, 0, 0, 0, 0, 0, 0, 0, 0, 0, 0, 0, 0, 0, 0, 0, 0, 0, 0, 0, 0, 0, 0, 0, 16, 93, 252, 253, 187, 0, 0, 0, 0, 0, 0, 0, 0, 0, 0, 0, 0, 0, 0, 0, 0, 0, 0, 0, 0, 0, 0, 0, 0, 0, 249, 253, 249, 64, 0, 0, 0, 0, 0, 0, 0, 0, 0, 0, 0, 0, 0, 0, 0, 0, 0, 0, 0, 0, 0, 46, 130, 183, 253, 253, 207, 2, 0, 0, 0, 0, 0, 0, 0, 0, 0, 0, 0, 0, 0, 0, 0, 0, 0, 0, 0, 39, 148, 229, 253, 253, 253, 250, 182, 0, 0, 0, 0, 0, 0, 0, 0, 0, 0, 0, 0, 0, 0, 0, 0, 0, 0, 24, 114, 221, 253, 253, 253, 253, 201, 78, 0, 0, 0, 0, 0, 0, 0, 0, 0, 0, 0, 0, 0, 0, 0, 0, 0, 23, 66, 213, 253, 253, 253, 253, 198, 81, 2, 0, 0, 0, 0, 0, 0, 0, 0, 0, 0, 0, 0, 0, 0, 0, 0, 18, 171, 219, 253, 253, 253, 253, 195, 80, 9, 0, 0, 0, 0, 0, 0, 0, 0, 0, 0, 0, 0, 0, 0, 0, 0, 55, 172, 226, 253, 253, 253, 253, 244, 133, 11, 0, 0, 0, 0, 0, 0, 0, 0, 0, 0, 0, 0, 0, 0, 0, 0, 0, 0, 136, 253, 253, 253, 212, 135, 132, 16, 0, 0, 0, 0, 0, 0, 0, 0, 0, 0, 0, 0, 0, 0, 0, 0, 0, 0, 0, 0, 0, 0, 0, 0, 0, 0, 0, 0, 0, 0, 0, 0, 0, 0, 0, 0, 0, 0, 0, 0, 0, 0, 0, 0, 0, 0, 0, 0, 0, 0, 0, 0, 0, 0, 0, 0, 0, 0, 0, 0, 0, 0, 0, 0, 0, 0, 0, 0, 0, 0, 0, 0, 0, 0, 0, 0, 0, 0, 0, 0, 0, 0, 0, 0, 0, 0, 0, 0, 0, 0, 0, 0, 0, 0, 0, 0, 0, 0, 0, 0], "label": 5, "weights": {"1": [[0.009743, 0.024391, 0.068816, -0.060287, -0.070815, -0.033064, -0.00072, -0.071235], [-0.054451, -0.06384, -0.076767, 0.027948, 0.00686, -0.031903, -0.039712, 0.010867], [0.007575, 0.006243, 0.042141, 0.083028, 0.042324, -0.07314, -0.023081, 0.00963], [0.032642, -0.079449, 0.048501, 0.040093, 0.077427, 0.063001, -0.071251, -0.023284], [0.010673, -0.065941, -0.065441, -0.00204, -0.012266, 0.051905, -0.067851, -0.034605], [-0.072518, -0.083199, -0.06489, 0.005618, 0.04305, -0.002756, 0.059652, 0.078983], [0.035387, -0.053638, 0.008471, 0.04851, 0.085038, -0.015408, 0.014737, 0.048004], [-0.03113, -0.036741, -0.002469, -0.077452, -0.017411, 0.019542, 0.069241, 0.00576], [-0.017995, -0.085002, -0.043327, 0.072436, -0.050478, -0.010697, -0.051782, -0.044868], [0.073331, 0.067536, -0.059798, -0.03727, 0.02262, -0.035569, -0.063484, 0.046822], [-0.085986, 0.077748, 0.017936, 0.056328, -0.065649, 0.064761, 0.07424, 0.077856], [0.050333, 0.013993, -0.079463, 0.057516, 0.029084, -0.049222, 0.058248, 0.080011], [0.074432, -0.072301, 0.083452, -0.001562, 0.044784, 0.013529, -0.075385, 0.064066], [-0.021522, -0.046807, -0.004405, -0.034832, 0.079828, 0.043829, 0.076608, -0.010768], [-0.006742, -0.009976, -0.062572, 0.01433, 0.047694, 0.072842, 0.020554, -0.029858], [-0.036519, 0.009724, -0.066517, -0.015172, -0.064453, -0.019735, -0.044606, -0.032332], [0.085271, -0.054961, 0.029333, -0.055535, 0.071314, 0.027657, -0.068155, -0.05944], [0.016546, -0.044053, 0.073186, -0.070964, -0.037015, 0.050077, -0.045267, -0.037929], [0.075401, -0.027704, 0.004679, 0.081768, 0.057161, 0.006268, -0.025939, -0.044755], [0.02328, -0.083474, -0.038312, -0.075587, -0.021632, 0.043411, -0.062371, 0.064331], [-0.052112, 0.057722, 0.057885, -0.034365, -0.084913, 0.032371, 0.058734, -0.03874], [-0.081607, 0.084106, 0.086375, 0.075993, -0.06003, 0.004717, 0.023407, 0.02283], [0.025367, -0.016035, -0.084278, 0.056574, -0.025304, -0.045074, 0.047083, 0.056232], [-0.009308, -0.081579, -0.075875, 0.07716, -0.052504, -0.074452, -0.062308, 0.013203], [-0.074274, 0.030454, 0.054831, 0.057619, 0.02189, 0.059319, -0.062414, 0.0248], [0.058808, -0.028984, -0.030367, -0.026381, 0.022508, -0.077506, -0.062156, -0.045067], [-0.062328, -0.080169, -0.04955, 0.073117, 0.079759, 0.022791, -0.086815, 0.024352], [-0.07346, -0.004123, 0.063546, 0.069789, 0.038765, 0.045815, -0.070575, -0.014392], [-0.079998, -0.052078, 0.079292, 0.037141, -0.008562, -0.044992, 0.084152, -0.019869], [0.00236, 0.079156, 0.083923, -0.045177, 0.016908, 0.005738, -0.010208, -0.001101], [0.025017, -0.005412, -0.071361, -0.049617, -0.0445, 0.002177, -0.025701, -0.009903], [-0.024428, 0.034491, 0.063489, 0.081092, -0.055948, 0.06366, -0.003329, -0.037097], [0.061562, 0.079004, 0.034943, 0.03249, -0.016294, 0.053524, -0.023412, -0.02828], [-0.053625, 0.017864, 0.071594, 0.07706, -0.050884, 0.021604, 0.038313, 0.037884], [0.030627, 0.044648, -0.049122, -0.004043, 0.038668, -0.0771, -0.017661, -0.047405], [-0.008738, 0.016678, -0.034654, 0.014977, -0.002444, 0.014713, 0.023482, -0.030373], [-0.027584, -0.060094, 0.020231, -0.057487, 0.108918, -0.051625, 0.055118, 0.019476], [0.019142, 0.061344, 0.051292, -0.00775, -0.030155, -0.035635, 0.042931, 0.084197], [-0.04942, 0.024299, 0.030373, -0.043443, 0.08604, -0.048422, -0.072157, 0.057357], [-0.129432, 0.008457, 0.07054, -0.009827, 0.083251, 0.011203, 0.061158, -0.019461], [-0.046631, -0.039876, -0.015174, 0.067088, 0.090033, 0.086602, 0.030461, 0.094929], [0.011723, -0.024226, 0.017537, -0.022933, -0.014165, -0.015875, -0.004955, 0.103595], [0.004655, -0.063289, 0.046355, -0.088252, -0.012784, 0.016983, 0.031673, -0.051768], [-0.018768, 0.044712, 0.136053, -0.028887, -0.000673, -0.066478, 0.002553, -0.058195], [-0.062242, 0.038025, 0.170536, 0.084378, 0.045797, -0.011167, -0.012305, -0.070318], [-0.089305, 0.023842, 0.091158, -0.018827, -0.00232, -0.070458, 0.035792, -0.019582], [0.052288, -0.009488, 0.000629, -0.071406, 0.090223, 0.079952, -0.031913, 0.00784], [-0.000177, -0.040672, 0.049082, 0.071027, -0.061172, 0.070998, 0.031908, 0.038307], [0.000478, -0.056797, 0.056968, -0.057838, -0.037725, -0.034029, -0.018361, 0.096772], [0.026639, 0.006146, -0.054233, -0.047423, 0.014378, -0.023759, 0.015019, -0.002366], [0.01696, -0.018455, -0.010308, -0.012449, -0.037094, 0.056955, 0.068857, -0.043764], [0.069691, 0.07344, 0.07358, -0.019995, 0.005229, -0.061311, 0.055068, -0.049678], [-0.048465, -0.024234, -0.002704, -0.011442, 0.000108, -0.05535, 0.065108, 0.068372], [-0.050436, 0.003856, 0.008095, 0.0434, 0.058376, -0.061572, -0.069663, 0.077251], [-0.070391, -0.011842, 0.054307, 0.014214, -0.029972, 0.033299, 0.002978, -0.049467], [0.059073, -0.058297, -0.062856, 0.04773, -0.035438, -0.018396, -0.004054, -0.007232], [0.079886, 0.000332, -0.074988, 0.066314, 0.070102, -0.035868, -0.05204, 0.015337], [-0.056483, -0.017076, -0.039075, -0.051533, -0.049396, -0.015804, 0.026656, 0.020457], [0.017254, 0.044113, -0.065161, 0.072446, -0.063519, 0.077632, -0.054031, 0.078598], [-0.06392, -0.077822, 0.064129, 0.012787, 0.008496, -0.041046, 0.044517, -0.07579], [0.066499, 0.051515, -0.05014, 0.08293, -0.086612, -0.033403, -0.075382, 0.014292], [0.020941, 0.014351, -0.009782, -0.000725, -0.003168, 0.072711, 0.012593, -0.019745], [-0.062784, -0.030008, -0.064077, -0.104214, 0.073659, -0.071486, -0.081123, 0.007117], [-0.051274, 0.005432, -0.003555, -0.020083, 0.098368, -0.072975, 0.040796, 0.095764], [-0.061629, -0.00868, -0.07054, -0.217036, 0.191221, -0.00294, -0.040146, 0.104445], [-0.049112, -0.073591, 0.106657, -0.229296, 0.143077, -0.078583, 0.071612, 0.011714], [-0.261924, 0.023869, 0.190127, -0.104745, 0.168133, 0.037487, -0.067959, 0.052735], [-0.142217, 0.078383, 0.104129, -0.187989, 0.137246, 0.026872, -0.029217, -0.001766], [-0.239728, 0.084647, 0.236921, -0.159862, 0.16095, 0.038476, -0.096645, 0.071599], [-0.169011, 0.085943, 0.075007, -0.183767, 0.024513, 0.108508, -0.009026, 0.074334], [-0.195936, 0.200094, 0.035611, -0.186308, 0.120216, 0.103191, -0.113771, 0.034687], [-0.205835, 0.106946, 0.250467, -0.205591, 0.123927, 0.032594, -0.055617, -0.08587], [-0.18099, 0.039656, 0.278256, -0.24903, 0.084016, 0.054189, -0.036871, -0.012121], [-0.124192, -0.145818, 0.116457, -0.160947, 0.118624, 0.250804, 0.05824, -0.036037], [-0.123395, -0.011501, 0.008849, -0.130919, -0.01326, 0.184646, 0.189692, 0.050114], [-0.263983, 0.042836, 0.036479, -0.20593, 0.04796, 0.081209, 0.100395, 0.138472], [-0.176306, -0.039857, 0.08016, -0.088488, 0.13522, -0.045173, 0.042275, -0.014091], [-0.09777, 0.06378, 0.022423, -0.103822, 0.080741, 0.085108, -0.114289, 0.047531], [-0.119791, 0.040365, 0.074317, -0.087332, -0.036076, 0.083766, -0.004898, 0.099296], [-0.071643, -0.015791, -0.040467, -0.079233, 0.075431, 0.055668, -0.012747, 0.058379], [-0.102467, -0.005819, 0.123603, 0.021689, -0.053054, 0.016381, -0.030339, -0.008547], [0.038501, 0.098499, 0.126191, 0.011697, -0.041516, -0.08034, -0.009104, 0.056556], [-0.072692, 0.070927, 0.078645, -0.018193, -0.004534, 0.066577, -0.007293, -0.04341], [-0.048328, 0.082549, -0.028291, -0.03632, 0.012841, 0.08021, -0.082602, 0.087009], [0.042308, -0.082801, -0.023847, 0.005663, -0.010795, -0.007916, 0.059699, -0.004984], [-0.048014, -0.054037, -0.072655, -0.072395, 0.03245, -0.084338, 0.017786, 0.055341], [0.074661, 0.071073, -0.07644, 0.029912, 0.028407, 0.009967, -0.015215, -0.01805], [-0.050635, 0.014313, 0.047678, -0.027302, -0.07147, 0.081615, -0.035951, 0.0181], [0.032995, -0.0715, -0.063275, 0.061544, 0.029609, 0.080719, -0.087213, -0.045207], [-0.018673, 0.031874, 0.013734, 0.007978, 0.128594, 0.006232, 0.024989, -0.096882], [-0.162461, -0.088794, -0.086097, -0.154982, 0.106883, 0.008478, -0.04591, 0.007854], [-0.202272, -0.115264, 0.033099, -0.183712, 0.09836, -0.031054, 0.088791, -0.075048], [-0.433999, 0.058164, 0.059055, -0.2895, 0.14834, -0.037878, 0.088754, 0.10425], [-0.413503, 0.143802, 0.113947, -0.356598, 0.216483, 0.086565, 0.152605, 0.06141], [-0.416368, 0.191673, 0.089273, -0.363311, 0.3045, 0.028124, 0.165673, -0.018459], [-0.485531, 0.186141, 0.088283, -0.27428, 0.310943, 0.095889, 0.197479, 0.027971], [-0.597483, 0.30517, 0.120921, -0.487779, -0.021384, 0.143898, 0.105103, -0.042444], [-0.797537, 0.325705, 0.154531, -0.549265, -0.164722, 0.106216, 0.158817, 0.056617], [-0.768625, 0.288012, -0.055768, -0.323319, 0.053897, 0.304052, 0.23827, 0.088904], [-0.362911, 0.231962, -0.024665, -0.459707, 0.018654, 0.246539, 0.155498, 0.086098], [-0.267726, 0.286293, 0.183772, -0.335223, 0.078326, 0.192771, 0.194336, 0.113495], [-0.170253, 0.287455, 0.061069, -0.29115, 0.110545, 0.093255, 0.061794, 4.8e-05], [-0.095833, 0.020095, 0.021288, -0.308535, 0.169476, 0.095016, 0.124668, 0.061491], [-0.094327, 0.049223, 0.05015, -0.291267, 0.19733, 0.177657, 0.128068, 0.142138], [-0.243263, -0.108091, -0.020236, -0.22676, 0.203068, 0.264104, 0.248857, -0.062325], [0.005933, -0.115448, 0.106613, -0.149473, 0.384405, 0.065397, 0.108411, -0.021402], [0.03371, -0.073202, -0.04501, -0.188412, 0.266945, -0.10142, 0.095871, 0.230423], [0.009686, -0.066583, -0.114767, 0.011708, 0.168923, 0.139511, 0.078849, 0.090422], [0.014597, -0.096398, -0.006284, 0.067592, 0.08269, -0.063304, 0.066199, 0.046763], [0.034281, 0.011385, 0.017984, 0.077615, 0.048977, -0.014097, -0.022103, -0.008892], [-0.035679, 0.006919, -0.04653, 0.009518, -0.018092, -0.05603, 0.060902, 0.063432], [-0.036331, -0.064788, 0.082383, 0.082067, 0.049401, -0.057506, -0.047307, -0.028275], [-0.066526, -0.008028, -0.045565, -0.052567, -0.036035, -0.07883, 0.0642, -0.028829], [0.066216, -0.057922, 0.074664, 0.01224, 0.002896, 0.084502, 0.076697, -0.059427], [0.017784, -0.02047, -0.019566, 0.08698, 0.069824, -0.015315, -0.085139, -0.053092], [0.003598, 0.037903, 0.002113, 0.051738, -0.034416, 0.038402, -0.063392, 0.0294], [-0.060346, 0.046308, -0.035706, -0.01449, -0.035278, -0.048587, -0.021033, 0.019937], [-0.034853, -0.115202, 0.184448, -0.187703, 0.133236, 0.021749, 0.0717, -0.21175], [-0.137522, -0.076714, 0.139639, -0.250422, 0.069559, 0.025329, -0.060867, -0.065355], [-0.037409, 0.122621, 0.117544, -0.242653, 0.073926, -0.111686, 0.12674, -0.067075], [-0.091488, 0.082893, 0.235682, -0.397902, 0.139047, 0.082755, 0.15093, -0.308633], [-0.121493, 0.284368, 0.129442, -0.327194, 0.057822, -0.077959, 0.170552, -0.331947], [-0.196458, 0.288451, 0.14032, -0.423986, 0.113585, 0.061879, 0.175477, -0.061002], [0.082436, 0.187967, -0.022589, -0.046976, 0.070611, 0.104722, 0.124213, 0.019723], [0.039576, 0.217282, 0.176969, -0.285432, 0.108325, 0.145673, 0.220993, -0.142864], [-0.116999, 0.146503, 0.204898, -0.16379, 0.07669, 0.172779, -0.113033, 0.057751], [0.121303, 0.128671, 0.203558, -0.343448, 0.074489, 0.062856, 0.051682, 0.103697], [-0.128405, 0.252232, 0.031202, -0.169859, 0.004509, 0.223291, 0.53557, -0.070864], [-0.009614, 0.10691, 0.248333, -0.349549, -0.093366, 0.14389, 0.329292, 0.076788], [-0.033777, 0.091944, 0.000406, -0.189157, 0.077078, 0.042593, 0.230608, 0.154196], [-0.090087, 0.15203, 0.143587, -0.289208, -0.157262, 0.204894, 0.335262, -0.085791], [-0.072848, 0.014176, 0.107552, -0.261959, -0.081277, 0.084699, 0.05539, 0.15333], [0.120381, 0.049937, 0.108666, -0.138484, -0.102315, -0.151365, -0.002292, 0.052079], [-0.093732, -0.181485, -0.029123, -0.164354, 0.013268, -0.006425, 0.210616, -0.123598], [0.013372, -0.129549, -0.21254, -0.184404, 0.180431, -0.12119, 0.112144, 0.00151], [0.079885, -0.114479, -0.283311, -0.096529, 0.188636, -0.008944, 0.084132, 0.055411], [0.154835, -0.081586, -0.269446, -0.048716, 0.017867, 0.022404, 0.084987, -0.078929], [0.04467, -0.077925, -0.13746, 0.084531, -0.007074, -0.064393, 0.023876, -0.114997], [-0.086204, -0.077066, -0.031606, -0.033916, 0.069316, 0.005935, 0.009547, -0.07426], [-0.059927, 0.053046, -0.066083, -0.01875, 0.056414, 0.085632, 0.070225, 0.043644], [-0.015844, 0.008224, 0.045307, -0.028843, -0.049407, 0.066318, -0.043005, 0.072997], [0.076658, 0.042782, -0.012149, -0.01469, 0.021762, 0.037135, -0.003815, 0.014408], [0.07225, 0.070057, 0.028742, 0.010294, 0.00805, 0.057995, -0.079976, -0.017608], [-0.032813, -0.003804, 0.11202, 0.019211, 0.066242, -0.010657, 0.041609, -0.111036], [-0.032027, -0.036723, 0.085292, -0.117541, 0.103633, -0.111468, 0.007875, -0.127355], [0.12812, -0.000625, 0.282126, -0.169926, -0.084753, -0.01125, 0.044286, -0.387876], [-0.030642, 0.023723, 0.014806, -0.2218, 0.063709, -0.047703, -0.02357, -0.345127], [0.104977, 0.111804, 0.111091, -0.354236, -0.020099, 0.02975, 0.125237, -0.108437], [0.073892, 0.157546, 0.046534, -0.300399, 0.097492, -0.059462, 0.150593, 0.027081], [0.12205, 0.380734, -0.086826, -0.419669, 0.109902, -0.098207, 0.332279, -0.041101], [-0.159002, 0.329567, -0.035968, -0.365446, 0.288352, 0.057799, 0.255604, -0.000482], [0.342685, 0.201201, -0.005796, -0.21458, 0.076633, 0.072638, 0.502954, 0.083977], [0.221819, 0.357587, 0.054264, -0.356184, 0.294034, 0.058212, 0.286488, 0.010068], [0.192468, 0.174763, 0.093212, 0.16181, 0.070123, 0.103802, 0.375428, 0.164311], [0.079434, 0.049605, 0.254692, 0.036881, 0.084617, 0.111127, 0.257071, 0.200665], [0.099688, 0.036764, 0.111256, -0.131829, 0.171909, 0.066392, 0.043092, -0.070116], [-0.184049, 0.256303, 0.139089, -0.108974, 0.042662, 0.137285, 0.132703, 0.03995], [-0.065773, 0.026688, 0.045634, -0.177557, 0.096711, 0.08861, 0.308916, 0.177405], [-0.051629, 0.1513, 0.083936, -0.067294, 0.199103, 0.044517, 0.178377, -0.012072], [-0.055947, 0.169464, 0.017797, -0.126585, 0.201949, 0.123608, 0.403745, 0.144111], [-0.016756, 0.05093, 0.155119, -0.145528, 0.072947, 0.171438, 0.313191, -0.007635], [-0.035336, 0.112339, 0.060775, -0.100596, -0.041822, 0.070522, 0.10073, 0.048661], [-0.16843, 0.077925, -0.133445, -0.07747, -0.122197, -0.066181, 0.129877, -0.122007], [-0.090617, -0.002162, -0.169929, -0.082342, -0.067163, -0.094604, 0.120943, -0.103575], [0.11642, -0.131618, -0.13376, -0.073477, 0.113936, 0.085387, 0.1138, -0.175003], [0.102393, -0.038029, 0.000121, -0.032568, 0.110211, 0.042686, 0.186696, -0.002391], [-0.022293, -0.10631, -0.015666, -0.023919, 0.088987, 0.135796, 0.144239, 0.12898], [0.031983, -0.050508, 0.021848, -0.067136, 0.045428, 0.093677, -0.039845, -0.070398], [-0.02301, 0.004907, 0.031379, -0.0401, -0.00167, -0.067265, -0.081705, 0.009224], [0.086223, -0.007376, 0.019023, -0.066151, -0.018853, -0.038569, 0.02711, 0.07544], [-0.075371, 0.072442, -0.065527, 0.021591, 0.059482, 0.105067, 0.036581, -0.085869], [-0.022378, 0.013297, 0.046632, 0.086624, 0.066549, 0.090919, 0.014347, -0.088447], [0.008955, 0.059629, 0.174357, -0.06096, 0.124546, 0.089648, 0.011392, -0.106624], [0.105182, 0.027554, -0.065548, -0.007437, 0.034404, 0.146706, 0.124343, -0.227943], [0.051143, 0.203207, 0.024196, -0.054028, -0.046087, -0.1367, 0.009072, -0.43936], [0.004046, 0.252238, -0.118555, -0.35609, 0.099094, -0.0124, 0.083011, 7.5e-05], [0.187766, 0.162704, 0.00501, -0.196884, 0.128514, 0.036038, 0.371215, -0.225797], [0.240397, -0.033868, 0.063706, -0.122443, 0.156738, -0.084273, 0.364564, -0.114162], [0.094225, 0.305787, 0.106759, -0.050684, -0.114099, -0.011473, 0.178948, -0.127815], [0.092556, 0.098406, -0.062113, -0.218564, -0.084838, -0.033702, 0.169098, -0.145417], [0.078952, 0.060694, 0.020155, -0.217164, -0.150255, 0.014072, 0.422673, 0.024398], [0.251871, 0.334978, 0.013747, -0.308193, -0.077774, 0.175605, 0.194602, -0.120549], [0.007463, 0.136894, -0.098648, -0.090026, -0.129852, -0.080151, 0.320164, 0.010443], [0.255141, 0.191788, 0.056495, -0.306382, 0.153418, -0.080723, 0.431249, -0.010198], [0.148941, 0.185635, -0.053723, -0.092972, -0.022765, -0.061269, 0.385206, -0.127926], [0.247231, 0.166164, -0.064158, 0.016007, 0.104833, 0.011374, 0.456651, 0.071752], [0.121645, 0.129263, 0.060701, -0.128318, -0.253261, -0.005444, 0.115179, -0.247456], [0.105859, 0.048187, -0.234855, -0.05053, -0.093157, 0.010492, 0.256968, 0.230475], [0.153141, -0.022427, -0.099258, -0.114352, -0.053113, 0.016548, 0.064315, -0.025183], [0.10823, 0.134804, -0.128516, 0.091731, -0.01676, -0.235416, 0.106173, 0.000883], [-0.126117, -0.004351, -0.202532, -0.150013, 0.070674, 0.093711, 0.063466, -0.032096], [0.138187, -0.191112, -0.124209, -0.172261, 0.073591, 0.163178, 0.099262, 0.102836], [-0.040973, -0.256286, -0.222456, -0.206629, 0.031531, 0.382601, 0.045848, -0.030146], [0.196585, -0.214813, -0.107226, -0.131602, 0.045159, 0.392117, 0.105735, 0.018271], [0.020261, -0.147881, 0.008171, -0.096841, 0.086493, 0.098441, 0.02073, -0.078357], [-0.010158, -0.086111, 0.012547, 0.06726, -0.016036, 0.017826, -0.043633, -0.092388], [-0.044823, -0.080551, -0.012511, -0.065838, -0.06472, 0.01135, 0.025739, 0.05662], [-0.106258, -0.041701, 0.0417, -0.060576, 0.067366, -0.032705, 0.000128, -0.018262], [0.064665, 0.085803, -0.060882, 0.026493, 0.035564, -0.080979, 0.028163, -0.063583], [0.048729, 0.067312, 0.101033, 0.076638, -0.147104, 0.051888, 0.047817, -0.130034], [-0.05754, 0.12988, 0.336244, -0.07679, 0.08245, -0.079942, 0.001307, -0.148655], [-0.100843, 0.128359, -0.152881, -0.254815, 0.164259, 0.192032, -0.020569, -0.076761], [-0.026691, 0.357385, -0.022911, 0.095832, -0.086318, -0.041578, 0.106352, -0.329507], [-0.209265, 0.178491, -0.064681, 0.160549, -0.019383, -0.043472, 0.062808, -0.136427], [0.082145, 0.043811, 0.103171, -0.045313, 0.164852, -0.094474, 0.259893, 0.028044], [-0.077346, 0.062553, -0.068311, 0.017682, 0.119267, -0.048231, 0.211097, -0.025401], [0.052582, 0.111171, -0.110467, -0.085667, -0.166479, -0.036182, 0.3022, -0.020195], [-0.040883, 0.209018, -0.039546, -0.118296, 0.023817, -0.177025, 0.197564, -0.054524], [0.070887, 0.010916, 0.06853, -0.14632, -0.189479, 0.048092, 0.159329, -0.101569], [0.266284, 0.197202, -0.13379, -0.052146, 0.058356, -0.128956, 0.386918, -0.114086], [-0.022276, 0.259625, -0.029322, -0.117915, -0.139641, 0.041395, 0.299482, -0.160425], [0.326639, 0.006515, 0.054527, -0.126474, 0.010671, 0.10831, 0.586733, 0.049619], [0.162744, -0.028072, 0.00624, 0.156283, -0.0985, 0.029524, 0.157275, -0.038253], [0.210171, 0.039094, -0.095543, 0.243391, 0.152711, 0.177941, 0.112161, -0.068819], [0.042323, 0.067547, -0.139809, 0.122699, -0.009112, 0.046378, 0.236786, 0.218743], [0.024607, 0.183256, -0.13546, 0.162703, -0.013125, 0.15328, -0.220113, -0.056515], [0.095908, -0.10413, -0.129493, 0.213347, 0.018369, -0.02781, 0.066837, -0.263919], [-0.019015, -0.011437, -0.075671, 0.093096, -0.122085, 0.156859, 0.013845, 0.231185], [-0.05723, 0.088659, 0.068388, -0.024073, -0.034938, 0.093404, -0.13, -0.138228], [0.019811, 0.077945, -0.138378, -0.110393, -0.035808, 0.022846, -0.117279, -0.040314], [-0.120379, -0.072179, -0.385278, -0.134753, 0.227452, 0.243877, -0.099394, -0.062653], [0.099608, -0.285119, -0.248177, -0.124028, 0.039049, 0.379212, 0.019997, -0.00619], [0.1069, -0.108367, -0.039568, -0.055946, 0.108174, 0.093384, 0.137132, -0.111467], [-0.012993, -0.041345, 0.041816, -0.089918, 0.001289, 0.033811, 0.092279, -0.058391], [-0.064113, -0.067648, 0.042467, -0.028162, -0.00397, -0.026423, -0.036216, -0.029124], [0.056757, -0.00542, -0.011699, -0.01342, 0.054821, 0.004244, -0.053477, 0.005004], [0.063958, 0.02755, 0.033624, -0.025775, 0.063392, 0.030009, 0.011998, -0.044447], [0.070472, 0.020747, 0.023973, -0.011755, -0.008718, 0.00429, -0.003245, -0.083657], [0.044935, -0.001409, 0.392392, -0.008964, 0.066597, -0.087663, 0.068198, -0.239655], [0.086563, 0.044808, 0.096229, -0.143432, 0.086719, 0.034326, 0.088367, -0.068371], [0.244564, 0.1456, 0.096496, 0.10155, 0.046195, 0.095887, 0.006898, -0.112616], [0.041804, 0.08599, 0.080187, 0.021933, -0.032545, -0.094811, -0.174541, 0.140691], [0.209354, 0.028542, -0.002064, 0.286817, -0.071997, -0.049585, 0.186515, -0.045847], [0.235433, 0.169988, -0.076929, 0.053046, 0.10861, -0.058348, 0.12317, -0.033293], [-0.001515, 0.159836, 0.142331, 0.067593, 0.138267, 0.030896, 0.146993, -0.04956], [0.130402, -0.033918, 0.09327, 0.173177, 0.070563, -0.081293, 0.197785, -0.060271], [0.035278, 0.113922, 0.183943, 0.122618, -0.158339, 0.074178, 0.36362, -0.001398], [0.245097, 0.182841, 0.113835, 0.056022, 0.016811, 0.11877, 0.262148, 0.16522], [0.137092, 0.222806, 0.203221, 0.061042, -0.211294, 0.108384, 0.28358, 0.032547], [0.107744, 0.179929, -0.031739, 0.181939, -0.086112, 0.069097, 0.05913, -0.054919], [0.212626, 0.389884, -0.076237, 0.179688, -0.063969, 0.297988, 0.133383, 0.169454], [-0.143932, 0.168545, 0.07005, 0.000629, -0.130105, 0.034957, -0.160914, 0.012284], [0.192299, 0.106393, -0.181229, -0.009457, -0.118867, 0.084502, 0.021457, -0.139829], [-0.010082, -0.00454, 0.125992, 0.045897, -0.072482, 0.152083, 0.047676, -0.003828], [0.059581, 0.041722, -0.152916, 0.152682, -0.123592, 0.065142, -0.170273, 0.029903], [0.002861, 0.152581, 0.00664, -0.023938, -0.137723, 0.192259, -0.161906, -0.055267], [-0.008371, 0.011925, 0.130546, -0.089808, -0.150783, 0.139666, -0.063374, 0.061961], [-0.030291, -0.089522, -0.300012, 0.12678, -0.183499, -0.049445, -0.306998, 0.347949], [0.044567, -0.279692, -0.522309, -0.176739, 0.10647, 0.428308, 0.107701, 0.017343], [0.162659, -0.344515, -0.249316, -0.374318, 0.017382, 0.546451, 0.268624, -0.080482], [0.073745, -0.14654, 0.006188, -0.154725, 0.06892, 0.154258, 0.166353, 0.063153], [-0.030439, -0.05907, -0.025918, 0.052816, -0.048396, 0.028061, 0.132725, 0.06869], [0.082579, 0.001431, -0.06913, 0.066827, 0.084392, -0.054058, -0.05292, -0.045236], [-0.041312, -0.049993, -0.064447, 0.015068, -0.072085, -0.119284, -0.064207, -0.084421], [0.000863, 0.075738, 0.036517, 0.017618, 0.066193, -0.047795, 0.048786, -0.003474], [0.211349, -0.121432, 0.007297, 0.119391, 0.069451, -0.042398, 0.096789, -0.149425], [0.125734, -0.12955, 0.38029, 0.1194, 0.086987, 0.057783, 0.237541, -0.165001], [0.109765, 0.018787, 0.163505, 0.13705, -0.041874, -0.189064, -0.039354, -0.032309], [0.372102, -0.146748, 0.104972, 0.323474, 0.005431, 0.079512, 0.157214, 0.051728], [0.024092, -0.104449, 0.15127, 0.132052, -0.004938, 0.063361, 0.159848, 0.006562], [0.135466, -0.159867, 0.158626, 0.166947, -0.031022, 0.063961, -0.019694, 0.011753], [0.121503, -0.132671, 0.146489, 0.24136, 0.104537, -0.173732, 0.189783, 0.060318], [0.140961, -0.315482, -0.054919, 0.534406, 0.151603, -0.072132, 0.157137, 0.191333], [0.058379, -0.447008, -0.250463, 0.26069, -0.004683, -0.246851, 0.066653, 0.150883], [-0.019967, -0.412366, 0.010064, 0.400543, 0.27909, -0.104732, 0.192237, -0.100977], [0.089706, -0.251362, 0.098668, 0.483987, -0.020154, 0.139301, -0.000295, 0.242967], [0.137239, -0.240546, 0.177448, 0.434183, 0.062551, 0.002896, 0.078795, 0.112078], [0.077175, 0.051751, 0.097771, 0.030614, -0.069014, 0.054781, -0.058947, -0.212038], [-0.047262, 0.255643, -0.172731, 0.006734, -0.127144, 0.063441, -0.349276, -0.04019], [0.324961, 0.198944, -0.185549, 0.07672, -0.163746, -0.050106, 0.011581, -0.00552], [0.14526, 0.260545, -0.161543, -0.066376, -0.189935, -0.127337, -0.080557, -0.128449], [0.125135, 0.254327, -0.083421, -0.019544, -0.048382, 0.080542, -0.073374, 0.137968], [0.15457, 0.156934, 0.016125, 0.152593, 0.072455, 0.032606, -0.110344, 0.016634], [0.069511, -0.035339, -0.011698, -0.134247, -0.145973, 0.138981, -0.169406, -0.04231], [0.161683, -0.070799, -0.057916, 0.078233, -0.087057, 0.186462, -0.078014, -0.113889], [-0.09966, 0.141017, -0.049072, 0.14558, 0.044747, 0.092275, -0.011921, 0.052247], [-0.052555, -0.119405, -0.377328, -0.02704, -0.33485, 0.708135, 0.083442, 0.118347], [0.127552, -0.249469, -0.149131, -0.405239, -0.115012, 0.471394, 0.119588, -0.089727], [0.067955, -0.087648, 0.06931, -0.062474, -0.120564, 0.057578, 0.118343, -0.042182], [0.088748, -0.012922, 0.100486, 0.047484, -0.002152, -0.091272, -0.010072, -0.055703], [-0.003422, 0.054358, 0.027897, 0.068547, -0.062939, -0.046521, -0.015817, 0.023098], [-0.070002, 0.072361, -0.07024, 0.011723, 0.055097, -0.03903, -0.008125, -0.051919], [-0.007434, 0.050023, 0.065617, 0.097427, -0.084279, -0.078651, -0.055988, -0.052759], [0.131607, -0.103053, -0.049214, 0.201253, 0.032317, 0.121671, 0.077739, -0.246786], [0.179581, -0.343921, 0.093419, 0.015002, 0.004697, 0.028636, 0.104733, 0.010246], [-0.07879, -0.308198, 0.201734, 0.091577, -0.014144, -0.122467, -0.010429, 0.215084], [0.181487, -0.44522, 0.180198, 0.352127, -0.043874, -0.001884, 0.294347, 0.272417], [0.077051, -0.623976, -0.000468, 0.340765, 0.245277, -0.171019, 0.118247, 0.313086], [-0.015204, -0.697865, 0.120154, 0.527096, 0.316801, 0.092605, 0.178537, 0.292902], [0.054186, -0.633938, -0.051572, 0.535041, 0.230415, -0.009178, 0.176526, 0.296832], [0.094583, -0.391186, 0.072838, 0.364059, -0.129865, 0.106772, -0.13473, 0.182463], [-0.14667, -0.12378, -0.046707, 0.331508, -0.011209, 0.126072, -0.118248, 0.15977], [0.083018, -0.160065, -0.156402, 0.271415, -0.125317, 0.127821, -0.398091, 0.149028], [-0.239921, -0.293022, -0.179783, 0.439072, -0.222809, 0.085481, -0.716741, -0.10994], [-0.057692, -0.185119, 0.053105, 0.246126, -0.324012, 0.139209, -0.645375, 0.008876], [-0.121525, -0.126068, -0.158166, 0.051158, -0.21342, -0.190528, -0.456842, -0.047329], [0.061156, 0.220253, -0.127829, 0.064729, -0.376224, -0.176501, -0.122889, -0.10122], [-0.150086, 0.223909, 0.023197, 0.024582, 0.060166, -0.09275, -0.210401, -0.036179], [0.124106, 0.187008, 0.029674, 0.014968, 0.061316, -0.023357, 0.013764, 0.232491], [0.358339, 0.228494, 0.0753, -0.009509, 0.046604, -0.116893, -0.048505, 0.056001], [0.093364, 0.225075, -0.164138, 0.028428, 0.101726, 0.006361, 0.232309, 0.134265], [0.078318, 0.395569, -0.049127, 0.17194, -0.239247, 0.063285, 0.005566, 0.110884], [0.197345, 0.265549, 0.038996, 0.077267, 0.04243, 0.093385, 0.020898, -0.043506], [0.15925, 0.092178, -0.211834, 0.174739, -0.217162, 0.250814, 0.035549, 0.158141], [-0.094516, -0.215891, -0.29499, -0.192909, -0.332907, 0.408348, 0.037976, 0.30548], [0.272025, -0.064354, 0.012894, -0.300355, -0.424132, 0.26716, 0.123444, 0.098004], [0.092529, -0.121747, 0.072247, -0.087622, -0.085029, 0.145909, 0.062312, 0.107398], [0.081054, -0.074828, 0.048236, -0.041809, -0.071457, -0.007706, -0.017942, -0.029526], [0.088711, -0.011645, -0.032867, 0.037676, -0.03984, -0.016174, 0.006485, -0.0405], [-0.017565, 0.055672, -0.029432, 0.108992, 0.063319, -0.001983, 0.020009, -0.075766], [0.047075, -0.073512, -0.0057, 0.278378, -0.077638, -0.202346, 0.05245, 0.025243], [0.186506, -0.27018, -0.032382, 0.280897, -0.187335, -0.128608, -0.019918, -0.136241], [-0.050733, -0.547571, 0.014386, 0.084216, -0.175603, -0.004241, 0.05784, -0.025962], [0.093162, -0.64304, 0.05537, 0.097312, -0.00097, -0.151286, 0.006801, 0.158791], [0.052388, -0.680829, 0.07895, 0.245614, 0.025235, -0.145655, 0.013724, 0.22253], [0.290176, -0.4601, 0.057663, 0.313727, 0.052784, -0.131568, -0.155875, 0.226817], [0.157343, -0.328339, -0.051345, 0.083689, 0.136888, 0.030508, -0.151387, 0.304962], [0.067512, -0.148124, -0.037658, 0.177286, 0.322168, -0.135414, -0.094345, 0.088615], [0.091433, -0.191365, -0.26337, 0.014481, -0.038626, -0.216501, -0.240428, -0.016549], [0.097349, -0.173794, -0.025422, 0.168021, -0.108924, -0.07835, 0.022701, 0.024978], [0.085539, -0.208512, -0.211351, 0.145783, 0.00766, 0.002454, -0.14426, -0.086], [-0.059842, -0.085486, -0.098152, 0.185461, -0.240164, 0.217422, -0.191449, 0.146109], [0.254887, -0.107553, -0.041443, 0.093855, -0.143989, 0.215986, -0.23219, 0.03496], [0.340102, -0.237224, -0.204134, -0.047269, -0.304458, -0.009712, -0.110157, -0.278504], [0.111852, -0.098891, -0.167344, -0.241125, -0.117787, -0.084558, 0.003419, -0.083843], [0.219241, -0.018405, -0.164741, 0.003004, 0.035806, -0.056588, 0.217969, -0.342045], [0.169185, 0.109327, -0.187185, 0.207332, -0.006953, -0.019321, -0.046683, -0.174789], [-0.032609, 0.238005, 0.05561, -0.064541, 0.165828, -0.034787, 0.130725, 0.022201], [0.369848, 0.027368, 0.144775, 0.087713, 0.023746, -0.317771, -0.19803, 0.04321], [-0.055351, 0.196448, -0.029445, 0.139045, 0.098063, -0.127238, -0.229074, 0.308736], [0.174491, 0.264367, 0.095477, 0.02824, 0.080216, -0.338925, -0.144201, 0.260385], [0.097502, 0.216665, 0.04125, 0.01528, -0.106577, -0.083111, -0.073845, 0.444642], [0.123967, -0.081066, 0.043533, -0.167449, -0.357138, -0.037259, 0.099077, 0.751687], [0.112663, -0.03507, 0.01309, -0.260359, -0.201762, 0.045921, 0.062592, 0.292056], [-0.016565, -0.072658, -0.083108, 0.048807, -0.069245, 0.116458, 0.129013, 0.105909], [0.035413, -0.07959, 0.089901, -0.011945, 0.015151, 0.08204, 0.005961, -0.000345], [0.070605, 0.028287, 0.01041, -0.057501, 0.067369, 0.018723, -0.076679, -0.06858], [0.013766, -0.029972, 0.034272, 0.05831, 0.022504, -0.085843, -0.033212, 0.053856], [0.015887, -0.066109, -0.043591, 0.17732, -0.00423, -0.113851, -0.07883, -0.015881], [0.063227, -0.180053, -0.095492, 0.181685, -0.166394, -0.133231, -0.107416, -0.022534], [0.027512, -0.561089, -0.204848, 0.060039, -0.429575, -0.071509, 0.041209, 0.131274], [0.05406, -0.502041, -0.231919, 0.150822, -0.177936, 0.006175, 0.060798, -0.044983], [-0.063882, -0.371163, -0.339359, 0.146262, -0.120392, -0.138216, -0.188555, 0.186097], [-0.050668, -0.222401, -0.187207, 0.165425, -0.102597, -0.073155, -0.198374, -0.135948], [-0.19934, -0.023161, -0.20181, 0.229784, -0.112759, -0.076452, -0.072482, -0.250978], [-0.044739, 0.012092, -0.057156, -0.054869, -0.166664, -0.086723, -0.053477, -0.016629], [-0.06777, -0.005311, -0.167778, -0.038139, -0.025181, 0.141989, -0.040625, -0.040805], [-0.12925, 0.057791, -0.40006, -0.089511, 0.197304, -0.057278, -0.086541, -0.100877], [-0.064863, 0.240977, -0.113988, -0.144426, 0.038303, 0.194058, -0.264914, 0.002717], [-0.004914, 0.108591, -0.145847, -0.165307, 0.122732, 0.365689, -0.200006, 0.125098], [0.103139, -0.036899, 0.40968, -0.179056, -0.071012, 0.255535, -0.071748, 0.033579], [0.154696, -0.21209, 0.041778, -0.156758, -0.056888, -0.007832, -0.038731, -0.119357], [0.034823, -0.152982, 0.029026, 0.057648, 0.013745, -0.182556, 0.048904, -0.239984], [0.219879, -0.033485, 0.050908, 0.062669, 0.018863, -0.062645, 0.09441, 0.159732], [0.061479, -0.059495, -0.007481, 0.106951, 0.02269, -0.035608, 0.010638, -0.123275], [0.279766, 0.019868, 0.046539, 0.152233, 0.151484, -0.149928, 0.119046, -0.025609], [0.0556, -0.104581, -0.027591, 0.205436, 0.123662, 0.108158, 0.08086, 0.023829], [0.108905, -0.03069, 0.040853, -0.122017, 0.080534, -0.114482, 0.027326, 0.218595], [0.156093, 0.115829, -0.13701, 0.228266, 0.051742, -0.379379, -0.254828, 0.315077], [0.202274, 0.054124, 0.029499, 0.064602, 0.11307, -0.255193, -0.077393, 0.702427], [-0.087259, 0.145761, 0.236711, -0.053828, 0.025881, -0.176894, -0.069979, 0.671975], [0.005455, -0.039208, 0.225546, -0.056306, -0.092128, -0.149177, -0.033408, 0.178739], [0.138886, 0.016687, 0.136152, 0.109031, -0.120487, -0.060938, 0.093249, 0.041311], [0.046515, 0.077349, 0.098152, 0.105227, -0.08636, -0.033849, -0.074782, -0.004654], [-0.082324, -0.058053, 0.055663, 0.001772, -0.036328, -0.077256, -0.030125, -0.030959], [0.065693, 0.017483, -0.061984, 0.092037, -0.051607, -0.060224, 0.072187, 0.056057], [0.073105, -0.001863, 0.056622, 0.202099, 0.043798, -0.078266, -0.035234, 0.071777], [-0.065987, -0.172825, -0.163965, 0.087028, -0.155241, 0.006166, 0.073196, 0.092188], [0.169089, -0.323685, -0.276721, 0.12014, -0.151, -0.153328, -0.191365, -0.186989], [-0.098474, -0.181852, -0.467047, 0.169549, -0.172481, -0.124914, -0.232361, -0.292989], [-0.069842, -0.027124, -0.708248, 0.071237, 0.050599, -0.084879, -0.33871, -0.087828], [-0.043514, 0.207565, -0.805831, -0.152278, -0.092982, 0.008306, 0.102557, 0.029349], [0.035457, -0.040467, -0.459504, -0.382678, -0.105529, 0.064648, -0.218339, -0.09505], [0.034317, 0.142361, -0.264727, -0.250556, 0.023647, -0.041008, -0.007871, 0.102343], [-0.100366, 0.132943, -0.441841, -0.229024, 0.093351, -0.013295, -0.048655, -0.271317], [-0.078525, 0.067479, -0.233386, -0.138168, 0.016778, 0.042615, -0.177569, -0.041043], [-0.029322, 0.089474, -0.102253, -0.109884, 0.060276, 0.415378, -0.290843, 0.142424], [0.061278, 0.046576, 0.236583, -0.053737, 0.041472, 0.256411, 0.038371, 0.094228], [0.124013, -0.149654, 0.239413, -0.019651, 0.000516, 0.146432, -0.119719, -0.004975], [0.198207, -0.24316, 0.113584, -0.22522, 0.072879, 0.014026, -0.19393, -0.000474], [0.162137, -0.197628, 0.128882, -0.195755, 0.123128, -0.037895, 0.096241, -0.195044], [0.116686, -0.061725, 0.059571, -0.038307, 0.09182, -0.208826, -0.042767, -0.123521], [0.081409, -0.039097, 0.031108, 0.025721, 0.190311, 0.006014, 0.25947, -0.001519], [0.179725, 0.063982, -0.042489, -0.033834, 0.22304, 0.158603, -0.008819, 0.040706], [0.232337, -0.06816, 0.154818, 0.013157, 0.091659, -0.092435, 0.161441, -0.145264], [0.027875, -0.073185, -0.081206, 0.003966, 0.192473, -0.235065, -0.141027, -0.031767], [0.073442, -0.051494, -0.229568, 0.201535, -0.036378, -0.226025, -0.128971, 0.240224], [-0.360853, -0.183285, 0.117817, 0.030438, 0.314628, -0.149312, 0.023077, 0.425969], [-0.325698, 0.089519, 0.117308, 0.235813, 0.073796, -0.263076, -0.139903, 0.284562], [0.032335, 0.015402, 0.120473, 0.123, -0.096047, -0.103786, -0.122871, 0.039854], [0.063968, 0.058962, 0.078817, 0.04755, -0.103013, -0.070821, 0.036589, -0.027653], [-0.077253, -0.043955, 0.146332, -0.049236, -0.046248, 0.050142, -0.027045, 0.066464], [-0.076622, -0.057569, 0.027911, 0.012941, 0.083463, -0.077864, 0.066842, -0.032176], [-0.071164, 0.029638, -0.00015, -0.020303, 0.035342, -0.039047, -0.07371, -0.048411], [-0.060145, -0.073385, 0.002697, 0.06551, 0.024765, -0.080412, 0.035709, 0.06804], [0.100968, -0.051579, -0.212059, -0.037664, -0.013078, -0.212592, -0.111462, -6e-06], [0.305551, -0.084949, -0.372467, -0.24624, -0.005323, -0.230839, -0.097461, -0.05096], [-0.26468, 0.17676, -0.559774, -0.121777, 0.168766, -0.047252, -0.138944, -0.064719], [0.006327, 0.292161, -0.45881, -0.15508, -0.040871, -0.075949, -0.115365, 0.151236], [0.004988, 0.468093, -0.188961, -0.324008, 0.099942, -0.143388, -0.055376, -0.07964], [-0.14145, 0.109559, -0.358184, -0.094319, -0.0443, -0.002812, -0.029212, -0.17542], [-0.123774, 0.114404, -0.2397, -0.15272, -0.035759, 0.057618, -0.261999, -0.077503], [-0.118454, 0.027298, -0.182745, 0.031478, 0.083938, 0.051893, -0.025061, 0.074001], [-0.043385, 0.090767, 0.134822, -0.123831, 0.217993, -0.013925, -0.159099, 0.165081], [0.065957, 0.022578, 0.109986, 0.032843, 0.131324, 0.174581, 0.046839, 0.092864], [0.19119, 0.050911, 0.221237, -0.051117, 0.19186, 0.182282, 0.002566, 0.323143], [0.119314, -0.154465, 0.457589, -0.150888, 0.137313, 0.333487, 0.045033, -0.040287], [0.053893, -0.104645, -0.044533, 0.094602, 0.008046, 0.063886, -0.144953, -0.035315], [0.043117, -0.132953, 0.121544, -0.200938, 0.1352, -0.087564, 0.060169, -0.086926], [0.194271, -0.081091, -0.119476, 0.078421, 0.162332, 0.025318, -0.107591, -0.089642], [0.078351, -0.011108, 0.137188, -0.016021, 0.125913, -0.096506, -0.036021, -0.165106], [0.213206, 0.066985, 0.057004, -0.045406, 0.034268, -0.316708, -0.129016, -0.092663], [0.096505, 0.069641, -0.174699, 0.04071, -0.023995, -0.168726, -0.034059, 0.029807], [-0.121504, -0.075174, 0.136957, -0.115647, 0.034607, -0.059096, 0.065626, -0.015916], [-0.060098, -0.200653, -0.080843, 0.149272, 0.027545, -0.067094, -0.043408, -0.111933], [-0.266206, -0.11954, -0.068294, 0.414987, 0.11774, -0.018796, -0.068403, -0.095825], [-0.287658, -0.10706, -0.001251, 0.241681, 0.050704, -0.063216, -0.131806, 0.055541], [0.103865, -0.030728, 0.122381, 0.137958, 0.097918, -0.148657, -0.09427, 0.029522], [-0.135931, 0.195209, 0.184774, 0.11422, -0.099835, -0.151579, 0.069523, 0.008523], [-0.004291, 0.011721, 0.082831, -0.003583, 0.050301, -0.038506, -0.056889, -0.025539], [0.028081, 0.065168, -0.059976, -0.070202, 0.069598, 0.045456, 0.085222, -0.050907], [0.066724, 0.036526, -0.040555, 0.075068, 0.08141, 0.05572, 0.014405, 0.014785], [0.057712, -0.09762, 0.018794, 0.082601, 0.001616, 0.068492, 0.055022, 0.010181], [0.038254, -0.217888, -0.036997, -0.246751, 0.190498, -0.03942, -0.129621, -0.028058], [0.187199, 0.102238, -0.354166, -0.300001, -0.016352, -0.160858, -0.162541, 0.031372], [0.018287, 0.499612, -0.166695, -0.125002, -0.131677, -0.055756, -0.114845, 0.152612], [-0.021947, 0.024205, 0.054913, -0.366029, -0.239842, -0.203243, -0.151683, 0.16243], [-0.106363, 0.176779, -0.00989, -0.158796, -0.057447, -0.167556, 0.08151, 0.1733], [0.103739, -0.103449, 0.12955, -0.05104, 0.011875, -0.154153, -0.190255, 0.206611], [-0.116651, 0.054183, 0.020156, -0.138811, 0.146748, 0.124274, -0.006224, -0.078068], [0.01919, 0.033076, -0.084772, 0.079949, 0.203823, 0.08583, 0.014735, -0.024947], [0.05133, -0.039177, 0.163988, 0.043201, 0.186507, 0.117378, -0.059598, 0.037169], [0.046565, -0.110322, 0.19369, 0.194129, 0.078602, 0.339117, -0.059995, 0.193327], [0.082303, 0.050584, 0.34294, 0.017092, 0.156453, 0.182827, -0.24643, 0.189642], [0.07705, -0.360328, 0.386053, -0.209632, 0.045431, 0.121397, -0.119686, 0.061875], [0.112499, -0.006354, -0.003104, -0.002412, 0.152146, -0.203518, 0.045255, -0.164245], [0.074683, -0.112611, 0.02333, -0.250256, -0.028039, -0.088097, 0.099693, -0.006678], [0.209493, 0.084204, -0.069865, 0.130749, 0.340943, -0.245058, -0.126847, 0.000479], [-0.020837, 0.06514, -0.082968, -0.03707, -0.077952, -0.072973, -0.10141, 0.12418], [0.046202, -0.164367, -0.060816, 0.001152, 0.08141, -0.147532, -0.063647, -0.2295], [-0.129648, -0.239896, -0.196739, 0.250704, 0.006998, 0.131603, -0.154808, -0.165366], [0.008924, -0.028138, -0.052664, 0.03889, 0.218583, -0.022793, 0.011691, -0.250418], [0.03534, -0.342264, -0.106965, 0.140479, 0.397743, -0.092759, 0.081374, -0.317899], [-0.21873, 0.10101, -0.284477, -0.040638, 0.16946, 0.28203, 0.116915, -0.372557], [-0.397762, 0.065999, 0.05948, 0.066971, 0.084265, 0.138723, -0.199843, -0.112449], [-0.259836, 0.03489, 0.206628, -0.091968, 0.110921, -0.156202, -0.143196, 0.044835], [-0.054303, 0.089071, 0.098366, 0.039605, 0.051035, -0.056955, -0.071031, -0.104114], [0.048052, 0.025749, 0.034948, -0.008051, 0.041045, -0.088678, 0.003627, 0.022894], [-0.037849, -0.043165, 0.075484, -0.079932, 0.010625, -0.013993, -0.053111, -0.044924], [-0.01065, 0.001613, 0.087264, 0.079669, 0.014796, -0.079108, 0.009158, -0.089702], [-0.132745, -0.029594, 0.112434, 0.068753, -0.009221, 0.081472, -0.026368, 0.053091], [-0.048154, -0.1487, 0.145605, -0.218478, 0.140947, -0.015756, -0.005139, 0.027143], [-0.025533, 0.074921, -0.057829, -0.187973, -0.101633, -0.061204, -0.004684, 0.022519], [0.062236, 0.180963, -0.044374, -0.258662, -0.198194, -0.065281, -0.260013, 0.234778], [0.079455, 0.074872, 0.183766, -0.13564, -0.013397, -0.242872, -0.184723, 0.066576], [0.053273, 0.125134, 0.149973, 0.127942, 0.183178, -0.298709, -0.067084, 0.107465], [0.108114, 0.029423, -0.220964, 0.297551, 0.129197, -0.037567, -0.129821, 0.337512], [-0.158989, 0.20306, 0.126266, -0.001362, 0.03436, -0.267372, 0.055084, 0.285004], [0.071883, -0.045878, 0.012382, 0.063763, 0.194843, -0.082175, 0.161086, 0.095688], [-0.010349, 0.017038, 0.176981, -0.048073, 0.290996, 0.222201, 0.067734, 0.106724], [0.19624, -0.022637, 0.230457, -0.047555, 0.26206, 0.385583, 0.199943, 0.046183], [0.144735, -0.037636, 0.394453, -0.080758, 0.131557, 0.167411, -0.054624, 0.114927], [-0.096348, -0.148532, 0.340329, -0.30443, 0.089801, 0.009376, -0.061604, 0.081209], [-0.07357, -0.115927, -0.018432, 0.075971, 0.298551, -0.189101, -0.056318, -0.083628], [0.142863, 0.02803, 0.11171, -0.051422, 0.23888, -0.072588, -0.083037, -0.013186], [0.119662, 0.073683, -0.080561, -0.015406, 0.217422, -0.076234, 0.029068, -0.107279], [0.061395, 0.048878, 0.039456, -0.08336, 0.172134, -0.001201, 0.044057, -0.209689], [-0.198981, 0.044543, -0.075269, 0.141377, 0.228782, -0.040844, 0.057367, -0.161988], [-0.068892, 0.077341, -0.273402, 0.319097, 0.202399, -0.045892, -0.151759, -0.169649], [-0.271437, 0.292071, 0.178097, 0.364961, 0.277607, 0.179005, 0.066108, -0.044711], [0.078283, 0.005332, 0.152536, 0.033445, 0.281033, -0.022452, 0.059427, 0.028883], [0.085817, -0.011438, 0.051942, -0.131812, 0.183403, 0.130443, -0.072321, 0.038839], [-0.285312, -0.01344, 0.276537, 0.138287, 0.092187, 0.04281, -0.191548, -0.121395], [-0.203865, 0.175778, 0.492588, 0.084773, 0.158552, -0.353795, -0.259508, 0.108573], [-0.096493, 0.04665, 0.124902, 0.128501, -0.02036, -0.110659, -0.054436, -0.021481], [-0.072973, 0.113314, 0.019242, 0.04254, -0.061786, -0.003818, -0.029597, 0.013024], [0.038392, -0.017673, -0.043745, -0.028614, 0.060978, 0.077552, 0.020522, 0.02433], [-0.049997, 0.040621, 0.069603, -0.070384, -0.009256, -0.056486, -0.025987, -0.051739], [-0.072324, 0.037187, 0.140337, -0.006984, 0.003966, 0.077277, 0.04889, 0.051865], [-0.084063, -0.115799, 0.163476, -0.312269, 0.031634, 0.176079, 0.088576, -0.147604], [-0.083985, 0.172218, 0.11016, -0.076666, -0.074208, 0.126539, -0.119963, -0.058499], [-0.074153, 0.19673, -0.100729, -0.079379, -0.308108, 0.142845, -0.306801, 0.177419], [-0.045226, 0.096003, 0.021928, -0.03453, -0.147072, 0.037233, -0.254733, 0.084546], [-0.00288, 0.103631, -0.064161, -0.038296, 0.034957, -0.069585, -0.154423, 0.124012], [0.238348, 0.158425, 0.045288, 0.121422, 0.26039, -0.204981, -0.156569, 0.131228], [0.115023, 0.064259, 0.085387, 0.205912, 0.113467, -0.230732, -0.121838, 0.489947], [-0.00434, 0.011351, 0.006058, 0.138947, 0.059201, -0.318622, -0.213775, 0.421494], [0.049135, 0.048484, 0.070014, -0.066946, 0.277476, -0.314828, 0.109315, 0.422897], [0.231692, -0.06082, 0.267785, 0.017256, -0.006275, -0.217034, 0.219583, 0.27451], [0.226778, -0.259092, 0.393268, -0.010317, 0.231179, -0.212956, -0.054775, 0.168854], [-0.02273, -0.02699, 0.1031, -0.029167, 0.095397, -0.101612, -0.064594, -0.003894], [0.102356, -0.042693, -0.038881, 0.134407, 0.174717, -0.130724, -0.142127, -0.147475], [-0.094647, 0.134715, 0.090981, 0.112523, 0.257179, -0.020953, -0.074402, 0.168584], [-0.112507, -0.026653, -0.152947, 0.334389, -0.02459, 0.174587, -0.271512, -0.173302], [-0.08608, 0.011391, -0.254211, 0.1231, 0.298302, 0.048111, 0.03932, -0.061549], [-0.094581, 0.125724, 0.164422, -0.053417, 0.113834, 0.069286, -0.005724, 0.097144], [-0.046761, 0.011253, -0.112789, 0.018461, 0.073679, -0.00731, -0.16981, 0.127467], [0.015839, -0.023224, 0.046122, 0.141415, 0.270715, 0.223594, -0.049764, 0.087254], [0.034231, 0.217294, -0.003668, 0.227758, 0.194856, 0.033872, -0.192162, 0.162], [0.071929, -0.029906, -0.019843, -0.03389, 0.011988, 0.143066, -0.012787, -0.120651], [-0.013027, -0.21057, 0.07701, 0.088577, 0.047499, -0.063015, -0.064331, -0.095131], [-0.244625, 0.140016, 0.472413, 0.082375, 0.096687, -0.277722, -0.170555, 0.032883], [-0.006291, 0.142466, 0.250964, -0.001817, -0.1287, -0.140984, -0.012119, 0.048904], [-0.083224, 0.05486, 0.012272, 0.085702, -0.047846, 0.059487, 0.081507, -0.079985], [-0.032254, 0.027869, -0.078685, 0.016764, -0.030127, -0.021729, 0.025105, -0.082698], [0.021902, -0.05941, -0.036119, -0.027348, -0.036109, -0.068253, -0.061298, -0.073797], [-0.067178, 0.02586, 0.022912, 0.05644, -0.006285, 0.005659, 0.041264, -0.018067], [-0.035305, -0.20538, 0.168723, -0.375812, 0.138461, 0.266933, 0.201685, -0.302173], [-0.219897, 0.116919, 0.091244, 0.007446, 0.06329, 0.168144, 0.000223, -0.175062], [-0.258981, 0.221171, 0.060279, 0.086881, -0.036263, 0.249041, 0.008066, -0.061865], [0.146934, 0.093666, -0.041254, -0.005823, 0.034139, 0.256418, -0.07435, 0.085172], [-0.20889, 0.119478, 0.083319, -0.01713, 0.042958, -0.031533, -0.115955, 0.195499], [-0.047671, 0.147389, -0.057168, 0.040839, 0.090029, 0.098968, 0.00565, 0.079187], [-0.030965, 0.04834, 0.141431, -0.095916, 0.013233, 0.097527, -0.108187, 0.284568], [0.079781, 0.262673, 0.192997, -0.062384, 0.016151, -0.06522, 0.014198, 0.327571], [0.27097, 0.112627, 0.047412, -0.024331, -0.052249, -0.360455, -0.129653, 0.3167], [0.016529, 0.010141, 0.196116, -0.344817, -0.107265, -0.497428, -0.242311, 0.517833], [0.101991, -0.025645, 0.168869, -0.021153, -0.028942, -0.140211, -0.114409, 0.20612], [-0.096871, -0.146894, 0.056276, -0.111232, 0.026178, -0.030934, -0.288702, -0.081027], [-0.047932, -0.190964, 0.012758, 0.038555, -0.104009, 0.020846, -0.137373, -0.115088], [-0.047458, 0.027671, -0.058765, 0.117751, 0.323407, 0.039438, -0.009553, -0.105781], [-0.027923, 0.017556, 0.031477, 0.104737, -0.007057, 0.036805, -0.294809, 0.12925], [-0.111943, 0.064555, 0.116581, 0.326779, 0.145119, -0.109371, -0.132136, -0.007307], [-0.183339, 0.123927, 0.011006, -0.044504, 0.133527, 0.009056, -0.00746, -0.085443], [0.037188, 0.142842, -0.019942, -0.112888, 0.014808, 0.072685, 0.037257, -0.099558], [-0.115447, 0.113951, -0.019946, -0.015982, 0.23388, 0.048553, 0.003559, -0.259578], [-0.099694, 0.310642, 0.013414, 0.128824, 0.040258, 0.089093, 0.043616, -0.016158], [-0.184576, 0.044297, 0.046131, -0.238618, 0.213085, 0.061112, 0.109683, 0.05797], [-0.188024, -0.034514, 0.372954, -0.076881, 0.083534, -0.083717, -0.045136, 0.050214], [-0.172954, 0.1703, 0.325965, 0.04896, -0.082434, -0.284012, -0.081842, -0.033813], [-0.018806, 0.006996, 0.094269, -0.066415, 0.029116, -0.087418, -0.002743, -0.101574], [0.012201, 0.103087, 0.106275, 0.06198, -0.074726, -0.026453, -0.023369, 0.036445], [-0.067053, 0.084086, -0.073388, -0.037824, -0.044511, -0.01238, 0.068933, -0.046589], [-0.057639, 0.041357, 0.030446, 0.014575, 0.052033, -0.076956, 0.005986, -0.058567], [0.050415, 0.043777, -0.102431, 0.052796, 0.076252, 0.050196, -0.010959, 0.075726], [-0.120341, -0.110795, 0.101089, -0.156568, 0.114284, 0.213372, 0.112063, -0.1504], [-0.006109, 0.014762, 0.036913, 0.261796, 0.21124, 0.116871, -0.124394, -0.077328], [0.03179, 0.040192, -0.049569, 0.136699, 0.232805, 0.177697, -0.189194, -0.115394], [-0.017898, 0.100459, 0.018159, 0.311605, -0.016178, 0.253028, -0.010276, 0.166218], [-0.107217, 0.160979, 0.080354, -0.171374, -0.005735, 0.165284, 0.013219, 0.019202], [0.028287, 0.110422, -0.048225, 0.011492, 0.072613, 0.227476, 0.089811, 0.090787], [0.008252, 0.025547, 0.355475, 0.015561, -0.08421, 0.222016, -0.144375, 0.294495], [-0.142736, 0.036921, 0.156523, 0.061335, 0.071629, 0.269564, -0.027643, 0.198245], [-0.33093, -0.240128, 0.041936, -0.101857, 0.127146, -0.00478, -0.134022, 0.047005], [-0.118742, 0.054715, -0.088415, 0.073796, -0.066868, -0.161864, 0.124047, 0.087699], [-0.104434, -0.161081, 0.107559, -0.189443, -0.206878, -0.200251, -0.239341, -0.072855], [-0.148763, -0.038038, -0.01069, -0.085642, 0.027215, -0.153518, -0.02157, 0.001009], [-0.218738, -0.147797, 0.109698, -0.04236, 0.087476, -0.023024, -0.156789, -0.04232], [-0.141236, -0.142673, 0.084759, -0.087203, -0.01836, -0.045305, -0.06165, -0.095817], [-0.106694, 0.097944, 0.151108, 0.088512, 0.149029, 0.114485, 0.169081, -0.030612], [-0.153991, 0.161794, 0.072449, 0.014882, 0.082884, 0.23298, 0.010661, -0.028634], [-0.07844, -0.092544, -0.078422, 0.059734, -0.014177, 0.025803, -0.099198, 0.054416], [-0.119727, 0.162454, -0.007448, 0.070035, -0.068597, 0.034234, -0.049261, 0.080615], [-0.104602, 0.064151, 0.058618, 0.035368, 0.082328, 0.218984, 0.105417, -0.017962], [-0.164329, 0.337958, 0.090219, -0.04469, -0.010985, 0.245082, 0.113847, 0.25157], [-0.234114, -0.000224, 0.363194, -0.093282, 0.126179, 0.019932, 0.117005, 0.17806], [-0.182758, 0.064665, 0.059991, 0.048444, -0.055518, 0.108318, 0.187841, -0.004482], [-0.049344, 0.163646, 0.167813, 0.073856, -0.017906, -0.051343, -0.023432, 0.070645], [-0.046992, 0.065792, 0.070496, 0.04337, 0.083305, -0.036973, 0.032669, -0.067258], [0.061476, -0.016956, -0.045563, 0.043178, -0.086458, -0.027294, 0.048161, 0.00764], [0.042901, 0.071403, -0.069184, -0.049831, -0.068407, -0.085308, 0.068168, 0.033861], [-0.098832, 0.077332, -0.025368, 0.033997, -0.013485, 0.032068, 0.039799, -0.020072], [0.052295, -0.010754, -0.045502, -0.000933, 0.061681, -0.083013, 0.095312, 0.038263], [-0.224132, 0.106931, 0.137758, 0.061111, 0.108195, 0.073186, 0.120005, -0.112077], [-0.311043, 0.145443, 0.193122, 0.082763, 0.105732, 0.120782, 0.136696, -0.099021], [-0.117429, 0.248096, -0.118785, 0.156335, 0.065182, 0.197548, 0.054821, 0.142343], [-0.008622, -0.023355, 0.399775, 0.38256, -0.102966, 0.167346, 0.062197, 0.083402], [-0.079552, -0.028773, 0.365425, 0.028436, -0.006263, 0.120591, 0.03879, 0.180623], [0.006189, 0.190343, 0.124968, -0.05, -0.223574, 0.010596, -0.05358, 0.205166], [-0.27739, 0.100905, 0.166875, -0.033065, 0.071934, 0.229014, -0.055324, 0.080688], [-0.037909, 0.090559, 0.271278, 0.088897, 0.053906, 0.173706, -0.028641, 0.176401], [-0.356624, -0.06071, 0.069482, -0.118077, -0.255672, 0.076894, -0.274614, -0.025412], [-0.274148, 0.094244, 0.108001, -0.099295, 0.056941, 0.072384, -0.279825, 0.132508], [-0.108614, -0.043828, -0.130691, 0.164541, -0.179185, -0.01948, 0.02374, 0.085764], [-0.066488, -0.146374, -0.016475, 0.049516, -0.055076, -0.033326, -0.221943, -0.043812], [-0.088552, 0.150016, -0.002514, -0.122203, 0.01608, 0.054892, 0.074717, 0.158138], [-0.169671, 0.117181, -0.016766, -0.296265, 0.019293, -0.041548, 0.188561, -0.086362], [-0.064181, -0.160124, 0.037194, 0.059904, 0.109866, 0.104882, -0.019461, 0.054456], [0.001142, -0.039245, 0.216873, -0.219887, 0.021, 0.06846, 0.002654, 0.021162], [-0.035084, 0.179247, 0.159029, 0.195458, -0.215722, 0.140745, 0.20545, 0.065976], [-0.038392, 0.071242, 0.309155, -0.051586, -0.054322, 0.222151, 0.145391, 0.265257], [0.034372, 0.090726, 0.24546, -0.012712, 0.015341, 0.056302, 0.364491, 0.199329], [-0.126625, -0.128787, 0.097273, -0.141711, 0.011279, 0.194896, 0.323062, 0.278827], [-0.094881, -0.112111, 0.16913, 0.140488, -0.05471, 0.086959, 0.158867, 0.131436], [0.009879, 0.014449, 0.116054, -0.038831, -0.012585, -0.064414, 0.025716, -0.014572], [-0.034279, 0.038731, 0.069101, -0.003906, 0.059351, -0.12643, -0.014586, 0.076707], [-0.048001, -0.008881, 0.113789, -0.084122, 0.035445, -0.08442, 0.023127, 0.057936], [0.012447, 0.01976, -0.071593, 0.064953, 0.002613, -0.054796, -0.028733, -0.01012], [-0.011037, -0.06398, -0.012682, -0.082732, 0.081107, -0.06316, 0.050881, 0.060989], [-0.023257, 0.042594, -0.08292, 0.075276, -0.053331, 0.04962, 0.012518, 0.002681], [-0.185671, 0.167028, 0.056231, 0.04109, 0.081974, 0.069484, -0.014048, -0.072314], [-0.22968, 0.155253, 0.201756, 0.106694, 0.074264, -0.02546, -0.028869, 0.153408], [-0.13624, -0.112535, 0.148607, -0.025472, 0.122978, 0.293219, 0.185755, -0.070403], [-0.048836, 0.088546, 0.020577, 0.060688, 0.012088, 0.141503, 0.08459, -0.101986], [0.251863, -0.003058, 0.254561, 0.1692, -0.055739, 0.28897, 0.181803, 0.118541], [0.078129, -0.012907, 0.333972, 0.053636, 0.069596, 0.352019, 0.20079, 0.110182], [-0.07791, -0.067404, 0.123969, 0.084985, 0.058332, 0.208801, 0.228472, -0.07416], [0.006183, -0.028357, 0.069497, -0.036267, 0.023467, 0.02247, 0.066583, 0.180019], [-0.146263, -0.026039, 0.123873, 0.015483, -0.075591, 0.049788, -0.07816, 0.042502], [-0.176674, 0.183862, -0.123178, 0.22294, -0.027794, 0.219044, 0.005824, 0.230902], [-0.129457, 0.091799, 0.231146, 0.155644, 0.168843, 0.154134, 0.041886, 0.141112], [-0.187023, 0.042319, 0.215942, 0.044153, 0.169914, 0.164167, 0.157875, 0.24939], [-0.116268, -0.138603, 0.112233, -0.091002, -0.107847, 0.142633, -0.006541, 0.211577], [-0.14696, -0.14225, 0.036562, 0.148855, -0.104864, 0.201734, 0.012053, 0.009006], [0.081488, -0.114151, 0.110237, -0.033418, -0.043084, -0.069156, 0.172848, 0.040672], [-0.243591, 0.009875, 0.23294, -0.149096, 0.032504, 0.027185, 0.045488, 0.172534], [-0.174499, -0.197317, 0.27329, 0.000815, 0.029141, 0.128433, 0.010736, 0.126857], [0.080704, -0.097293, 0.164598, -0.289933, 0.250955, -0.018175, 0.080633, -0.027919], [0.15163, -0.180931, -0.02243, -0.047764, -0.1483, -0.054977, 0.42537, 0.026145], [0.010562, 0.081984, 0.082148, -0.039827, -0.064785, -0.153591, 0.082004, -0.043401], [-0.037781, 0.085784, 0.020654, -0.095763, -0.075958, 0.187331, 0.001493, 0.210724], [-0.184744, 0.143736, 0.225576, 0.018813, -0.114187, 0.036306, 0.158292, 0.189885], [-0.05928, 0.062362, -0.02769, 0.022915, -0.260161, 0.026681, 0.032415, -0.033943], [-0.172304, 0.115678, 0.056266, -0.045823, -0.065893, -0.078519, -0.039742, -0.00773], [-0.111632, 0.11207, 0.050277, 0.024561, -0.071718, -0.007015, -0.069209, -0.08051], [0.066805, 0.068267, 0.069063, 0.011146, -0.061026, 0.050743, 0.056972, -0.057013], [0.021961, 0.03575, 0.045168, 0.045417, -0.044134, -0.061755, 0.060914, 0.024848], [0.06275, 0.03327, 0.071342, 0.084039, 0.007574, -0.068494, -0.050133, -0.011536], [-0.020511, 0.012941, 0.069325, -0.0054, 0.05714, 0.072696, -0.032001, 0.06535], [-0.090668, 0.153893, 0.139628, -0.120734, -0.019792, -0.127368, 0.002741, 0.059459], [-0.075887, -0.10372, 0.374337, -0.200199, 0.115207, 0.025851, 0.143429, 0.043396], [-0.184533, 0.100126, 0.373835, 0.041042, -0.227993, -0.083575, 0.080326, 0.083768], [0.187381, 0.013739, 0.170659, -0.00801, -0.032551, 0.138882, 0.040868, 0.215073], [0.057494, 0.007827, 0.185407, -0.016735, 0.112084, 0.039402, 0.013796, 0.109007], [0.024226, 0.135749, 0.074007, 0.162689, 0.021825, -0.065732, 0.064314, 0.067695], [0.029431, -0.020389, 0.023466, 0.095193, -0.139373, -0.102564, 0.083778, 0.080232], [-0.035924, -0.075765, 0.131094, 0.001343, 0.195639, -0.055328, 0.081763, 0.00084], [0.100528, 0.089734, -0.027997, -0.068541, 0.053509, 0.143643, 0.265553, 0.132801], [0.07593, -0.044641, -0.006239, 0.095982, -0.025268, -0.0331, 0.002944, 0.03915], [-0.091024, 0.278971, -0.093584, 0.044603, 0.138292, 0.212267, 0.035665, 0.174339], [0.080391, -0.084684, 0.050192, 0.148765, -0.199162, -0.024151, 0.219584, 0.102864], [-0.118133, -0.119813, 0.008622, 0.111078, -0.023043, 0.014432, -0.087423, 0.064575], [-0.020999, 0.049047, 0.001644, -0.071669, -0.130107, 0.183952, -0.066271, 0.052681], [-0.00136, -0.049679, -0.093556, -0.07356, -0.348246, 0.080321, 0.022172, -0.082788], [-0.135006, 0.029878, -0.016183, 0.00633, -0.264564, 0.047248, -0.130011, 0.127677], [-0.154524, 0.039211, 0.249712, -0.2251, -0.037169, 0.075939, 0.111479, -0.047987], [0.051833, -0.019481, 0.182922, -0.309407, -0.016531, 0.009621, 0.059504, -0.100964], [-0.120848, -0.006707, 0.003316, -0.222857, 0.012444, -0.115747, -0.014737, 0.122629], [0.028443, 0.150816, 0.162412, -0.111795, 0.013322, 0.099539, -0.090183, 0.047092], [-0.023926, 0.086202, 0.066749, -0.019069, -0.249608, 0.112873, 0.167169, 0.063083], [0.006136, 0.064112, -0.01792, 0.057545, -0.213237, -0.073255, 0.06473, 0.041307], [-0.032465, 0.07528, 0.074156, -0.026379, -0.08517, -0.016017, -0.034376, -0.007582], [-0.019951, 0.090656, -0.064349, -0.079478, 0.0011, 0.053603, -0.067865, 0.023265], [-0.030707, 0.045371, -0.046945, -0.001571, 0.050699, -0.064128, -0.072898, -0.012762], [0.07322, -0.021431, -0.044228, 0.083092, 0.077631, 0.045372, 0.026492, 0.063528], [-0.06883, -0.069936, 0.005016, 0.024067, 0.085988, 0.071306, 0.082525, -0.04997], [-0.080684, 0.078433, 0.045992, -0.003988, -0.013713, 0.109146, 0.038953, -0.083333], [0.006928, 0.009, -0.110982, -0.086543, 0.014531, 0.053505, 0.169628, -0.055954], [-0.033599, -0.119815, 0.01936, -0.047974, 0.013778, 0.130353, 0.207595, -0.065286], [-0.083328, -0.158552, 0.080652, -0.224397, -0.171825, 0.192044, -0.014902, 0.054516], [-0.042675, -0.048643, 0.056515, 0.045985, -0.064414, -0.060631, -0.024337, -0.071533], [-0.059319, 0.077798, 0.041719, 0.14967, 0.005537, -0.114468, -0.057369, -0.116641], [0.061733, -0.044927, -0.032261, -0.008921, -0.070194, 0.146827, 0.049875, 0.214746], [-0.105427, 0.161721, 0.132111, -0.056137, -0.100137, 0.221761, 0.019396, 0.019965], [-0.048965, 0.033572, 0.046457, 0.160368, 0.010303, 0.154155, 0.009206, -0.037244], [-0.038741, 0.114306, 0.016899, 0.248049, 0.064791, 0.075031, 0.167679, 0.092349], [0.050987, -0.06892, 0.110278, 0.237987, -0.119387, 0.081779, -0.087415, 0.106026], [0.047712, 0.07264, 0.203411, 0.026865, 0.150768, 0.239594, 0.192936, 0.055252], [0.063189, 0.20447, -0.068053, -0.08536, 0.046153, 0.095182, 0.250321, 0.222262], [-0.027642, -0.031814, 0.071464, 0.127201, -0.000115, 0.086052, 0.17563, 0.074257], [0.09226, -0.101388, 0.214745, -0.075683, -0.170618, 0.214475, 0.159735, 0.172842], [0.128648, -0.188952, -0.071284, 0.053663, -0.294812, 0.149842, 0.041065, 0.028701], [0.123469, -0.080903, 0.241259, -0.053787, 0.035696, 0.087654, 0.088171, 0.113444], [-0.064861, -0.033945, 0.211738, -0.209344, -0.146113, 0.099475, 0.162506, 0.210135], [-0.052359, -0.153583, 0.111685, -0.295831, -0.057189, 0.133989, 0.106448, 0.174494], [-0.147071, 0.067905, 0.280869, -0.276253, 0.124301, -0.117781, 0.089083, 0.111099], [0.041945, 0.129823, 0.202384, -0.231662, -0.118883, -0.010932, 0.149757, 0.103327], [-0.029412, 0.026113, 0.078304, -0.035902, -0.03878, 0.057646, 0.127099, 0.330903], [-0.034366, -0.004096, -0.020132, 0.120445, -0.214068, -0.051686, -0.032678, 0.092347], [-0.113276, 0.064221, 0.090352, 0.075067, 0.057508, -0.004541, -0.019811, 0.008724], [0.020724, 0.075209, -0.053799, -0.035183, 0.053039, -0.05112, 0.079688, -0.078259], [-0.059167, -0.038962, -0.085768, -0.082797, 0.027971, -0.003589, 0.017366, 0.067312], [-0.084845, -0.020767, 0.054231, -0.070808, 0.086156, -0.079274, 0.078522, -0.006306], [-0.0126, -0.032221, -0.003397, -0.053879, -0.081293, 0.035316, -0.054169, 0.009193], [0.011185, 0.015564, -0.056896, -0.037825, 0.006929, -0.02784, 0.062005, 0.063535], [-0.044572, -0.024467, -0.042508, -0.010457, 0.060412, 0.07271, 0.081587, 0.024588], [-0.00694, 0.032038, 0.007884, 0.114205, -0.003572, 0.158989, 0.14802, -0.182844], [0.031583, -0.006178, 0.095804, 0.179568, 0.105042, -0.097328, 0.130541, -0.267875], [-0.043668, 0.073714, 0.002636, 0.106508, 0.096183, -0.024603, 0.18813, -0.374238], [-0.010332, -0.000342, -0.130874, -0.018909, -0.039131, 0.099346, 0.363029, -0.214108], [0.170915, -0.085869, -0.034613, -0.176945, -0.059989, -0.116739, 0.16141, -0.155709], [-0.11697, 0.036749, 0.032848, -0.251909, -0.063678, 0.146419, 0.244515, -0.052941], [0.066856, -0.025953, -0.063706, -0.110777, -0.097754, 0.091825, 0.127145, -0.040671], [0.161805, -0.072026, 0.144822, -0.30492, 0.115232, 0.123545, 0.3785, -0.026759], [-0.046144, 0.101491, 0.069058, -0.102772, 0.036846, 0.215873, 0.258383, 0.202007], [0.124602, 0.1121, 0.061, -0.192869, 0.064082, 0.150139, 0.349594, -0.009036], [-0.042321, 0.111464, 0.247939, -0.203973, 0.031989, 0.076055, 0.143601, 0.10223], [0.098091, 0.018005, 0.019606, -0.109277, -0.031011, 0.089736, 0.260562, 0.145886], [-0.070427, 0.023297, 0.0525, -0.3255, 0.291654, 0.114869, 0.373429, 0.14807], [-0.192751, -0.004934, 0.037195, -0.06873, -0.058326, -0.088408, 0.177173, -0.083819], [-0.080989, -0.081611, -0.071571, -0.211191, 0.039108, 0.14781, 0.244823, 0.149571], [0.050846, -0.149973, 0.011779, -0.088448, -0.185287, -0.167304, -0.018067, 0.184932], [0.123601, -0.200392, -0.009866, -0.081702, -0.104918, 0.150822, 0.231429, -0.004869], [-0.005433, 0.163927, 0.131133, -0.143712, 0.077108, -0.128132, 0.181994, -0.203286], [-0.034701, 0.014357, -0.028221, -0.126835, -0.040512, 0.096366, 0.298063, -0.063041], [0.171903, -0.164246, -0.013284, -0.169636, 0.060185, 0.01325, 0.065516, 0.141188], [-0.049631, 0.039863, 0.029699, -0.005078, -0.081152, -0.004208, 0.012604, 0.113964], [-0.13309, -0.007006, 0.113035, -0.080725, 0.047343, -0.068915, 0.044641, -0.073443], [0.050226, 0.031537, -0.014549, -0.030492, 0.011742, -0.082353, 0.018103, 0.041427], [0.048746, 0.085961, 0.036519, 0.016847, 0.0222, 0.052761, 0.013762, -0.066472], [0.059187, -0.04679, -0.003768, -0.04056, 0.058133, 0.036246, -0.078488, 0.023484], [0.020596, -0.070007, 0.053714, 0.001585, 0.077654, -0.04396, -0.059532, 0.016037], [-0.025112, -0.010105, -0.05375, 0.021968, 0.031508, -0.053819, -0.045766, 0.084901], [-0.00506, -0.040826, 0.046091, 0.058519, -0.026226, -0.068616, -0.049199, 0.019155], [-0.020118, -0.028566, 0.001008, 0.10631, 0.027286, 0.087858, 0.028143, -0.102436], [0.094531, -0.010395, -0.122483, 0.040162, 0.109864, -0.011928, 0.005855, -0.306941], [-0.00442, -0.076927, -0.074699, -0.001743, 0.057608, -0.007663, 0.258858, -0.199087], [-0.042864, -0.075912, -0.135426, 0.073208, 0.018583, 0.04322, 0.313009, -0.360656], [-0.012843, -0.132984, -0.086161, 0.064572, -0.202901, 0.013433, 0.273921, -0.269909], [0.063932, -0.050264, -0.057509, -0.015018, -0.215846, 0.040892, 0.249574, -0.212751], [-0.076211, -0.081302, -0.100793, -0.163648, 0.015237, 0.049906, 0.400002, -0.307546], [0.040134, 0.036952, -0.119988, -0.00674, -0.177761, -0.061216, 0.337934, -0.137258], [-0.042794, -0.019341, -0.069573, -0.045011, -0.203886, -0.134972, 0.253978, -0.283612], [-0.060095, 0.060493, -0.054959, 0.161819, -0.183543, 0.095358, 0.193323, -0.132058], [0.045651, 0.001814, -0.069944, 0.01986, -0.123535, -0.107804, -0.029195, -0.068546], [-0.019434, 0.159784, -0.070714, 0.040082, -0.064106, -0.072539, 0.300678, 0.0211], [0.096554, -0.072645, -0.00941, 0.124566, 0.021882, -0.08195, 0.355757, -0.074746], [0.013881, -0.082661, -0.11699, -0.051827, -0.055581, 0.053705, 0.281012, 0.14212], [0.144052, -0.178534, -0.270013, -0.003087, -0.032121, -0.052222, 0.283462, -0.10438], [0.149564, -0.276734, -0.284927, 0.14975, -0.150552, 0.221912, 0.417203, 0.035667], [0.484864, -0.341462, -0.184046, 0.014683, 0.00817, 0.082651, 0.076937, -0.059463], [0.337988, -0.16466, -0.286525, -0.187814, -0.053544, 0.10892, 0.243822, 0.094858], [0.093949, -0.185171, -0.193884, -0.150879, -0.102193, 0.081082, 0.162878, 0.015898], [0.038812, -0.040125, -0.068494, -0.189637, 0.085728, 0.042378, 0.011319, 0.10147], [-0.035077, -0.027562, 0.038147, 0.01254, -0.021576, 0.111513, -0.053956, -0.037122], [-0.045237, 0.044422, 0.04355, 0.029885, 0.044906, 0.044898, 0.036759, 0.072659], [0.034389, 0.062985, 0.070939, -0.021715, -0.046618, -0.027807, -0.064539, -0.009989], [0.071245, 0.055379, 0.037503, -0.07457, -0.060194, -0.009234, -0.080041, 0.045909], [-0.014041, 0.073223, -0.027863, -0.025703, -0.019472, -0.045236, -0.036929, -0.063878], [0.070127, -0.006115, 0.047563, 0.039778, 0.010641, -0.0363, -0.036058, -0.081431], [0.013535, 0.06334, 0.016726, -0.027891, -0.001802, 0.062695, -0.003671, 0.049765], [0.038189, -0.085274, 0.030968, 0.072344, -0.025181, -0.051989, -0.075633, 0.046897], [-0.012584, -0.060828, -0.0891, -0.010621, -0.051282, 0.08201, -0.028534, 0.053701], [0.002865, -0.023829, -0.01916, -0.074792, 0.006762, -0.0719, 0.047614, 0.066206], [0.117915, -0.083597, -0.047082, 0.009457, 0.131393, -0.008906, 0.08573, -0.102856], [0.116409, -0.004545, -0.044258, 0.162931, 0.033322, 0.022513, 0.125986, -0.15356], [0.186375, 0.069688, -0.13081, 0.219796, -0.140093, -0.040554, 0.087013, -0.090231], [0.266191, 0.038076, -0.151281, 0.077857, -0.092032, -0.013671, 0.109599, -0.076438], [0.276195, 0.131755, -0.112906, 0.172431, -0.114654, -0.020793, 0.213753, -0.095081], [0.136552, 0.099183, -0.260293, 0.07153, -0.174015, -0.111036, 0.24998, 0.034514], [0.235306, -0.0131, -0.382634, 0.081354, -0.075366, 0.031112, 0.242033, 0.029454], [0.314833, -0.067613, -0.350005, 0.211561, -0.206491, -0.069078, 0.295095, 0.099503], [0.490226, 0.025335, -0.288606, 0.177948, -0.235184, 0.092697, 0.423159, 0.088464], [0.175528, 0.006309, -0.202252, 0.202674, -0.168648, 0.219863, 0.216899, 0.074996], [0.217051, 0.126775, -0.152111, 0.108787, -0.234332, 0.067574, 0.19655, 0.1034], [0.263388, 0.156721, -0.249712, 0.031847, -0.152857, 0.015929, 0.164323, 0.020359], [0.213504, -0.051828, -0.203371, 0.022894, -0.087148, 0.13294, 0.186515, 0.138279], [0.024314, -0.003539, -0.090222, 0.124763, -0.167098, 0.063391, 0.129872, 0.036432], [0.165432, -0.06464, -0.029959, -0.101898, -0.071893, 0.108632, 0.152518, 0.03325], [0.136252, -0.109761, -0.103279, 0.0185, -0.070794, 0.112198, 0.15087, 0.022867], [0.02794, 0.017025, -0.013081, 0.097857, -0.136254, 0.047178, 0.01488, -0.056605], [0.0674, -0.036904, 0.028039, 0.018096, 0.031426, 0.026183, 0.021292, -0.045538], [0.039, 0.066803, 0.031337, -0.036708, -0.005972, 0.057235, -0.074891, 0.045904], [0.081054, -0.052326, -0.021138, 0.02068, 0.061533, -0.053579, 0.008307, 0.045139], [-0.073812, 0.028013, -0.026364, -0.085808, -0.056701, -0.005821, 0.081343, -0.021622], [0.081051, -0.022379, 0.045463, -0.028179, 0.025961, -9.5e-05, -0.05523, 0.081567], [-0.030451, 0.046297, 0.041576, 0.041335, -0.035878, 0.053683, -0.048742, 0.074814], [-0.045536, -0.07797, 0.015022, -0.085007, 0.077075, 0.001649, -0.080741, -0.041549], [-0.015001, -0.072503, -0.016491, 0.077069, 0.014237, -0.075609, -0.041149, -0.028112], [-0.053794, -0.050108, 0.08287, 0.003804, -0.06843, -0.052395, -0.083373, -0.001194], [0.077532, 0.002373, 0.046169, -0.035756, -0.028361, 0.034263, -0.052096, 0.070281], [0.063709, -0.034152, -0.061322, -0.063287, 0.005902, 0.054374, 0.002398, 0.00926], [0.078446, 0.026426, 0.010893, -0.034058, 0.000752, -0.067405, -0.083974, 0.084982], [0.071662, -0.050575, 0.012824, -0.005086, -0.017949, -0.008548, -0.010548, 0.070751], [-0.047064, -0.06476, -0.015937, 0.047716, -0.017957, 0.03818, 0.044201, 0.070369], [0.003905, -0.026722, 0.066914, 0.043703, 0.018238, -0.002969, -0.051333, -0.014886], [0.038261, 0.012232, 0.075857, 0.125417, -0.074141, 0.07056, 0.03016, -0.090121], [0.05105, -0.015845, -0.024849, 0.017746, -0.072322, 0.022583, 0.02217, 0.021169], [0.064467, -0.02562, -0.053399, -0.033191, -0.014628, 0.003874, -0.068254, 0.019506], [-0.016951, 0.09311, 0.006953, 0.055445, -0.091116, -0.024298, 0.048426, -0.006629], [0.059097, -0.060562, -0.026557, 0.090961, -0.106569, -7.6e-05, -0.071249, 0.046571], [0.122001, 0.082116, 0.057499, 0.036123, -0.059841, 0.103704, 0.060702, -0.052248], [0.107759, 0.011414, -0.090883, 0.03483, 0.018569, -0.02218, -0.051447, -0.022307], [-0.018846, 0.044395, 0.06323, 0.064074, 0.041548, 0.024263, 0.083307, -0.04009], [0.031827, -0.074232, -0.014701, 0.043205, 0.049271, -0.033883, 0.017665, 0.057298], [0.008292, 0.023914, 0.048424, -0.054497, -0.062749, -0.000679, 0.010183, 0.039326], [0.056255, 0.066468, 0.007853, 0.038327, 0.081796, 0.064084, 0.079243, -0.062057], [0.091405, -0.070123, -0.039413, 0.059413, 0.060465, -0.063472, 0.023939, -0.016171], [-0.059531, 0.014001, -0.007177, -0.051157, 0.010992, -0.034995, 0.021245, -0.060235], [-0.078283, 0.061305, -0.048089, -0.06246, -0.085834, -0.00375, -0.022699, 0.074373], [-0.026014, -0.032581, -0.05414, -0.014164, 0.040729, 0.01595, -0.064349, 0.056031], [-0.077145, -0.002145, -0.075315, 0.012747, 0.020042, 0.002633, 0.035952, -0.042719], [0.012684, -0.015701, -0.058711, 0.055798, -0.024535, 0.038278, -0.081509, -0.075231], [-0.076715, 0.021265, 0.028053, 0.044127, 0.070012, -0.074388, -0.063422, -0.03558]], "2": [[1.134713, -0.540517, 0.962158, -0.624092, 1.10679, 0.075819, 0.472115, 0.073508], [0.135374, -0.719363, 0.027963, 1.06762, 0.669225, -0.177831, 0.066674, 1.07672], [-0.790608, 0.114304, 0.312413, 0.572204, 1.198806, 0.92826, -0.291372, -0.104278], [-0.414669, 0.447379, -0.723976, 0.864843, 0.573368, -0.274776, -0.81365, -1.46644], [0.588366, 0.200156, -1.033607, -0.460012, 0.071876, 0.095729, 1.544204, -0.193965], [0.893087, 1.468017, 0.270554, 0.358365, -0.322601, 0.54921, 0.055485, 0.574007], [-0.427456, 0.752988, -1.491718, 0.657484, -0.385872, -0.083282, -1.531502, -0.656868], [0.171769, -1.448755, -0.011384, 0.102293, -0.828033, 0.262179, -0.331643, -0.634383]], "3": [[0.871968, -0.713567, 0.711997, 0.310453, 0.192878, -0.39283, -0.389663, 1.197948], [-0.268174, 0.678712, 0.905959, -0.24315, -0.116637, 0.420534, -0.587757, -0.649349], [-0.480748, 0.69924, 0.124039, 0.306033, -1.113468, 0.723661, -0.468037, -0.027937], [-0.898678, 0.674752, 0.144447, 1.323491, 0.086962, -0.804573, 0.115946, -0.062008], [0.750816, 0.715193, -0.561873, -0.377817, 1.083279, 0.114694, 0.170072, -0.474411], [-0.128596, -0.468132, 0.302142, -0.841448, -0.055784, 0.249, 0.940875, 0.457576], [-0.134714, 0.190824, -0.034989, 0.751837, -0.503152, -0.262864, 1.149198, -0.985449], [-0.2958, 0.530786, -0.019975, -0.689516, 1.035342, 0.221046, 0.259499, -0.775813]], "4": [[-0.203359, -0.172184, -0.479554, -0.206533, 0.81915, -0.217301, -0.924055, 0.777658, -0.131625, 1.046573], [-0.328421, 1.125793, 0.223648, -0.000599, -0.143, 0.189781, -1.168471, 0.871505, -0.084032, -0.423014], [-0.659587, 0.135251, -0.559545, 0.678475, 0.233171, 0.765505, -0.105056, -0.946149, 0.164327, 0.371275], [1.081524, -0.942572, 0.100089, -0.544645, 0.475895, -0.166846, 0.221304, -0.097103, -0.727342, -0.144715], [0.348016, -0.520612, 0.62714, 1.068034, -0.843268, -0.098159, -0.766825, 0.240609, 0.605579, 0.347686], [-0.506112, 0.69635, -0.080028, -0.078405, 0.13287, -0.699614, -0.453355, -0.667314, -0.264419, 0.571979], [-0.095816, 0.088074, 0.510528, -0.186873, -0.085975, -0.47469, 0.932021, -0.740314, 0.096031, -0.91904], [0.369644, 0.273972, -0.016033, -0.507287, -0.935394, 0.174826, 0.294348, -0.340219, 0.773196, -0.438681]]}, "biases": {"1": [-0.712755, -0.458489, 0.170283, -0.437222, -0.421678, -0.456932, 0.000193, -0.448992], "2": [-0.145165, 0.36064, -0.699123, 0.041132, -0.341355, -0.376815, -0.809541, -0.688174], "3": [-0.301259, -0.654754, -0.327585, -0.429652, 0.897332, -0.071547, 0.282055, 0.584115], "4": [1.048257, -0.365342, 0.279276, 0.681024, 0.261276, -1.208701, -0.191858, -0.937606, 0.392699, 0.040973]}}